{
  "object_classifier_type": "OpenCVMLClassifier",
  "featureExtractor": {
    "feature_extractor_type": "DefaultFeatureExtractor",
    "measurements": [
      "Nucleus: Area",
      "Nucleus: Perimeter",
      "Nucleus: Circularity",
      "Nucleus: Max caliper",
      "Nucleus: Min caliper",
      "Nucleus: Eccentricity",
      "Nucleus: DAPI mean",
      "Nucleus: DAPI sum",
      "Nucleus: DAPI std dev",
      "Nucleus: DAPI max",
      "Nucleus: DAPI min",
      "Nucleus: DAPI range",
      "Nucleus: Opal 480 mean",
      "Nucleus: Opal 480 sum",
      "Nucleus: Opal 480 std dev",
      "Nucleus: Opal 480 max",
      "Nucleus: Opal 480 min",
      "Nucleus: Opal 480 range",
      "Nucleus: Opal 520 mean",
      "Nucleus: Opal 520 sum",
      "Nucleus: Opal 520 std dev",
      "Nucleus: Opal 520 max",
      "Nucleus: Opal 520 min",
      "Nucleus: Opal 520 range",
      "Nucleus: Opal 540 mean",
      "Nucleus: Opal 540 sum",
      "Nucleus: Opal 540 std dev",
      "Nucleus: Opal 540 max",
      "Nucleus: Opal 540 min",
      "Nucleus: Opal 540 range",
      "Nucleus: Opal 570 mean",
      "Nucleus: Opal 570 sum",
      "Nucleus: Opal 570 std dev",
      "Nucleus: Opal 570 max",
      "Nucleus: Opal 570 min",
      "Nucleus: Opal 570 range",
      "Nucleus: Opal 620 mean",
      "Nucleus: Opal 620 sum",
      "Nucleus: Opal 620 std dev",
      "Nucleus: Opal 620 max",
      "Nucleus: Opal 620 min",
      "Nucleus: Opal 620 range",
      "Nucleus: Opal 650 mean",
      "Nucleus: Opal 650 sum",
      "Nucleus: Opal 650 std dev",
      "Nucleus: Opal 650 max",
      "Nucleus: Opal 650 min",
      "Nucleus: Opal 650 range",
      "Nucleus: Opal 690 mean",
      "Nucleus: Opal 690 sum",
      "Nucleus: Opal 690 std dev",
      "Nucleus: Opal 690 max",
      "Nucleus: Opal 690 min",
      "Nucleus: Opal 690 range",
      "Nucleus: Opal 780 mean",
      "Nucleus: Opal 780 sum",
      "Nucleus: Opal 780 std dev",
      "Nucleus: Opal 780 max",
      "Nucleus: Opal 780 min",
      "Nucleus: Opal 780 range",
      "Nucleus: Autofluorescence mean",
      "Nucleus: Autofluorescence sum",
      "Nucleus: Autofluorescence std dev",
      "Nucleus: Autofluorescence max",
      "Nucleus: Autofluorescence min",
      "Nucleus: Autofluorescence range",
      "Cell: Area",
      "Cell: Perimeter",
      "Cell: Circularity",
      "Cell: Max caliper",
      "Cell: Min caliper",
      "Cell: Eccentricity",
      "Cell: DAPI mean",
      "Cell: DAPI std dev",
      "Cell: DAPI max",
      "Cell: DAPI min",
      "Cell: Opal 480 mean",
      "Cell: Opal 480 std dev",
      "Cell: Opal 480 max",
      "Cell: Opal 480 min",
      "Cell: Opal 520 mean",
      "Cell: Opal 520 std dev",
      "Cell: Opal 520 max",
      "Cell: Opal 520 min",
      "Cell: Opal 540 mean",
      "Cell: Opal 540 std dev",
      "Cell: Opal 540 max",
      "Cell: Opal 540 min",
      "Cell: Opal 570 mean",
      "Cell: Opal 570 std dev",
      "Cell: Opal 570 max",
      "Cell: Opal 570 min",
      "Cell: Opal 620 mean",
      "Cell: Opal 620 std dev",
      "Cell: Opal 620 max",
      "Cell: Opal 620 min",
      "Cell: Opal 650 mean",
      "Cell: Opal 650 std dev",
      "Cell: Opal 650 max",
      "Cell: Opal 650 min",
      "Cell: Opal 690 mean",
      "Cell: Opal 690 std dev",
      "Cell: Opal 690 max",
      "Cell: Opal 690 min",
      "Cell: Opal 780 mean",
      "Cell: Opal 780 std dev",
      "Cell: Opal 780 max",
      "Cell: Opal 780 min",
      "Cell: Autofluorescence mean",
      "Cell: Autofluorescence std dev",
      "Cell: Autofluorescence max",
      "Cell: Autofluorescence min",
      "Cytoplasm: DAPI mean",
      "Cytoplasm: DAPI std dev",
      "Cytoplasm: DAPI max",
      "Cytoplasm: DAPI min",
      "Cytoplasm: Opal 480 mean",
      "Cytoplasm: Opal 480 std dev",
      "Cytoplasm: Opal 480 max",
      "Cytoplasm: Opal 480 min",
      "Cytoplasm: Opal 520 mean",
      "Cytoplasm: Opal 520 std dev",
      "Cytoplasm: Opal 520 max",
      "Cytoplasm: Opal 520 min",
      "Cytoplasm: Opal 540 mean",
      "Cytoplasm: Opal 540 std dev",
      "Cytoplasm: Opal 540 max",
      "Cytoplasm: Opal 540 min",
      "Cytoplasm: Opal 570 mean",
      "Cytoplasm: Opal 570 std dev",
      "Cytoplasm: Opal 570 max",
      "Cytoplasm: Opal 570 min",
      "Cytoplasm: Opal 620 mean",
      "Cytoplasm: Opal 620 std dev",
      "Cytoplasm: Opal 620 max",
      "Cytoplasm: Opal 620 min",
      "Cytoplasm: Opal 650 mean",
      "Cytoplasm: Opal 650 std dev",
      "Cytoplasm: Opal 650 max",
      "Cytoplasm: Opal 650 min",
      "Cytoplasm: Opal 690 mean",
      "Cytoplasm: Opal 690 std dev",
      "Cytoplasm: Opal 690 max",
      "Cytoplasm: Opal 690 min",
      "Cytoplasm: Opal 780 mean",
      "Cytoplasm: Opal 780 std dev",
      "Cytoplasm: Opal 780 max",
      "Cytoplasm: Opal 780 min",
      "Cytoplasm: Autofluorescence mean",
      "Cytoplasm: Autofluorescence std dev",
      "Cytoplasm: Autofluorescence max",
      "Cytoplasm: Autofluorescence min",
      "Nucleus/Cell area ratio"
    ]
  },
  "classifier": {
    "class": "RTrees",
    "statmodel": {
      "opencv_ml_rtrees": {
        "format": 3,
        "is_classifier": 1,
        "var_all": 154,
        "var_count": 153,
        "ord_var_count": 153,
        "cat_var_count": 1,
        "training_params": {
          "use_surrogates": 0,
          "max_categories": 10,
          "regression_accuracy": 0.0,
          "max_depth": 25,
          "min_sample_count": 10,
          "cross_validation_folds": 0,
          "nactive_vars": 0
        },
        "global_var_idx": 1,
        "var_idx": [
          0,
          1,
          2,
          3,
          4,
          5,
          6,
          7,
          8,
          9,
          10,
          11,
          12,
          13,
          14,
          15,
          16,
          17,
          18,
          19,
          20,
          21,
          22,
          23,
          24,
          25,
          26,
          27,
          28,
          29,
          30,
          31,
          32,
          33,
          34,
          35,
          36,
          37,
          38,
          39,
          40,
          41,
          42,
          43,
          44,
          45,
          46,
          47,
          48,
          49,
          50,
          51,
          52,
          53,
          54,
          55,
          56,
          57,
          58,
          59,
          60,
          61,
          62,
          63,
          64,
          65,
          66,
          67,
          68,
          69,
          70,
          71,
          72,
          73,
          74,
          75,
          76,
          77,
          78,
          79,
          80,
          81,
          82,
          83,
          84,
          85,
          86,
          87,
          88,
          89,
          90,
          91,
          92,
          93,
          94,
          95,
          96,
          97,
          98,
          99,
          100,
          101,
          102,
          103,
          104,
          105,
          106,
          107,
          108,
          109,
          110,
          111,
          112,
          113,
          114,
          115,
          116,
          117,
          118,
          119,
          120,
          121,
          122,
          123,
          124,
          125,
          126,
          127,
          128,
          129,
          130,
          131,
          132,
          133,
          134,
          135,
          136,
          137,
          138,
          139,
          140,
          141,
          142,
          143,
          144,
          145,
          146,
          147,
          148,
          149,
          150,
          151,
          152
        ],
        "var_type": [
          0,
          0,
          0,
          0,
          0,
          0,
          0,
          0,
          0,
          0,
          0,
          0,
          0,
          0,
          0,
          0,
          0,
          0,
          0,
          0,
          0,
          0,
          0,
          0,
          0,
          0,
          0,
          0,
          0,
          0,
          0,
          0,
          0,
          0,
          0,
          0,
          0,
          0,
          0,
          0,
          0,
          0,
          0,
          0,
          0,
          0,
          0,
          0,
          0,
          0,
          0,
          0,
          0,
          0,
          0,
          0,
          0,
          0,
          0,
          0,
          0,
          0,
          0,
          0,
          0,
          0,
          0,
          0,
          0,
          0,
          0,
          0,
          0,
          0,
          0,
          0,
          0,
          0,
          0,
          0,
          0,
          0,
          0,
          0,
          0,
          0,
          0,
          0,
          0,
          0,
          0,
          0,
          0,
          0,
          0,
          0,
          0,
          0,
          0,
          0,
          0,
          0,
          0,
          0,
          0,
          0,
          0,
          0,
          0,
          0,
          0,
          0,
          0,
          0,
          0,
          0,
          0,
          0,
          0,
          0,
          0,
          0,
          0,
          0,
          0,
          0,
          0,
          0,
          0,
          0,
          0,
          0,
          0,
          0,
          0,
          0,
          0,
          0,
          0,
          0,
          0,
          0,
          0,
          0,
          0,
          0,
          0,
          0,
          0,
          0,
          0,
          0,
          0,
          1
        ],
        "cat_ofs": [
          0,
          0,
          0,
          0,
          0,
          0,
          0,
          0,
          0,
          0,
          0,
          0,
          0,
          0,
          0,
          0,
          0,
          0,
          0,
          0,
          0,
          0,
          0,
          0,
          0,
          0,
          0,
          0,
          0,
          0,
          0,
          0,
          0,
          0,
          0,
          0,
          0,
          0,
          0,
          0,
          0,
          0,
          0,
          0,
          0,
          0,
          0,
          0,
          0,
          0,
          0,
          0,
          0,
          0,
          0,
          0,
          0,
          0,
          0,
          0,
          0,
          0,
          0,
          0,
          0,
          0,
          0,
          0,
          0,
          0,
          0,
          0,
          0,
          0,
          0,
          0,
          0,
          0,
          0,
          0,
          0,
          0,
          0,
          0,
          0,
          0,
          0,
          0,
          0,
          0,
          0,
          0,
          0,
          0,
          0,
          0,
          0,
          0,
          0,
          0,
          0,
          0,
          0,
          0,
          0,
          0,
          0,
          0,
          0,
          0,
          0,
          0,
          0,
          0,
          0,
          0,
          0,
          0,
          0,
          0,
          0,
          0,
          0,
          0,
          0,
          0,
          0,
          0,
          0,
          0,
          0,
          0,
          0,
          0,
          0,
          0,
          0,
          0,
          0,
          0,
          0,
          0,
          0,
          0,
          0,
          0,
          0,
          0,
          0,
          0,
          0,
          0,
          0,
          0,
          0,
          0,
          0,
          0,
          0,
          0,
          0,
          0,
          0,
          0,
          0,
          0,
          0,
          0,
          0,
          0,
          0,
          0,
          0,
          0,
          0,
          0,
          0,
          0,
          0,
          0,
          0,
          0,
          0,
          0,
          0,
          0,
          0,
          0,
          0,
          0,
          0,
          0,
          0,
          0,
          0,
          0,
          0,
          0,
          0,
          0,
          0,
          0,
          0,
          0,
          0,
          0,
          0,
          0,
          0,
          0,
          0,
          0,
          0,
          0,
          0,
          0,
          0,
          0,
          0,
          0,
          0,
          0,
          0,
          0,
          0,
          0,
          0,
          0,
          0,
          0,
          0,
          0,
          0,
          0,
          0,
          0,
          0,
          0,
          0,
          0,
          0,
          0,
          0,
          0,
          0,
          0,
          0,
          0,
          0,
          0,
          0,
          0,
          0,
          0,
          0,
          0,
          0,
          0,
          0,
          0,
          0,
          0,
          0,
          0,
          0,
          0,
          0,
          0,
          0,
          0,
          0,
          0,
          0,
          0,
          0,
          0,
          0,
          0,
          0,
          0,
          0,
          0,
          0,
          0,
          0,
          0,
          0,
          0,
          0,
          0,
          0,
          0,
          0,
          0,
          0,
          0,
          0,
          0,
          0,
          0,
          0,
          0,
          0,
          0,
          0,
          0
        ],
        "class_labels": [
          0,
          1
        ],
        "missing_subst": [
          0.0,
          0.0,
          0.0,
          0.0,
          0.0,
          0.0,
          0.0,
          0.0,
          0.0,
          0.0,
          0.0,
          0.0,
          0.0,
          0.0,
          0.0,
          0.0,
          0.0,
          0.0,
          0.0,
          0.0,
          0.0,
          0.0,
          0.0,
          0.0,
          0.0,
          0.0,
          0.0,
          0.0,
          0.0,
          0.0,
          0.0,
          0.0,
          0.0,
          0.0,
          0.0,
          0.0,
          0.0,
          0.0,
          0.0,
          0.0,
          0.0,
          0.0,
          0.0,
          0.0,
          0.0,
          0.0,
          0.0,
          0.0,
          0.0,
          0.0,
          0.0,
          0.0,
          0.0,
          0.0,
          0.0,
          0.0,
          0.0,
          0.0,
          0.0,
          0.0,
          0.0,
          0.0,
          0.0,
          0.0,
          0.0,
          0.0,
          0.0,
          0.0,
          0.0,
          0.0,
          0.0,
          0.0,
          0.0,
          0.0,
          0.0,
          0.0,
          0.0,
          0.0,
          0.0,
          0.0,
          0.0,
          0.0,
          0.0,
          0.0,
          0.0,
          0.0,
          0.0,
          0.0,
          0.0,
          0.0,
          0.0,
          0.0,
          0.0,
          0.0,
          0.0,
          0.0,
          0.0,
          0.0,
          0.0,
          0.0,
          0.0,
          0.0,
          0.0,
          0.0,
          0.0,
          0.0,
          0.0,
          0.0,
          0.0,
          0.0,
          0.0,
          0.0,
          0.0,
          0.0,
          0.0,
          0.0,
          0.0,
          0.0,
          0.0,
          0.0,
          0.0,
          0.0,
          0.0,
          0.0,
          0.0,
          0.0,
          0.0,
          0.0,
          0.0,
          0.0,
          0.0,
          0.0,
          0.0,
          0.0,
          0.0,
          0.0,
          0.0,
          0.0,
          0.0,
          0.0,
          0.0,
          0.0,
          0.0,
          0.0,
          0.0,
          0.0,
          0.0,
          0.0,
          0.0,
          0.0,
          0.0,
          0.0,
          0.0,
          0.0
        ],
        "oob_error": 0.0,
        "ntrees": 50,
        "trees": [
          {
            "nodes": [
              {
                "depth": 0,
                "value": 1.0,
                "norm_class_idx": 1,
                "splits": [
                  {
                    "var": 142,
                    "quality": 1.1194976806640625e+03,
                    "le": 1.4530032873153687e+00
                  }
                ]
              },
              {
                "depth": 1,
                "value": 1.0,
                "norm_class_idx": 1,
                "splits": [
                  {
                    "var": 84,
                    "quality": 6.7879821777343750e+02,
                    "le": 6.7969436645507812e+00
                  }
                ]
              },
              {
                "depth": 2,
                "value": 1.0,
                "norm_class_idx": 1,
                "splits": [
                  {
                    "var": 138,
                    "quality": 5.7883416748046875e+02,
                    "le": 2.0935543060302734e+01
                  }
                ]
              },
              {
                "depth": 3,
                "value": 0.0,
                "norm_class_idx": 0,
                "splits": [
                  {
                    "var": 35,
                    "quality": 2.3207736206054688e+02,
                    "le": 3.2967762947082520e+00
                  }
                ]
              },
              {
                "depth": 4,
                "value": 0.0,
                "norm_class_idx": 0,
                "splits": [
                  {
                    "var": 58,
                    "quality": 2.0091891479492188e+02,
                    "le": 4.1577166318893433e-01
                  }
                ]
              },
              {
                "depth": 5,
                "value": 1.0,
                "norm_class_idx": 1,
                "splits": [
                  {
                    "var": 3,
                    "quality": 6.6921195983886719e+01,
                    "le": 8.9801187515258789e+00
                  }
                ]
              },
              {
                "depth": 6,
                "value": 1.0,
                "norm_class_idx": 1,
                "splits": [
                  {
                    "var": 34,
                    "quality": 4.2395122528076172e+01,
                    "le": 8.0883973836898804e-01
                  }
                ]
              },
              {
                "depth": 7,
                "value": 1.0,
                "norm_class_idx": 1,
                "splits": [
                  {
                    "var": 141,
                    "quality": 3.9049999237060547e+01,
                    "le": 5.1995649933815002e-02
                  }
                ]
              },
              {
                "depth": 8,
                "value": 0.0,
                "norm_class_idx": 0
              },
              {
                "depth": 8,
                "value": 1.0,
                "norm_class_idx": 1,
                "splits": [
                  {
                    "var": 90,
                    "quality": 3.8250000000000000e+01,
                    "le": 2.8331804275512695e+00
                  }
                ]
              },
              {
                "depth": 9,
                "value": 1.0,
                "norm_class_idx": 1
              },
              {
                "depth": 9,
                "value": 1.0,
                "norm_class_idx": 1
              },
              {
                "depth": 7,
                "value": 1.0,
                "norm_class_idx": 1
              },
              {
                "depth": 6,
                "value": 1.0,
                "norm_class_idx": 1,
                "splits": [
                  {
                    "var": 53,
                    "quality": 3.5839870452880859e+01,
                    "le": 8.1848508119583130e-01
                  }
                ]
              },
              {
                "depth": 7,
                "value": 0.0,
                "norm_class_idx": 0,
                "splits": [
                  {
                    "var": 144,
                    "quality": 2.6009851455688477e+01,
                    "le": 5.1860928535461426e-01
                  }
                ]
              },
              {
                "depth": 8,
                "value": 1.0,
                "norm_class_idx": 1
              },
              {
                "depth": 8,
                "value": 0.0,
                "norm_class_idx": 0,
                "splits": [
                  {
                    "var": 6,
                    "quality": 2.5307691574096680e+01,
                    "le": 7.4003815650939941e+00
                  }
                ]
              },
              {
                "depth": 9,
                "value": 0.0,
                "norm_class_idx": 0,
                "splits": [
                  {
                    "var": 114,
                    "quality": 2.4079999923706055e+01,
                    "le": 2.0218997001647949e+00
                  }
                ]
              },
              {
                "depth": 10,
                "value": 1.0,
                "norm_class_idx": 1
              },
              {
                "depth": 10,
                "value": 0.0,
                "norm_class_idx": 0,
                "splits": [
                  {
                    "var": 13,
                    "quality": 25.0,
                    "le": 8.5934722900390625e+02
                  }
                ]
              },
              {
                "depth": 11,
                "value": 0.0,
                "norm_class_idx": 0
              },
              {
                "depth": 11,
                "value": 1.0,
                "norm_class_idx": 1
              },
              {
                "depth": 9,
                "value": 1.0,
                "norm_class_idx": 1
              },
              {
                "depth": 7,
                "value": 1.0,
                "norm_class_idx": 1,
                "splits": [
                  {
                    "var": 67,
                    "quality": 16.0,
                    "le": 4.5518486022949219e+01
                  }
                ]
              },
              {
                "depth": 8,
                "value": 1.0,
                "norm_class_idx": 1
              },
              {
                "depth": 8,
                "value": 0.0,
                "norm_class_idx": 0
              },
              {
                "depth": 5,
                "value": 0.0,
                "norm_class_idx": 0,
                "splits": [
                  {
                    "var": 15,
                    "quality": 1.5182174682617188e+02,
                    "le": 8.3668029401451349e-04
                  }
                ]
              },
              {
                "depth": 6,
                "value": 0.0,
                "norm_class_idx": 0,
                "splits": [
                  {
                    "var": 111,
                    "quality": 4.8409091949462891e+01,
                    "le": 6.5018520355224609e+00
                  }
                ]
              },
              {
                "depth": 7,
                "value": 0.0,
                "norm_class_idx": 0,
                "splits": [
                  {
                    "var": 61,
                    "quality": 2.9629629135131836e+01,
                    "le": 3.1151718750000000e+03
                  }
                ]
              },
              {
                "depth": 8,
                "value": 0.0,
                "norm_class_idx": 0,
                "splits": [
                  {
                    "var": 35,
                    "quality": 27.0,
                    "le": 2.6995949745178223e+00
                  }
                ]
              },
              {
                "depth": 9,
                "value": 0.0,
                "norm_class_idx": 0
              },
              {
                "depth": 9,
                "value": 1.0,
                "norm_class_idx": 1
              },
              {
                "depth": 8,
                "value": 1.0,
                "norm_class_idx": 1
              },
              {
                "depth": 7,
                "value": 1.0,
                "norm_class_idx": 1,
                "splits": [
                  {
                    "var": 98,
                    "quality": 4.0185264587402344e+01,
                    "le": 1.9014024734497070e+01
                  }
                ]
              },
              {
                "depth": 8,
                "value": 0.0,
                "norm_class_idx": 0,
                "splits": [
                  {
                    "var": 101,
                    "quality": 18.0,
                    "le": 2.2767934203147888e-01
                  }
                ]
              },
              {
                "depth": 9,
                "value": 0.0,
                "norm_class_idx": 0
              },
              {
                "depth": 9,
                "value": 0.0,
                "norm_class_idx": 0
              },
              {
                "depth": 8,
                "value": 1.0,
                "norm_class_idx": 1,
                "splits": [
                  {
                    "var": 29,
                    "quality": 25.0,
                    "le": 1.2341790199279785e+01
                  }
                ]
              },
              {
                "depth": 9,
                "value": 1.0,
                "norm_class_idx": 1
              },
              {
                "depth": 9,
                "value": 0.0,
                "norm_class_idx": 0
              },
              {
                "depth": 6,
                "value": 0.0,
                "norm_class_idx": 0,
                "splits": [
                  {
                    "var": 41,
                    "quality": 1.1526667022705078e+02,
                    "le": 9.3636202812194824e-01
                  }
                ]
              },
              {
                "depth": 7,
                "value": 1.0,
                "norm_class_idx": 1
              },
              {
                "depth": 7,
                "value": 0.0,
                "norm_class_idx": 0,
                "splits": [
                  {
                    "var": 15,
                    "quality": 1.1801709747314453e+02,
                    "le": 1.5201969146728516e+01
                  }
                ]
              },
              {
                "depth": 8,
                "value": 0.0,
                "norm_class_idx": 0,
                "splits": [
                  {
                    "var": 2,
                    "quality": 1.1550000000000000e+02,
                    "le": 9.8495352268218994e-01
                  }
                ]
              },
              {
                "depth": 9,
                "value": 0.0,
                "norm_class_idx": 0
              },
              {
                "depth": 9,
                "value": 0.0,
                "norm_class_idx": 0
              },
              {
                "depth": 8,
                "value": 1.0,
                "norm_class_idx": 1
              },
              {
                "depth": 4,
                "value": 1.0,
                "norm_class_idx": 1,
                "splits": [
                  {
                    "var": 23,
                    "quality": 7.0500000000000000e+01,
                    "le": 2.1570751667022705e+00
                  }
                ]
              },
              {
                "depth": 5,
                "value": 1.0,
                "norm_class_idx": 1
              },
              {
                "depth": 5,
                "value": 0.0,
                "norm_class_idx": 0
              },
              {
                "depth": 3,
                "value": 1.0,
                "norm_class_idx": 1,
                "splits": [
                  {
                    "var": 15,
                    "quality": 3.9694689941406250e+02,
                    "le": 4.6114215254783630e-01
                  }
                ]
              },
              {
                "depth": 4,
                "value": 1.0,
                "norm_class_idx": 1,
                "splits": [
                  {
                    "var": 58,
                    "quality": 3.4166241455078125e+02,
                    "le": 7.1021270751953125e-01
                  }
                ]
              },
              {
                "depth": 5,
                "value": 1.0,
                "norm_class_idx": 1,
                "splits": [
                  {
                    "var": 133,
                    "quality": 3.3984774780273438e+02,
                    "le": 2.6980215311050415e-01
                  }
                ]
              },
              {
                "depth": 6,
                "value": 0.0,
                "norm_class_idx": 0
              },
              {
                "depth": 6,
                "value": 1.0,
                "norm_class_idx": 1,
                "splits": [
                  {
                    "var": 54,
                    "quality": 3.4688226318359375e+02,
                    "le": 8.7107634544372559e-01
                  }
                ]
              },
              {
                "depth": 7,
                "value": 1.0,
                "norm_class_idx": 1,
                "splits": [
                  {
                    "var": 52,
                    "quality": 3.3715054321289062e+02,
                    "le": 1.1138390749692917e-02
                  }
                ]
              },
              {
                "depth": 8,
                "value": 1.0,
                "norm_class_idx": 1,
                "splits": [
                  {
                    "var": 3,
                    "quality": 3.3536566162109375e+02,
                    "le": 5.1783733367919922e+00
                  }
                ]
              },
              {
                "depth": 9,
                "value": 1.0,
                "norm_class_idx": 1
              },
              {
                "depth": 9,
                "value": 1.0,
                "norm_class_idx": 1,
                "splits": [
                  {
                    "var": 46,
                    "quality": 3.3408410644531250e+02,
                    "le": 1.1859766006469727e+01
                  }
                ]
              },
              {
                "depth": 10,
                "value": 1.0,
                "norm_class_idx": 1,
                "splits": [
                  {
                    "var": 46,
                    "quality": 1.1286154174804688e+02,
                    "le": 1.1786132812500000e+01
                  }
                ]
              },
              {
                "depth": 11,
                "value": 1.0,
                "norm_class_idx": 1,
                "splits": [
                  {
                    "var": 112,
                    "quality": 1.1518399810791016e+02,
                    "le": 1.5942416191101074e+00
                  }
                ]
              },
              {
                "depth": 12,
                "value": 1.0,
                "norm_class_idx": 1,
                "splits": [
                  {
                    "var": 110,
                    "quality": 1.1267032623291016e+02,
                    "le": 1.4597461700439453e+01
                  }
                ]
              },
              {
                "depth": 13,
                "value": 1.0,
                "norm_class_idx": 1,
                "splits": [
                  {
                    "var": 125,
                    "quality": 13.0,
                    "le": 8.9198529720306396e-01
                  }
                ]
              },
              {
                "depth": 14,
                "value": 1.0,
                "norm_class_idx": 1
              },
              {
                "depth": 14,
                "value": 0.0,
                "norm_class_idx": 0
              },
              {
                "depth": 13,
                "value": 1.0,
                "norm_class_idx": 1,
                "splits": [
                  {
                    "var": 57,
                    "quality": 1.0516363525390625e+02,
                    "le": 1.2753213644027710e+00
                  }
                ]
              },
              {
                "depth": 14,
                "value": 1.0,
                "norm_class_idx": 1,
                "splits": [
                  {
                    "var": 71,
                    "quality": 1.0801851654052734e+02,
                    "le": 1.9284778833389282e-01
                  }
                ]
              },
              {
                "depth": 15,
                "value": 0.0,
                "norm_class_idx": 0
              },
              {
                "depth": 15,
                "value": 1.0,
                "norm_class_idx": 1,
                "splits": [
                  {
                    "var": 81,
                    "quality": 1.0606451416015625e+02,
                    "le": 3.7644499540328979e-01
                  }
                ]
              },
              {
                "depth": 16,
                "value": 1.0,
                "norm_class_idx": 1
              },
              {
                "depth": 16,
                "value": 1.0,
                "norm_class_idx": 1,
                "splits": [
                  {
                    "var": 136,
                    "quality": 2.9250000000000000e+01,
                    "le": 1.4750339508056641e+01
                  }
                ]
              },
              {
                "depth": 17,
                "value": 1.0,
                "norm_class_idx": 1
              },
              {
                "depth": 17,
                "value": 1.0,
                "norm_class_idx": 1
              },
              {
                "depth": 14,
                "value": 0.0,
                "norm_class_idx": 0
              },
              {
                "depth": 12,
                "value": 0.0,
                "norm_class_idx": 0
              },
              {
                "depth": 11,
                "value": 0.0,
                "norm_class_idx": 0
              },
              {
                "depth": 10,
                "value": 1.0,
                "norm_class_idx": 1,
                "splits": [
                  {
                    "var": 134,
                    "quality": 2.2657826232910156e+02,
                    "le": 2.2762539386749268e+00
                  }
                ]
              },
              {
                "depth": 11,
                "value": 1.0,
                "norm_class_idx": 1
              },
              {
                "depth": 11,
                "value": 1.0,
                "norm_class_idx": 1,
                "splits": [
                  {
                    "var": 147,
                    "quality": 2.2534225463867188e+02,
                    "le": 1.6890349984169006e-01
                  }
                ]
              },
              {
                "depth": 12,
                "value": 1.0,
                "norm_class_idx": 1
              },
              {
                "depth": 12,
                "value": 1.0,
                "norm_class_idx": 1,
                "splits": [
                  {
                    "var": 101,
                    "quality": 2.2204347229003906e+02,
                    "le": 1.0134553909301758e-01
                  }
                ]
              },
              {
                "depth": 13,
                "value": 1.0,
                "norm_class_idx": 1,
                "splits": [
                  {
                    "var": 57,
                    "quality": 46.0,
                    "le": 1.1922974586486816e+00
                  }
                ]
              },
              {
                "depth": 14,
                "value": 1.0,
                "norm_class_idx": 1
              },
              {
                "depth": 14,
                "value": 0.0,
                "norm_class_idx": 0
              },
              {
                "depth": 13,
                "value": 1.0,
                "norm_class_idx": 1
              },
              {
                "depth": 8,
                "value": 0.0,
                "norm_class_idx": 0
              },
              {
                "depth": 7,
                "value": 0.0,
                "norm_class_idx": 0,
                "splits": [
                  {
                    "var": 85,
                    "quality": 1.8133333206176758e+01,
                    "le": 2.0533914566040039e+00
                  }
                ]
              },
              {
                "depth": 8,
                "value": 0.0,
                "norm_class_idx": 0
              },
              {
                "depth": 8,
                "value": 1.0,
                "norm_class_idx": 1,
                "splits": [
                  {
                    "var": 111,
                    "quality": 1.3166666984558105e+01,
                    "le": 8.9957103729248047e+00
                  }
                ]
              },
              {
                "depth": 9,
                "value": 1.0,
                "norm_class_idx": 1,
                "splits": [
                  {
                    "var": 62,
                    "quality": 12.0,
                    "le": 1.0081303119659424e+00
                  }
                ]
              },
              {
                "depth": 10,
                "value": 0.0,
                "norm_class_idx": 0
              },
              {
                "depth": 10,
                "value": 1.0,
                "norm_class_idx": 1
              },
              {
                "depth": 9,
                "value": 0.0,
                "norm_class_idx": 0
              },
              {
                "depth": 5,
                "value": 0.0,
                "norm_class_idx": 0
              },
              {
                "depth": 4,
                "value": 1.0,
                "norm_class_idx": 1,
                "splits": [
                  {
                    "var": 3,
                    "quality": 7.2228569030761719e+01,
                    "le": 7.6884360313415527e+00
                  }
                ]
              },
              {
                "depth": 5,
                "value": 1.0,
                "norm_class_idx": 1,
                "splits": [
                  {
                    "var": 29,
                    "quality": 3.3666667938232422e+01,
                    "le": 4.0623359680175781e+00
                  }
                ]
              },
              {
                "depth": 6,
                "value": 0.0,
                "norm_class_idx": 0
              },
              {
                "depth": 6,
                "value": 1.0,
                "norm_class_idx": 1
              },
              {
                "depth": 5,
                "value": 1.0,
                "norm_class_idx": 1,
                "splits": [
                  {
                    "var": 10,
                    "quality": 4.6263156890869141e+01,
                    "le": 2.5797319412231445e+00
                  }
                ]
              },
              {
                "depth": 6,
                "value": 0.0,
                "norm_class_idx": 0,
                "splits": [
                  {
                    "var": 106,
                    "quality": 3.5518520355224609e+01,
                    "le": 1.1733424663543701e+00
                  }
                ]
              },
              {
                "depth": 7,
                "value": 1.0,
                "norm_class_idx": 1,
                "splits": [
                  {
                    "var": 68,
                    "quality": 2.0700000762939453e+01,
                    "le": 9.4075131416320801e-01
                  }
                ]
              },
              {
                "depth": 8,
                "value": 1.0,
                "norm_class_idx": 1,
                "splits": [
                  {
                    "var": 40,
                    "quality": 1.6421052932739258e+01,
                    "le": 1.0918073654174805e+00
                  }
                ]
              },
              {
                "depth": 9,
                "value": 1.0,
                "norm_class_idx": 1,
                "splits": [
                  {
                    "var": 74,
                    "quality": 1.6333333969116211e+01,
                    "le": 1.0596769332885742e+01
                  }
                ]
              },
              {
                "depth": 10,
                "value": 1.0,
                "norm_class_idx": 1
              },
              {
                "depth": 10,
                "value": 1.0,
                "norm_class_idx": 1
              },
              {
                "depth": 9,
                "value": 0.0,
                "norm_class_idx": 0
              },
              {
                "depth": 8,
                "value": 0.0,
                "norm_class_idx": 0
              },
              {
                "depth": 7,
                "value": 0.0,
                "norm_class_idx": 0,
                "splits": [
                  {
                    "var": 130,
                    "quality": 27.0,
                    "le": 4.1079893112182617e+00
                  }
                ]
              },
              {
                "depth": 8,
                "value": 0.0,
                "norm_class_idx": 0
              },
              {
                "depth": 8,
                "value": 1.0,
                "norm_class_idx": 1
              },
              {
                "depth": 6,
                "value": 1.0,
                "norm_class_idx": 1,
                "splits": [
                  {
                    "var": 92,
                    "quality": 2.1333333969116211e+01,
                    "le": 1.5439455509185791e+00
                  }
                ]
              },
              {
                "depth": 7,
                "value": 0.0,
                "norm_class_idx": 0
              },
              {
                "depth": 7,
                "value": 1.0,
                "norm_class_idx": 1
              },
              {
                "depth": 2,
                "value": 1.0,
                "norm_class_idx": 1,
                "splits": [
                  {
                    "var": 58,
                    "quality": 1.6318934631347656e+02,
                    "le": 8.3202195167541504e-01
                  }
                ]
              },
              {
                "depth": 3,
                "value": 1.0,
                "norm_class_idx": 1,
                "splits": [
                  {
                    "var": 48,
                    "quality": 1.6551211547851562e+02,
                    "le": 3.5557523369789124e-02
                  }
                ]
              },
              {
                "depth": 4,
                "value": 0.0,
                "norm_class_idx": 0
              },
              {
                "depth": 4,
                "value": 1.0,
                "norm_class_idx": 1,
                "splits": [
                  {
                    "var": 48,
                    "quality": 1.6366667175292969e+02,
                    "le": 5.5846035480499268e-01
                  }
                ]
              },
              {
                "depth": 5,
                "value": 1.0,
                "norm_class_idx": 1
              },
              {
                "depth": 5,
                "value": 1.0,
                "norm_class_idx": 1
              },
              {
                "depth": 3,
                "value": 0.0,
                "norm_class_idx": 0
              },
              {
                "depth": 1,
                "value": 1.0,
                "norm_class_idx": 1,
                "splits": [
                  {
                    "var": 47,
                    "quality": 4.6843664550781250e+02,
                    "le": 3.0376832485198975e+00
                  }
                ]
              },
              {
                "depth": 2,
                "value": 0.0,
                "norm_class_idx": 0
              },
              {
                "depth": 2,
                "value": 1.0,
                "norm_class_idx": 1,
                "splits": [
                  {
                    "var": 58,
                    "quality": 4.6998245239257812e+02,
                    "le": 6.0380208492279053e-01
                  }
                ]
              },
              {
                "depth": 3,
                "value": 1.0,
                "norm_class_idx": 1,
                "splits": [
                  {
                    "var": 93,
                    "quality": 4.6603643798828125e+02,
                    "le": 2.7821511030197144e-01
                  }
                ]
              },
              {
                "depth": 4,
                "value": 0.0,
                "norm_class_idx": 0
              },
              {
                "depth": 4,
                "value": 1.0,
                "norm_class_idx": 1,
                "splits": [
                  {
                    "var": 10,
                    "quality": 4.6413662719726562e+02,
                    "le": 5.1361985206604004e+00
                  }
                ]
              },
              {
                "depth": 5,
                "value": 1.0,
                "norm_class_idx": 1,
                "splits": [
                  {
                    "var": 150,
                    "quality": 4.6214370727539062e+02,
                    "le": 1.3315114974975586e+01
                  }
                ]
              },
              {
                "depth": 6,
                "value": 1.0,
                "norm_class_idx": 1,
                "splits": [
                  {
                    "var": 54,
                    "quality": 11.0,
                    "le": 5.7670879364013672e-01
                  }
                ]
              },
              {
                "depth": 7,
                "value": 1.0,
                "norm_class_idx": 1
              },
              {
                "depth": 7,
                "value": 0.0,
                "norm_class_idx": 0
              },
              {
                "depth": 6,
                "value": 1.0,
                "norm_class_idx": 1,
                "splits": [
                  {
                    "var": 54,
                    "quality": 4.5755062866210938e+02,
                    "le": 7.3914146423339844e-01
                  }
                ]
              },
              {
                "depth": 7,
                "value": 1.0,
                "norm_class_idx": 1,
                "splits": [
                  {
                    "var": 90,
                    "quality": 4.0917391967773438e+02,
                    "le": 2.4038941860198975e+00
                  }
                ]
              },
              {
                "depth": 8,
                "value": 1.0,
                "norm_class_idx": 1,
                "splits": [
                  {
                    "var": 90,
                    "quality": 46.0,
                    "le": 2.3885135650634766e+00
                  }
                ]
              },
              {
                "depth": 9,
                "value": 1.0,
                "norm_class_idx": 1
              },
              {
                "depth": 9,
                "value": 0.0,
                "norm_class_idx": 0
              },
              {
                "depth": 8,
                "value": 1.0,
                "norm_class_idx": 1
              },
              {
                "depth": 7,
                "value": 1.0,
                "norm_class_idx": 1,
                "splits": [
                  {
                    "var": 109,
                    "quality": 5.4885059356689453e+01,
                    "le": 2.0365476608276367e+00
                  }
                ]
              },
              {
                "depth": 8,
                "value": 0.0,
                "norm_class_idx": 0
              },
              {
                "depth": 8,
                "value": 1.0,
                "norm_class_idx": 1,
                "splits": [
                  {
                    "var": 152,
                    "quality": 5.4537036895751953e+01,
                    "le": 4.7226274013519287e-01
                  }
                ]
              },
              {
                "depth": 9,
                "value": 1.0,
                "norm_class_idx": 1,
                "splits": [
                  {
                    "var": 148,
                    "quality": 5.2500000000000000e+01,
                    "le": 9.1985692977905273e+00
                  }
                ]
              },
              {
                "depth": 10,
                "value": 1.0,
                "norm_class_idx": 1
              },
              {
                "depth": 10,
                "value": 1.0,
                "norm_class_idx": 1
              },
              {
                "depth": 9,
                "value": 0.0,
                "norm_class_idx": 0
              },
              {
                "depth": 5,
                "value": 1.0,
                "norm_class_idx": 1
              },
              {
                "depth": 3,
                "value": 1.0,
                "norm_class_idx": 1,
                "splits": [
                  {
                    "var": 129,
                    "quality": 13.0,
                    "le": 5.9406763315200806e-01
                  }
                ]
              },
              {
                "depth": 4,
                "value": 0.0,
                "norm_class_idx": 0
              },
              {
                "depth": 4,
                "value": 1.0,
                "norm_class_idx": 1
              }
            ]
          },
          {
            "nodes": [
              {
                "depth": 0,
                "value": 1.0,
                "norm_class_idx": 1,
                "splits": [
                  {
                    "var": 129,
                    "quality": 1.1343568115234375e+03,
                    "le": 6.3394081592559814e-01
                  }
                ]
              },
              {
                "depth": 1,
                "value": 1.0,
                "norm_class_idx": 1,
                "splits": [
                  {
                    "var": 106,
                    "quality": 5.7930688476562500e+02,
                    "le": 1.0612436532974243e+00
                  }
                ]
              },
              {
                "depth": 2,
                "value": 1.0,
                "norm_class_idx": 1,
                "splits": [
                  {
                    "var": 35,
                    "quality": 3.8631732177734375e+02,
                    "le": 1.7890608310699463e+00
                  }
                ]
              },
              {
                "depth": 3,
                "value": 1.0,
                "norm_class_idx": 1,
                "splits": [
                  {
                    "var": 57,
                    "quality": 1.5872685241699219e+02,
                    "le": 8.6298680305480957e-01
                  }
                ]
              },
              {
                "depth": 4,
                "value": 1.0,
                "norm_class_idx": 1,
                "splits": [
                  {
                    "var": 54,
                    "quality": 1.2553494262695312e+02,
                    "le": 5.3292006254196167e-01
                  }
                ]
              },
              {
                "depth": 5,
                "value": 1.0,
                "norm_class_idx": 1,
                "splits": [
                  {
                    "var": 102,
                    "quality": 1.1166666412353516e+02,
                    "le": 3.3844101428985596e-01
                  }
                ]
              },
              {
                "depth": 6,
                "value": 1.0,
                "norm_class_idx": 1
              },
              {
                "depth": 6,
                "value": 1.0,
                "norm_class_idx": 1
              },
              {
                "depth": 5,
                "value": 0.0,
                "norm_class_idx": 0,
                "splits": [
                  {
                    "var": 102,
                    "quality": 2.7125000000000000e+01,
                    "le": 1.0069628953933716e+00
                  }
                ]
              },
              {
                "depth": 6,
                "value": 0.0,
                "norm_class_idx": 0,
                "splits": [
                  {
                    "var": 129,
                    "quality": 16.0,
                    "le": 5.4613435268402100e-01
                  }
                ]
              },
              {
                "depth": 7,
                "value": 0.0,
                "norm_class_idx": 0
              },
              {
                "depth": 7,
                "value": 1.0,
                "norm_class_idx": 1
              },
              {
                "depth": 6,
                "value": 1.0,
                "norm_class_idx": 1
              },
              {
                "depth": 4,
                "value": 0.0,
                "norm_class_idx": 0,
                "splits": [
                  {
                    "var": 42,
                    "quality": 57.0,
                    "le": 1.4406145095825195e+01
                  }
                ]
              },
              {
                "depth": 5,
                "value": 0.0,
                "norm_class_idx": 0,
                "splits": [
                  {
                    "var": 99,
                    "quality": 5.2500000000000000e+01,
                    "le": 3.8188822269439697e+00
                  }
                ]
              },
              {
                "depth": 6,
                "value": 1.0,
                "norm_class_idx": 1
              },
              {
                "depth": 6,
                "value": 0.0,
                "norm_class_idx": 0
              },
              {
                "depth": 5,
                "value": 1.0,
                "norm_class_idx": 1,
                "splits": [
                  {
                    "var": 4,
                    "quality": 12.0,
                    "le": 5.2609014511108398e+00
                  }
                ]
              },
              {
                "depth": 6,
                "value": 0.0,
                "norm_class_idx": 0
              },
              {
                "depth": 6,
                "value": 1.0,
                "norm_class_idx": 1
              },
              {
                "depth": 3,
                "value": 1.0,
                "norm_class_idx": 1,
                "splits": [
                  {
                    "var": 113,
                    "quality": 2.7581201171875000e+02,
                    "le": 9.9414563179016113e-01
                  }
                ]
              },
              {
                "depth": 4,
                "value": 1.0,
                "norm_class_idx": 1,
                "splits": [
                  {
                    "var": 58,
                    "quality": 2.1032099914550781e+02,
                    "le": 4.3631756305694580e-01
                  }
                ]
              },
              {
                "depth": 5,
                "value": 1.0,
                "norm_class_idx": 1,
                "splits": [
                  {
                    "var": 55,
                    "quality": 1.6628572082519531e+02,
                    "le": 1.6607138061523438e+02
                  }
                ]
              },
              {
                "depth": 6,
                "value": 1.0,
                "norm_class_idx": 1
              },
              {
                "depth": 6,
                "value": 1.0,
                "norm_class_idx": 1
              },
              {
                "depth": 5,
                "value": 1.0,
                "norm_class_idx": 1,
                "splits": [
                  {
                    "var": 97,
                    "quality": 4.7852939605712891e+01,
                    "le": 1.8293852806091309e+00
                  }
                ]
              },
              {
                "depth": 6,
                "value": 0.0,
                "norm_class_idx": 0
              },
              {
                "depth": 6,
                "value": 1.0,
                "norm_class_idx": 1,
                "splits": [
                  {
                    "var": 152,
                    "quality": 4.7159999847412109e+01,
                    "le": 4.4803953170776367e-01
                  }
                ]
              },
              {
                "depth": 7,
                "value": 1.0,
                "norm_class_idx": 1,
                "splits": [
                  {
                    "var": 81,
                    "quality": 4.7333332061767578e+01,
                    "le": 4.6595662832260132e-01
                  }
                ]
              },
              {
                "depth": 8,
                "value": 1.0,
                "norm_class_idx": 1
              },
              {
                "depth": 8,
                "value": 1.0,
                "norm_class_idx": 1
              },
              {
                "depth": 7,
                "value": 0.0,
                "norm_class_idx": 0
              },
              {
                "depth": 4,
                "value": 1.0,
                "norm_class_idx": 1,
                "splits": [
                  {
                    "var": 42,
                    "quality": 7.3633331298828125e+01,
                    "le": 1.5925949096679688e+01
                  }
                ]
              },
              {
                "depth": 5,
                "value": 1.0,
                "norm_class_idx": 1,
                "splits": [
                  {
                    "var": 54,
                    "quality": 5.3185184478759766e+01,
                    "le": 5.6539332866668701e-01
                  }
                ]
              },
              {
                "depth": 6,
                "value": 1.0,
                "norm_class_idx": 1
              },
              {
                "depth": 6,
                "value": 0.0,
                "norm_class_idx": 0,
                "splits": [
                  {
                    "var": 109,
                    "quality": 27.0,
                    "le": 4.7819957733154297e+00
                  }
                ]
              },
              {
                "depth": 7,
                "value": 0.0,
                "norm_class_idx": 0
              },
              {
                "depth": 7,
                "value": 1.0,
                "norm_class_idx": 1
              },
              {
                "depth": 5,
                "value": 1.0,
                "norm_class_idx": 1
              },
              {
                "depth": 2,
                "value": 0.0,
                "norm_class_idx": 0,
                "splits": [
                  {
                    "var": 55,
                    "quality": 2.4702664184570312e+02,
                    "le": 1.3870651245117188e+02
                  }
                ]
              },
              {
                "depth": 3,
                "value": 1.0,
                "norm_class_idx": 1,
                "splits": [
                  {
                    "var": 39,
                    "quality": 1.2794715118408203e+02,
                    "le": 2.3903529644012451e+00
                  }
                ]
              },
              {
                "depth": 4,
                "value": 0.0,
                "norm_class_idx": 0,
                "splits": [
                  {
                    "var": 107,
                    "quality": 2.4782608032226562e+01,
                    "le": 2.2860057651996613e-01
                  }
                ]
              },
              {
                "depth": 5,
                "value": 1.0,
                "norm_class_idx": 1
              },
              {
                "depth": 5,
                "value": 0.0,
                "norm_class_idx": 0,
                "splits": [
                  {
                    "var": 86,
                    "quality": 2.1095237731933594e+01,
                    "le": 2.0776416778564453e+01
                  }
                ]
              },
              {
                "depth": 6,
                "value": 0.0,
                "norm_class_idx": 0,
                "splits": [
                  {
                    "var": 149,
                    "quality": 21.0,
                    "le": 1.7963044643402100e+00
                  }
                ]
              },
              {
                "depth": 7,
                "value": 1.0,
                "norm_class_idx": 1
              },
              {
                "depth": 7,
                "value": 0.0,
                "norm_class_idx": 0
              },
              {
                "depth": 6,
                "value": 1.0,
                "norm_class_idx": 1
              },
              {
                "depth": 4,
                "value": 1.0,
                "norm_class_idx": 1,
                "splits": [
                  {
                    "var": 101,
                    "quality": 1.1846472167968750e+02,
                    "le": 2.4114984273910522e-01
                  }
                ]
              },
              {
                "depth": 5,
                "value": 1.0,
                "norm_class_idx": 1,
                "splits": [
                  {
                    "var": 42,
                    "quality": 5.9508476257324219e+01,
                    "le": 1.6132751464843750e+01
                  }
                ]
              },
              {
                "depth": 6,
                "value": 0.0,
                "norm_class_idx": 0,
                "splits": [
                  {
                    "var": 148,
                    "quality": 4.0860466003417969e+01,
                    "le": 1.8026214599609375e+01
                  }
                ]
              },
              {
                "depth": 7,
                "value": 0.0,
                "norm_class_idx": 0,
                "splits": [
                  {
                    "var": 94,
                    "quality": 28.0,
                    "le": 2.4356932640075684e+00
                  }
                ]
              },
              {
                "depth": 8,
                "value": 1.0,
                "norm_class_idx": 1
              },
              {
                "depth": 8,
                "value": 0.0,
                "norm_class_idx": 0,
                "splits": [
                  {
                    "var": 131,
                    "quality": 3.1428571701049805e+01,
                    "le": 1.6571097075939178e-01
                  }
                ]
              },
              {
                "depth": 9,
                "value": 1.0,
                "norm_class_idx": 1
              },
              {
                "depth": 9,
                "value": 0.0,
                "norm_class_idx": 0,
                "splits": [
                  {
                    "var": 8,
                    "quality": 3.0402297973632812e+01,
                    "le": 2.5086150169372559e+00
                  }
                ]
              },
              {
                "depth": 10,
                "value": 0.0,
                "norm_class_idx": 0,
                "splits": [
                  {
                    "var": 71,
                    "quality": 29.0,
                    "le": 2.7790275216102600e-01
                  }
                ]
              },
              {
                "depth": 11,
                "value": 1.0,
                "norm_class_idx": 1
              },
              {
                "depth": 11,
                "value": 0.0,
                "norm_class_idx": 0
              },
              {
                "depth": 10,
                "value": 1.0,
                "norm_class_idx": 1
              },
              {
                "depth": 7,
                "value": 1.0,
                "norm_class_idx": 1
              },
              {
                "depth": 6,
                "value": 1.0,
                "norm_class_idx": 1
              },
              {
                "depth": 5,
                "value": 1.0,
                "norm_class_idx": 1,
                "splits": [
                  {
                    "var": 58,
                    "quality": 7.1571426391601562e+01,
                    "le": 5.2750635147094727e-01
                  }
                ]
              },
              {
                "depth": 6,
                "value": 1.0,
                "norm_class_idx": 1
              },
              {
                "depth": 6,
                "value": 1.0,
                "norm_class_idx": 1
              },
              {
                "depth": 3,
                "value": 0.0,
                "norm_class_idx": 0,
                "splits": [
                  {
                    "var": 96,
                    "quality": 1.5810348510742188e+02,
                    "le": 1.6332452774047852e+01
                  }
                ]
              },
              {
                "depth": 4,
                "value": 0.0,
                "norm_class_idx": 0,
                "splits": [
                  {
                    "var": 1,
                    "quality": 1.3438844299316406e+02,
                    "le": 2.8085823059082031e+01
                  }
                ]
              },
              {
                "depth": 5,
                "value": 0.0,
                "norm_class_idx": 0,
                "splits": [
                  {
                    "var": 82,
                    "quality": 9.9660552978515625e+01,
                    "le": 3.9753799438476562e+00
                  }
                ]
              },
              {
                "depth": 6,
                "value": 0.0,
                "norm_class_idx": 0,
                "splits": [
                  {
                    "var": 62,
                    "quality": 1.0017475891113281e+02,
                    "le": 1.1409418582916260e+00
                  }
                ]
              },
              {
                "depth": 7,
                "value": 0.0,
                "norm_class_idx": 0
              },
              {
                "depth": 7,
                "value": 0.0,
                "norm_class_idx": 0,
                "splits": [
                  {
                    "var": 89,
                    "quality": 9.7746665954589844e+01,
                    "le": 6.1182099580764771e-01
                  }
                ]
              },
              {
                "depth": 8,
                "value": 0.0,
                "norm_class_idx": 0,
                "splits": [
                  {
                    "var": 114,
                    "quality": 9.6421051025390625e+01,
                    "le": 1.3350076675415039e+00
                  }
                ]
              },
              {
                "depth": 9,
                "value": 0.0,
                "norm_class_idx": 0
              },
              {
                "depth": 9,
                "value": 0.0,
                "norm_class_idx": 0,
                "splits": [
                  {
                    "var": 68,
                    "quality": 9.3222221374511719e+01,
                    "le": 9.8007726669311523e-01
                  }
                ]
              },
              {
                "depth": 10,
                "value": 0.0,
                "norm_class_idx": 0
              },
              {
                "depth": 10,
                "value": 0.0,
                "norm_class_idx": 0
              },
              {
                "depth": 8,
                "value": 0.0,
                "norm_class_idx": 0
              },
              {
                "depth": 6,
                "value": 1.0,
                "norm_class_idx": 1
              },
              {
                "depth": 5,
                "value": 0.0,
                "norm_class_idx": 0,
                "splits": [
                  {
                    "var": 13,
                    "quality": 4.3542045593261719e+01,
                    "le": 2.7172884438186884e-03
                  }
                ]
              },
              {
                "depth": 6,
                "value": 1.0,
                "norm_class_idx": 1,
                "splits": [
                  {
                    "var": 63,
                    "quality": 1.6055555343627930e+01,
                    "le": 1.5535530090332031e+01
                  }
                ]
              },
              {
                "depth": 7,
                "value": 0.0,
                "norm_class_idx": 0
              },
              {
                "depth": 7,
                "value": 1.0,
                "norm_class_idx": 1,
                "splits": [
                  {
                    "var": 73,
                    "quality": 12.0,
                    "le": 1.7697470188140869e+00
                  }
                ]
              },
              {
                "depth": 8,
                "value": 0.0,
                "norm_class_idx": 0
              },
              {
                "depth": 8,
                "value": 1.0,
                "norm_class_idx": 1
              },
              {
                "depth": 6,
                "value": 0.0,
                "norm_class_idx": 0,
                "splits": [
                  {
                    "var": 120,
                    "quality": 3.6636363983154297e+01,
                    "le": 2.0644597709178925e-02
                  }
                ]
              },
              {
                "depth": 7,
                "value": 1.0,
                "norm_class_idx": 1
              },
              {
                "depth": 7,
                "value": 0.0,
                "norm_class_idx": 0,
                "splits": [
                  {
                    "var": 27,
                    "quality": 3.6787643432617188e+01,
                    "le": 1.2576461791992188e+01
                  }
                ]
              },
              {
                "depth": 8,
                "value": 0.0,
                "norm_class_idx": 0,
                "splits": [
                  {
                    "var": 24,
                    "quality": 3.5055557250976562e+01,
                    "le": 2.9593053460121155e-01
                  }
                ]
              },
              {
                "depth": 9,
                "value": 1.0,
                "norm_class_idx": 1
              },
              {
                "depth": 9,
                "value": 0.0,
                "norm_class_idx": 0,
                "splits": [
                  {
                    "var": 81,
                    "quality": 35.0,
                    "le": 1.0675366967916489e-01
                  }
                ]
              },
              {
                "depth": 10,
                "value": 0.0,
                "norm_class_idx": 0
              },
              {
                "depth": 10,
                "value": 0.0,
                "norm_class_idx": 0
              },
              {
                "depth": 8,
                "value": 1.0,
                "norm_class_idx": 1
              },
              {
                "depth": 4,
                "value": 1.0,
                "norm_class_idx": 1,
                "splits": [
                  {
                    "var": 47,
                    "quality": 3.1565217971801758e+01,
                    "le": 1.3788986206054688e+01
                  }
                ]
              },
              {
                "depth": 5,
                "value": 1.0,
                "norm_class_idx": 1,
                "splits": [
                  {
                    "var": 142,
                    "quality": 1.6684209823608398e+01,
                    "le": 1.9894568920135498e+00
                  }
                ]
              },
              {
                "depth": 6,
                "value": 1.0,
                "norm_class_idx": 1,
                "splits": [
                  {
                    "var": 122,
                    "quality": 15.0,
                    "le": 1.7750096321105957e+00
                  }
                ]
              },
              {
                "depth": 7,
                "value": 1.0,
                "norm_class_idx": 1
              },
              {
                "depth": 7,
                "value": 0.0,
                "norm_class_idx": 0
              },
              {
                "depth": 6,
                "value": 0.0,
                "norm_class_idx": 0
              },
              {
                "depth": 5,
                "value": 1.0,
                "norm_class_idx": 1
              },
              {
                "depth": 1,
                "value": 1.0,
                "norm_class_idx": 1,
                "splits": [
                  {
                    "var": 48,
                    "quality": 6.0435095214843750e+02,
                    "le": 7.6197490096092224e-02
                  }
                ]
              },
              {
                "depth": 2,
                "value": 1.0,
                "norm_class_idx": 1,
                "splits": [
                  {
                    "var": 55,
                    "quality": 1.6562272644042969e+02,
                    "le": 2.1956982421875000e+02
                  }
                ]
              },
              {
                "depth": 3,
                "value": 1.0,
                "norm_class_idx": 1,
                "splits": [
                  {
                    "var": 107,
                    "quality": 1.6221949768066406e+02,
                    "le": 4.2427286505699158e-01
                  }
                ]
              },
              {
                "depth": 4,
                "value": 1.0,
                "norm_class_idx": 1,
                "splits": [
                  {
                    "var": 64,
                    "quality": 1.5460749816894531e+02,
                    "le": 6.8273386955261230e+00
                  }
                ]
              },
              {
                "depth": 5,
                "value": 1.0,
                "norm_class_idx": 1
              },
              {
                "depth": 5,
                "value": 1.0,
                "norm_class_idx": 1,
                "splits": [
                  {
                    "var": 19,
                    "quality": 1.5017778015136719e+02,
                    "le": 3.9228950500488281e+01
                  }
                ]
              },
              {
                "depth": 6,
                "value": 1.0,
                "norm_class_idx": 1
              },
              {
                "depth": 6,
                "value": 1.0,
                "norm_class_idx": 1,
                "splits": [
                  {
                    "var": 34,
                    "quality": 4.3045455932617188e+01,
                    "le": 2.2353176027536392e-02
                  }
                ]
              },
              {
                "depth": 7,
                "value": 0.0,
                "norm_class_idx": 0
              },
              {
                "depth": 7,
                "value": 1.0,
                "norm_class_idx": 1,
                "splits": [
                  {
                    "var": 4,
                    "quality": 43.0,
                    "le": 8.2297401428222656e+00
                  }
                ]
              },
              {
                "depth": 8,
                "value": 1.0,
                "norm_class_idx": 1
              },
              {
                "depth": 8,
                "value": 0.0,
                "norm_class_idx": 0
              },
              {
                "depth": 4,
                "value": 1.0,
                "norm_class_idx": 1,
                "splits": [
                  {
                    "var": 42,
                    "quality": 1.6333333969116211e+01,
                    "le": 2.1149158477783203e+01
                  }
                ]
              },
              {
                "depth": 5,
                "value": 0.0,
                "norm_class_idx": 0
              },
              {
                "depth": 5,
                "value": 1.0,
                "norm_class_idx": 1
              },
              {
                "depth": 3,
                "value": 0.0,
                "norm_class_idx": 0
              },
              {
                "depth": 2,
                "value": 1.0,
                "norm_class_idx": 1,
                "splits": [
                  {
                    "var": 5,
                    "quality": 4.4830398559570312e+02,
                    "le": 3.4743291139602661e-01
                  }
                ]
              },
              {
                "depth": 3,
                "value": 1.0,
                "norm_class_idx": 1,
                "splits": [
                  {
                    "var": 35,
                    "quality": 2.4399999618530273e+01,
                    "le": 2.8141071796417236e+00
                  }
                ]
              },
              {
                "depth": 4,
                "value": 0.0,
                "norm_class_idx": 0
              },
              {
                "depth": 4,
                "value": 1.0,
                "norm_class_idx": 1
              },
              {
                "depth": 3,
                "value": 1.0,
                "norm_class_idx": 1,
                "splits": [
                  {
                    "var": 104,
                    "quality": 4.2968084716796875e+02,
                    "le": 7.7461361885070801e-01
                  }
                ]
              },
              {
                "depth": 4,
                "value": 1.0,
                "norm_class_idx": 1
              },
              {
                "depth": 4,
                "value": 1.0,
                "norm_class_idx": 1,
                "splits": [
                  {
                    "var": 29,
                    "quality": 4.3546512603759766e+01,
                    "le": 5.2541685104370117e+00
                  }
                ]
              },
              {
                "depth": 5,
                "value": 0.0,
                "norm_class_idx": 0
              },
              {
                "depth": 5,
                "value": 1.0,
                "norm_class_idx": 1,
                "splits": [
                  {
                    "var": 61,
                    "quality": 42.0,
                    "le": 4.6901718750000000e+03
                  }
                ]
              },
              {
                "depth": 6,
                "value": 1.0,
                "norm_class_idx": 1
              },
              {
                "depth": 6,
                "value": 0.0,
                "norm_class_idx": 0
              }
            ]
          },
          {
            "nodes": [
              {
                "depth": 0,
                "value": 1.0,
                "norm_class_idx": 1,
                "splits": [
                  {
                    "var": 54,
                    "quality": 1.2024479980468750e+03,
                    "le": 7.1121740341186523e-01
                  }
                ]
              },
              {
                "depth": 1,
                "value": 1.0,
                "norm_class_idx": 1,
                "splits": [
                  {
                    "var": 54,
                    "quality": 9.5248651123046875e+02,
                    "le": 5.2681779861450195e-01
                  }
                ]
              },
              {
                "depth": 2,
                "value": 1.0,
                "norm_class_idx": 1,
                "splits": [
                  {
                    "var": 98,
                    "quality": 5.7939062500000000e+02,
                    "le": 1.4920413017272949e+01
                  }
                ]
              },
              {
                "depth": 3,
                "value": 1.0,
                "norm_class_idx": 1,
                "splits": [
                  {
                    "var": 136,
                    "quality": 128.0,
                    "le": 1.0344494819641113e+01
                  }
                ]
              },
              {
                "depth": 4,
                "value": 1.0,
                "norm_class_idx": 1
              },
              {
                "depth": 4,
                "value": 0.0,
                "norm_class_idx": 0
              },
              {
                "depth": 3,
                "value": 1.0,
                "norm_class_idx": 1
              },
              {
                "depth": 2,
                "value": 1.0,
                "norm_class_idx": 1,
                "splits": [
                  {
                    "var": 102,
                    "quality": 3.8698779296875000e+02,
                    "le": 1.0169622898101807e+00
                  }
                ]
              },
              {
                "depth": 3,
                "value": 1.0,
                "norm_class_idx": 1,
                "splits": [
                  {
                    "var": 124,
                    "quality": 1.3509329223632812e+02,
                    "le": 2.8128862380981445e+00
                  }
                ]
              },
              {
                "depth": 4,
                "value": 1.0,
                "norm_class_idx": 1,
                "splits": [
                  {
                    "var": 76,
                    "quality": 6.3755317687988281e+01,
                    "le": 1.4651760458946228e-01
                  }
                ]
              },
              {
                "depth": 5,
                "value": 1.0,
                "norm_class_idx": 1,
                "splits": [
                  {
                    "var": 96,
                    "quality": 37.0,
                    "le": 1.4750957489013672e+01
                  }
                ]
              },
              {
                "depth": 6,
                "value": 0.0,
                "norm_class_idx": 0,
                "splits": [
                  {
                    "var": 19,
                    "quality": 1.5384614944458008e+01,
                    "le": 3.3705570697784424e+00
                  }
                ]
              },
              {
                "depth": 7,
                "value": 0.0,
                "norm_class_idx": 0
              },
              {
                "depth": 7,
                "value": 1.0,
                "norm_class_idx": 1,
                "splits": [
                  {
                    "var": 82,
                    "quality": 13.0,
                    "le": 1.1228138208389282e+00
                  }
                ]
              },
              {
                "depth": 8,
                "value": 1.0,
                "norm_class_idx": 1
              },
              {
                "depth": 8,
                "value": 0.0,
                "norm_class_idx": 0
              },
              {
                "depth": 6,
                "value": 1.0,
                "norm_class_idx": 1
              },
              {
                "depth": 5,
                "value": 0.0,
                "norm_class_idx": 0,
                "splits": [
                  {
                    "var": 34,
                    "quality": 4.4744186401367188e+01,
                    "le": 1.2115734815597534e+00
                  }
                ]
              },
              {
                "depth": 6,
                "value": 0.0,
                "norm_class_idx": 0,
                "splits": [
                  {
                    "var": 135,
                    "quality": 3.7666667938232422e+01,
                    "le": 6.1255252361297607e-01
                  }
                ]
              },
              {
                "depth": 7,
                "value": 0.0,
                "norm_class_idx": 0,
                "splits": [
                  {
                    "var": 96,
                    "quality": 1.0399999618530273e+01,
                    "le": 1.0824199676513672e+01
                  }
                ]
              },
              {
                "depth": 8,
                "value": 0.0,
                "norm_class_idx": 0
              },
              {
                "depth": 8,
                "value": 1.0,
                "norm_class_idx": 1
              },
              {
                "depth": 7,
                "value": 0.0,
                "norm_class_idx": 0
              },
              {
                "depth": 6,
                "value": 1.0,
                "norm_class_idx": 1
              },
              {
                "depth": 4,
                "value": 1.0,
                "norm_class_idx": 1,
                "splits": [
                  {
                    "var": 90,
                    "quality": 8.7267326354980469e+01,
                    "le": 2.1082935333251953e+00
                  }
                ]
              },
              {
                "depth": 5,
                "value": 0.0,
                "norm_class_idx": 0
              },
              {
                "depth": 5,
                "value": 1.0,
                "norm_class_idx": 1,
                "splits": [
                  {
                    "var": 112,
                    "quality": 8.9727272033691406e+01,
                    "le": 1.2069522142410278e+00
                  }
                ]
              },
              {
                "depth": 6,
                "value": 1.0,
                "norm_class_idx": 1,
                "splits": [
                  {
                    "var": 63,
                    "quality": 9.0644447326660156e+01,
                    "le": 1.6773330688476562e+01
                  }
                ]
              },
              {
                "depth": 7,
                "value": 1.0,
                "norm_class_idx": 1
              },
              {
                "depth": 7,
                "value": 1.0,
                "norm_class_idx": 1,
                "splits": [
                  {
                    "var": 89,
                    "quality": 88.0,
                    "le": 4.4200500845909119e-01
                  }
                ]
              },
              {
                "depth": 8,
                "value": 0.0,
                "norm_class_idx": 0
              },
              {
                "depth": 8,
                "value": 1.0,
                "norm_class_idx": 1
              },
              {
                "depth": 6,
                "value": 0.0,
                "norm_class_idx": 0
              },
              {
                "depth": 3,
                "value": 1.0,
                "norm_class_idx": 1,
                "splits": [
                  {
                    "var": 92,
                    "quality": 2.6988888549804688e+02,
                    "le": 1.6770858764648438e+00
                  }
                ]
              },
              {
                "depth": 4,
                "value": 1.0,
                "norm_class_idx": 1,
                "splits": [
                  {
                    "var": 92,
                    "quality": 8.6620002746582031e+01,
                    "le": 1.6695463657379150e+00
                  }
                ]
              },
              {
                "depth": 5,
                "value": 1.0,
                "norm_class_idx": 1,
                "splits": [
                  {
                    "var": 95,
                    "quality": 87.0,
                    "le": 8.8755953311920166e-01
                  }
                ]
              },
              {
                "depth": 6,
                "value": 1.0,
                "norm_class_idx": 1,
                "splits": [
                  {
                    "var": 8,
                    "quality": 8.7757804870605469e+01,
                    "le": 2.4342522621154785e+00
                  }
                ]
              },
              {
                "depth": 7,
                "value": 1.0,
                "norm_class_idx": 1,
                "splits": [
                  {
                    "var": 88,
                    "quality": 8.4091957092285156e+01,
                    "le": 2.3398633003234863e+00
                  }
                ]
              },
              {
                "depth": 8,
                "value": 1.0,
                "norm_class_idx": 1,
                "splits": [
                  {
                    "var": 150,
                    "quality": 8.3690475463867188e+01,
                    "le": 1.3432456970214844e+01
                  }
                ]
              },
              {
                "depth": 9,
                "value": 1.0,
                "norm_class_idx": 1
              },
              {
                "depth": 9,
                "value": 1.0,
                "norm_class_idx": 1,
                "splits": [
                  {
                    "var": 7,
                    "quality": 8.2222221374511719e+01,
                    "le": 1.9844009399414062e+02
                  }
                ]
              },
              {
                "depth": 10,
                "value": 1.0,
                "norm_class_idx": 1
              },
              {
                "depth": 10,
                "value": 1.0,
                "norm_class_idx": 1
              },
              {
                "depth": 8,
                "value": 0.0,
                "norm_class_idx": 0
              },
              {
                "depth": 7,
                "value": 1.0,
                "norm_class_idx": 1
              },
              {
                "depth": 6,
                "value": 0.0,
                "norm_class_idx": 0
              },
              {
                "depth": 5,
                "value": 0.0,
                "norm_class_idx": 0
              },
              {
                "depth": 4,
                "value": 1.0,
                "norm_class_idx": 1,
                "splits": [
                  {
                    "var": 71,
                    "quality": 1.9004145812988281e+02,
                    "le": 1.8522638082504272e-01
                  }
                ]
              },
              {
                "depth": 5,
                "value": 0.0,
                "norm_class_idx": 0
              },
              {
                "depth": 5,
                "value": 1.0,
                "norm_class_idx": 1,
                "splits": [
                  {
                    "var": 15,
                    "quality": 1.8933332824707031e+02,
                    "le": 4.1095738410949707e+00
                  }
                ]
              },
              {
                "depth": 6,
                "value": 1.0,
                "norm_class_idx": 1
              },
              {
                "depth": 6,
                "value": 1.0,
                "norm_class_idx": 1,
                "splits": [
                  {
                    "var": 95,
                    "quality": 24.0,
                    "le": 1.2482595443725586e+00
                  }
                ]
              },
              {
                "depth": 7,
                "value": 1.0,
                "norm_class_idx": 1
              },
              {
                "depth": 7,
                "value": 0.0,
                "norm_class_idx": 0
              },
              {
                "depth": 1,
                "value": 1.0,
                "norm_class_idx": 1,
                "splits": [
                  {
                    "var": 36,
                    "quality": 3.1180355834960938e+02,
                    "le": 2.1283442974090576e+00
                  }
                ]
              },
              {
                "depth": 2,
                "value": 0.0,
                "norm_class_idx": 0,
                "splits": [
                  {
                    "var": 89,
                    "quality": 1.9652444458007812e+02,
                    "le": 5.8163642883300781e-01
                  }
                ]
              },
              {
                "depth": 3,
                "value": 0.0,
                "norm_class_idx": 0,
                "splits": [
                  {
                    "var": 46,
                    "quality": 1.4647859191894531e+02,
                    "le": 1.1445363998413086e+01
                  }
                ]
              },
              {
                "depth": 4,
                "value": 0.0,
                "norm_class_idx": 0,
                "splits": [
                  {
                    "var": 1,
                    "quality": 1.3818203735351562e+02,
                    "le": 3.2244281768798828e+01
                  }
                ]
              },
              {
                "depth": 5,
                "value": 0.0,
                "norm_class_idx": 0,
                "splits": [
                  {
                    "var": 45,
                    "quality": 1.3422807312011719e+02,
                    "le": 1.0923547744750977e+01
                  }
                ]
              },
              {
                "depth": 6,
                "value": 1.0,
                "norm_class_idx": 1
              },
              {
                "depth": 6,
                "value": 0.0,
                "norm_class_idx": 0,
                "splits": [
                  {
                    "var": 111,
                    "quality": 1.3228157043457031e+02,
                    "le": 4.4648609161376953e+00
                  }
                ]
              },
              {
                "depth": 7,
                "value": 0.0,
                "norm_class_idx": 0,
                "splits": [
                  {
                    "var": 99,
                    "quality": 1.2333333015441895e+01,
                    "le": 2.8721456527709961e+00
                  }
                ]
              },
              {
                "depth": 8,
                "value": 0.0,
                "norm_class_idx": 0
              },
              {
                "depth": 8,
                "value": 1.0,
                "norm_class_idx": 1
              },
              {
                "depth": 7,
                "value": 0.0,
                "norm_class_idx": 0,
                "splits": [
                  {
                    "var": 6,
                    "quality": 1.2703704071044922e+02,
                    "le": 1.1219569444656372e+00
                  }
                ]
              },
              {
                "depth": 8,
                "value": 1.0,
                "norm_class_idx": 1
              },
              {
                "depth": 8,
                "value": 0.0,
                "norm_class_idx": 0,
                "splits": [
                  {
                    "var": 29,
                    "quality": 1.2913534545898438e+02,
                    "le": 1.6367454528808594e+01
                  }
                ]
              },
              {
                "depth": 9,
                "value": 0.0,
                "norm_class_idx": 0,
                "splits": [
                  {
                    "var": 2,
                    "quality": 1.2772820281982422e+02,
                    "le": 9.7929489612579346e-01
                  }
                ]
              },
              {
                "depth": 10,
                "value": 0.0,
                "norm_class_idx": 0,
                "splits": [
                  {
                    "var": 61,
                    "quality": 1.2650000000000000e+02,
                    "le": 1.3664084472656250e+03
                  }
                ]
              },
              {
                "depth": 11,
                "value": 0.0,
                "norm_class_idx": 0,
                "splits": [
                  {
                    "var": 124,
                    "quality": 16.0,
                    "le": 2.5133614540100098e+00
                  }
                ]
              },
              {
                "depth": 12,
                "value": 0.0,
                "norm_class_idx": 0
              },
              {
                "depth": 12,
                "value": 1.0,
                "norm_class_idx": 1
              },
              {
                "depth": 11,
                "value": 0.0,
                "norm_class_idx": 0
              },
              {
                "depth": 10,
                "value": 0.0,
                "norm_class_idx": 0
              },
              {
                "depth": 9,
                "value": 1.0,
                "norm_class_idx": 1
              },
              {
                "depth": 5,
                "value": 0.0,
                "norm_class_idx": 0,
                "splits": [
                  {
                    "var": 27,
                    "quality": 1.5285714149475098e+01,
                    "le": 1.1170803070068359e+01
                  }
                ]
              },
              {
                "depth": 6,
                "value": 1.0,
                "norm_class_idx": 1,
                "splits": [
                  {
                    "var": 4,
                    "quality": 14.0,
                    "le": 8.7461633682250977e+00
                  }
                ]
              },
              {
                "depth": 7,
                "value": 0.0,
                "norm_class_idx": 0
              },
