{
  "object_classifier_type": "OpenCVMLClassifier",
  "featureExtractor": {
    "feature_extractor_type": "DefaultFeatureExtractor",
    "measurements": [
      "Nucleus: Area",
      "Nucleus: Perimeter",
      "Nucleus: Circularity",
      "Nucleus: Max caliper",
      "Nucleus: Min caliper",
      "Nucleus: Eccentricity",
      "Nucleus: DAPI mean",
      "Nucleus: DAPI sum",
      "Nucleus: DAPI std dev",
      "Nucleus: DAPI max",
      "Nucleus: DAPI min",
      "Nucleus: DAPI range",
      "Nucleus: Opal 480 mean",
      "Nucleus: Opal 480 sum",
      "Nucleus: Opal 480 std dev",
      "Nucleus: Opal 480 max",
      "Nucleus: Opal 480 min",
      "Nucleus: Opal 480 range",
      "Nucleus: Opal 520 mean",
      "Nucleus: Opal 520 sum",
      "Nucleus: Opal 520 std dev",
      "Nucleus: Opal 520 max",
      "Nucleus: Opal 520 min",
      "Nucleus: Opal 520 range",
      "Nucleus: Opal 540 mean",
      "Nucleus: Opal 540 sum",
      "Nucleus: Opal 540 std dev",
      "Nucleus: Opal 540 max",
      "Nucleus: Opal 540 min",
      "Nucleus: Opal 540 range",
      "Nucleus: Opal 570 mean",
      "Nucleus: Opal 570 sum",
      "Nucleus: Opal 570 std dev",
      "Nucleus: Opal 570 max",
      "Nucleus: Opal 570 min",
      "Nucleus: Opal 570 range",
      "Nucleus: Opal 620 mean",
      "Nucleus: Opal 620 sum",
      "Nucleus: Opal 620 std dev",
      "Nucleus: Opal 620 max",
      "Nucleus: Opal 620 min",
      "Nucleus: Opal 620 range",
      "Nucleus: Opal 650 mean",
      "Nucleus: Opal 650 sum",
      "Nucleus: Opal 650 std dev",
      "Nucleus: Opal 650 max",
      "Nucleus: Opal 650 min",
      "Nucleus: Opal 650 range",
      "Nucleus: Opal 690 mean",
      "Nucleus: Opal 690 sum",
      "Nucleus: Opal 690 std dev",
      "Nucleus: Opal 690 max",
      "Nucleus: Opal 690 min",
      "Nucleus: Opal 690 range",
      "Nucleus: Opal 780 mean",
      "Nucleus: Opal 780 sum",
      "Nucleus: Opal 780 std dev",
      "Nucleus: Opal 780 max",
      "Nucleus: Opal 780 min",
      "Nucleus: Opal 780 range",
      "Nucleus: Autofluorescence mean",
      "Nucleus: Autofluorescence sum",
      "Nucleus: Autofluorescence std dev",
      "Nucleus: Autofluorescence max",
      "Nucleus: Autofluorescence min",
      "Nucleus: Autofluorescence range",
      "Cell: Area",
      "Cell: Perimeter",
      "Cell: Circularity",
      "Cell: Max caliper",
      "Cell: Min caliper",
      "Cell: Eccentricity",
      "Cell: DAPI mean",
      "Cell: DAPI std dev",
      "Cell: DAPI max",
      "Cell: DAPI min",
      "Cell: Opal 480 mean",
      "Cell: Opal 480 std dev",
      "Cell: Opal 480 max",
      "Cell: Opal 480 min",
      "Cell: Opal 520 mean",
      "Cell: Opal 520 std dev",
      "Cell: Opal 520 max",
      "Cell: Opal 520 min",
      "Cell: Opal 540 mean",
      "Cell: Opal 540 std dev",
      "Cell: Opal 540 max",
      "Cell: Opal 540 min",
      "Cell: Opal 570 mean",
      "Cell: Opal 570 std dev",
      "Cell: Opal 570 max",
      "Cell: Opal 570 min",
      "Cell: Opal 620 mean",
      "Cell: Opal 620 std dev",
      "Cell: Opal 620 max",
      "Cell: Opal 620 min",
      "Cell: Opal 650 mean",
      "Cell: Opal 650 std dev",
      "Cell: Opal 650 max",
      "Cell: Opal 650 min",
      "Cell: Opal 690 mean",
      "Cell: Opal 690 std dev",
      "Cell: Opal 690 max",
      "Cell: Opal 690 min",
      "Cell: Opal 780 mean",
      "Cell: Opal 780 std dev",
      "Cell: Opal 780 max",
      "Cell: Opal 780 min",
      "Cell: Autofluorescence mean",
      "Cell: Autofluorescence std dev",
      "Cell: Autofluorescence max",
      "Cell: Autofluorescence min",
      "Cytoplasm: DAPI mean",
      "Cytoplasm: DAPI std dev",
      "Cytoplasm: DAPI max",
      "Cytoplasm: DAPI min",
      "Cytoplasm: Opal 480 mean",
      "Cytoplasm: Opal 480 std dev",
      "Cytoplasm: Opal 480 max",
      "Cytoplasm: Opal 480 min",
      "Cytoplasm: Opal 520 mean",
      "Cytoplasm: Opal 520 std dev",
      "Cytoplasm: Opal 520 max",
      "Cytoplasm: Opal 520 min",
      "Cytoplasm: Opal 540 mean",
      "Cytoplasm: Opal 540 std dev",
      "Cytoplasm: Opal 540 max",
      "Cytoplasm: Opal 540 min",
      "Cytoplasm: Opal 570 mean",
      "Cytoplasm: Opal 570 std dev",
      "Cytoplasm: Opal 570 max",
      "Cytoplasm: Opal 570 min",
      "Cytoplasm: Opal 620 mean",
      "Cytoplasm: Opal 620 std dev",
      "Cytoplasm: Opal 620 max",
      "Cytoplasm: Opal 620 min",
      "Cytoplasm: Opal 650 mean",
      "Cytoplasm: Opal 650 std dev",
      "Cytoplasm: Opal 650 max",
      "Cytoplasm: Opal 650 min",
      "Cytoplasm: Opal 690 mean",
      "Cytoplasm: Opal 690 std dev",
      "Cytoplasm: Opal 690 max",
      "Cytoplasm: Opal 690 min",
      "Cytoplasm: Opal 780 mean",
      "Cytoplasm: Opal 780 std dev",
      "Cytoplasm: Opal 780 max",
      "Cytoplasm: Opal 780 min",
      "Cytoplasm: Autofluorescence mean",
      "Cytoplasm: Autofluorescence std dev",
      "Cytoplasm: Autofluorescence max",
      "Cytoplasm: Autofluorescence min",
      "Nucleus/Cell area ratio"
    ]
  },
  "classifier": {
    "class": "RTrees",
    "statmodel": {
      "opencv_ml_rtrees": {
        "format": 3,
        "is_classifier": 1,
        "var_all": 154,
        "var_count": 153,
        "ord_var_count": 153,
        "cat_var_count": 1,
        "training_params": {
          "use_surrogates": 0,
          "max_categories": 10,
          "regression_accuracy": 0.0,
          "max_depth": 25,
          "min_sample_count": 10,
          "cross_validation_folds": 0,
          "nactive_vars": 0
        },
        "global_var_idx": 1,
        "var_idx": [
          0,
          1,
          2,
          3,
          4,
          5,
          6,
          7,
          8,
          9,
          10,
          11,
          12,
          13,
          14,
          15,
          16,
          17,
          18,
          19,
          20,
          21,
          22,
          23,
          24,
          25,
          26,
          27,
          28,
          29,
          30,
          31,
          32,
          33,
          34,
          35,
          36,
          37,
          38,
          39,
          40,
          41,
          42,
          43,
          44,
          45,
          46,
          47,
          48,
          49,
          50,
          51,
          52,
          53,
          54,
          55,
          56,
          57,
          58,
          59,
          60,
          61,
          62,
          63,
          64,
          65,
          66,
          67,
          68,
          69,
          70,
          71,
          72,
          73,
          74,
          75,
          76,
          77,
          78,
          79,
          80,
          81,
          82,
          83,
          84,
          85,
          86,
          87,
          88,
          89,
          90,
          91,
          92,
          93,
          94,
          95,
          96,
          97,
          98,
          99,
          100,
          101,
          102,
          103,
          104,
          105,
          106,
          107,
          108,
          109,
          110,
          111,
          112,
          113,
          114,
          115,
          116,
          117,
          118,
          119,
          120,
          121,
          122,
          123,
          124,
          125,
          126,
          127,
          128,
          129,
          130,
          131,
          132,
          133,
          134,
          135,
          136,
          137,
          138,
          139,
          140,
          141,
          142,
          143,
          144,
          145,
          146,
          147,
          148,
          149,
          150,
          151,
          152
        ],
        "var_type": [
          0,
          0,
          0,
          0,
          0,
          0,
          0,
          0,
          0,
          0,
          0,
          0,
          0,
          0,
          0,
          0,
          0,
          0,
          0,
          0,
          0,
          0,
          0,
          0,
          0,
          0,
          0,
          0,
          0,
          0,
          0,
          0,
          0,
          0,
          0,
          0,
          0,
          0,
          0,
          0,
          0,
          0,
          0,
          0,
          0,
          0,
          0,
          0,
          0,
          0,
          0,
          0,
          0,
          0,
          0,
          0,
          0,
          0,
          0,
          0,
          0,
          0,
          0,
          0,
          0,
          0,
          0,
          0,
          0,
          0,
          0,
          0,
          0,
          0,
          0,
          0,
          0,
          0,
          0,
          0,
          0,
          0,
          0,
          0,
          0,
          0,
          0,
          0,
          0,
          0,
          0,
          0,
          0,
          0,
          0,
          0,
          0,
          0,
          0,
          0,
          0,
          0,
          0,
          0,
          0,
          0,
          0,
          0,
          0,
          0,
          0,
          0,
          0,
          0,
          0,
          0,
          0,
          0,
          0,
          0,
          0,
          0,
          0,
          0,
          0,
          0,
          0,
          0,
          0,
          0,
          0,
          0,
          0,
          0,
          0,
          0,
          0,
          0,
          0,
          0,
          0,
          0,
          0,
          0,
          0,
          0,
          0,
          0,
          0,
          0,
          0,
          0,
          0,
          1
        ],
        "cat_ofs": [
          0,
          0,
          0,
          0,
          0,
          0,
          0,
          0,
          0,
          0,
          0,
          0,
          0,
          0,
          0,
          0,
          0,
          0,
          0,
          0,
          0,
          0,
          0,
          0,
          0,
          0,
          0,
          0,
          0,
          0,
          0,
          0,
          0,
          0,
          0,
          0,
          0,
          0,
          0,
          0,
          0,
          0,
          0,
          0,
          0,
          0,
          0,
          0,
          0,
          0,
          0,
          0,
          0,
          0,
          0,
          0,
          0,
          0,
          0,
          0,
          0,
          0,
          0,
          0,
          0,
          0,
          0,
          0,
          0,
          0,
          0,
          0,
          0,
          0,
          0,
          0,
          0,
          0,
          0,
          0,
          0,
          0,
          0,
          0,
          0,
          0,
          0,
          0,
          0,
          0,
          0,
          0,
          0,
          0,
          0,
          0,
          0,
          0,
          0,
          0,
          0,
          0,
          0,
          0,
          0,
          0,
          0,
          0,
          0,
          0,
          0,
          0,
          0,
          0,
          0,
          0,
          0,
          0,
          0,
          0,
          0,
          0,
          0,
          0,
          0,
          0,
          0,
          0,
          0,
          0,
          0,
          0,
          0,
          0,
          0,
          0,
          0,
          0,
          0,
          0,
          0,
          0,
          0,
          0,
          0,
          0,
          0,
          0,
          0,
          0,
          0,
          0,
          0,
          0,
          0,
          0,
          0,
          0,
          0,
          0,
          0,
          0,
          0,
          0,
          0,
          0,
          0,
          0,
          0,
          0,
          0,
          0,
          0,
          0,
          0,
          0,
          0,
          0,
          0,
          0,
          0,
          0,
          0,
          0,
          0,
          0,
          0,
          0,
          0,
          0,
          0,
          0,
          0,
          0,
          0,
          0,
          0,
          0,
          0,
          0,
          0,
          0,
          0,
          0,
          0,
          0,
          0,
          0,
          0,
          0,
          0,
          0,
          0,
          0,
          0,
          0,
          0,
          0,
          0,
          0,
          0,
          0,
          0,
          0,
          0,
          0,
          0,
          0,
          0,
          0,
          0,
          0,
          0,
          0,
          0,
          0,
          0,
          0,
          0,
          0,
          0,
          0,
          0,
          0,
          0,
          0,
          0,
          0,
          0,
          0,
          0,
          0,
          0,
          0,
          0,
          0,
          0,
          0,
          0,
          0,
          0,
          0,
          0,
          0,
          0,
          0,
          0,
          0,
          0,
          0,
          0,
          0,
          0,
          0,
          0,
          0,
          0,
          0,
          0,
          0,
          0,
          0,
          0,
          0,
          0,
          0,
          0,
          0,
          0,
          0,
          0,
          0,
          0,
          0,
          0,
          0,
          0,
          0,
          0,
          0,
          0,
          0,
          0,
          0,
          0,
          0
        ],
        "class_labels": [
          0,
          1
        ],
        "missing_subst": [
          0.0,
          0.0,
          0.0,
          0.0,
          0.0,
          0.0,
          0.0,
          0.0,
          0.0,
          0.0,
          0.0,
          0.0,
          0.0,
          0.0,
          0.0,
          0.0,
          0.0,
          0.0,
          0.0,
          0.0,
          0.0,
          0.0,
          0.0,
          0.0,
          0.0,
          0.0,
          0.0,
          0.0,
          0.0,
          0.0,
          0.0,
          0.0,
          0.0,
          0.0,
          0.0,
          0.0,
          0.0,
          0.0,
          0.0,
          0.0,
          0.0,
          0.0,
          0.0,
          0.0,
          0.0,
          0.0,
          0.0,
          0.0,
          0.0,
          0.0,
          0.0,
          0.0,
          0.0,
          0.0,
          0.0,
          0.0,
          0.0,
          0.0,
          0.0,
          0.0,
          0.0,
          0.0,
          0.0,
          0.0,
          0.0,
          0.0,
          0.0,
          0.0,
          0.0,
          0.0,
          0.0,
          0.0,
          0.0,
          0.0,
          0.0,
          0.0,
          0.0,
          0.0,
          0.0,
          0.0,
          0.0,
          0.0,
          0.0,
          0.0,
          0.0,
          0.0,
          0.0,
          0.0,
          0.0,
          0.0,
          0.0,
          0.0,
          0.0,
          0.0,
          0.0,
          0.0,
          0.0,
          0.0,
          0.0,
          0.0,
          0.0,
          0.0,
          0.0,
          0.0,
          0.0,
          0.0,
          0.0,
          0.0,
          0.0,
          0.0,
          0.0,
          0.0,
          0.0,
          0.0,
          0.0,
          0.0,
          0.0,
          0.0,
          0.0,
          0.0,
          0.0,
          0.0,
          0.0,
          0.0,
          0.0,
          0.0,
          0.0,
          0.0,
          0.0,
          0.0,
          0.0,
          0.0,
          0.0,
          0.0,
          0.0,
          0.0,
          0.0,
          0.0,
          0.0,
          0.0,
          0.0,
          0.0,
          0.0,
          0.0,
          0.0,
          0.0,
          0.0,
          0.0,
          0.0,
          0.0,
          0.0,
          0.0,
          0.0,
          0.0
        ],
        "oob_error": 0.0,
        "ntrees": 50,
        "trees": [
          {
            "nodes": [
              {
                "depth": 0,
                "value": 1.0,
                "norm_class_idx": 1,
                "splits": [
                  {
                    "var": 93,
                    "quality": 5.2661340332031250e+02,
                    "le": 1.2395491600036621e+00
                  }
                ]
              },
              {
                "depth": 1,
                "value": 1.0,
                "norm_class_idx": 1,
                "splits": [
                  {
                    "var": 105,
                    "quality": 2.0857658386230469e+02,
                    "le": 3.9708566665649414e-01
                  }
                ]
              },
              {
                "depth": 2,
                "value": 1.0,
                "norm_class_idx": 1,
                "splits": [
                  {
                    "var": 83,
                    "quality": 2.1254747009277344e+02,
                    "le": 8.1483478425070643e-04
                  }
                ]
              },
              {
                "depth": 3,
                "value": 1.0,
                "norm_class_idx": 1,
                "splits": [
                  {
                    "var": 101,
                    "quality": 2.1219999694824219e+02,
                    "le": 4.1412405967712402e+00
                  }
                ]
              },
              {
                "depth": 4,
                "value": 1.0,
                "norm_class_idx": 1
              },
              {
                "depth": 4,
                "value": 1.0,
                "norm_class_idx": 1
              },
              {
                "depth": 3,
                "value": 0.0,
                "norm_class_idx": 0
              },
              {
                "depth": 2,
                "value": 0.0,
                "norm_class_idx": 0
              },
              {
                "depth": 1,
                "value": 0.0,
                "norm_class_idx": 0,
                "splits": [
                  {
                    "var": 42,
                    "quality": 4.5019470214843750e+02,
                    "le": 7.5168905258178711e+00
                  }
                ]
              },
              {
                "depth": 2,
                "value": 0.0,
                "norm_class_idx": 0,
                "splits": [
                  {
                    "var": 55,
                    "quality": 2.8079895019531250e+02,
                    "le": 4.8536926269531250e+01
                  }
                ]
              },
              {
                "depth": 3,
                "value": 0.0,
                "norm_class_idx": 0,
                "splits": [
                  {
                    "var": 42,
                    "quality": 8.0042732238769531e+01,
                    "le": 5.4196949005126953e+00
                  }
                ]
              },
              {
                "depth": 4,
                "value": 0.0,
                "norm_class_idx": 0,
                "splits": [
                  {
                    "var": 91,
                    "quality": 52.0,
                    "le": 8.1179612874984741e-01
                  }
                ]
              },
              {
                "depth": 5,
                "value": 0.0,
                "norm_class_idx": 0
              },
              {
                "depth": 5,
                "value": 1.0,
                "norm_class_idx": 1
              },
              {
                "depth": 4,
                "value": 0.0,
                "norm_class_idx": 0,
                "splits": [
                  {
                    "var": 49,
                    "quality": 4.5243904113769531e+01,
                    "le": 8.4413342285156250e+02
                  }
                ]
              },
              {
                "depth": 5,
                "value": 1.0,
                "norm_class_idx": 1,
                "splits": [
                  {
                    "var": 7,
                    "quality": 34.0,
                    "le": 1.2705514526367188e+02
                  }
                ]
              },
              {
                "depth": 6,
                "value": 0.0,
                "norm_class_idx": 0
              },
              {
                "depth": 6,
                "value": 1.0,
                "norm_class_idx": 1,
                "splits": [
                  {
                    "var": 110,
                    "quality": 2.8266666412353516e+01,
                    "le": 1.6159816741943359e+01
                  }
                ]
              },
              {
                "depth": 7,
                "value": 0.0,
                "norm_class_idx": 0
              },
              {
                "depth": 7,
                "value": 1.0,
                "norm_class_idx": 1,
                "splits": [
                  {
                    "var": 98,
                    "quality": 2.8666666030883789e+01,
                    "le": 1.6134357452392578e+01
                  }
                ]
              },
              {
                "depth": 8,
                "value": 1.0,
                "norm_class_idx": 1
              },
              {
                "depth": 8,
                "value": 0.0,
                "norm_class_idx": 0
              },
              {
                "depth": 5,
                "value": 0.0,
                "norm_class_idx": 0
              },
              {
                "depth": 3,
                "value": 0.0,
                "norm_class_idx": 0,
                "splits": [
                  {
                    "var": 30,
                    "quality": 2.1403703308105469e+02,
                    "le": 3.1788210868835449e+00
                  }
                ]
              },
              {
                "depth": 4,
                "value": 0.0,
                "norm_class_idx": 0,
                "splits": [
                  {
                    "var": 36,
                    "quality": 216.0,
                    "le": 1.0609123229980469e+01
                  }
                ]
              },
              {
                "depth": 5,
                "value": 0.0,
                "norm_class_idx": 0
              },
              {
                "depth": 5,
                "value": 1.0,
                "norm_class_idx": 1
              },
              {
                "depth": 4,
                "value": 1.0,
                "norm_class_idx": 1
              },
              {
                "depth": 2,
                "value": 1.0,
                "norm_class_idx": 1,
                "splits": [
                  {
                    "var": 50,
                    "quality": 2.0970423889160156e+02,
                    "le": 3.4336032867431641e+00
                  }
                ]
              },
              {
                "depth": 3,
                "value": 1.0,
                "norm_class_idx": 1,
                "splits": [
                  {
                    "var": 51,
                    "quality": 1.8260694885253906e+02,
                    "le": 1.2611085891723633e+01
                  }
                ]
              },
              {
                "depth": 4,
                "value": 1.0,
                "norm_class_idx": 1,
                "splits": [
                  {
                    "var": 149,
                    "quality": 1.6778181457519531e+02,
                    "le": 3.1342883110046387e+00
                  }
                ]
              },
              {
                "depth": 5,
                "value": 1.0,
                "norm_class_idx": 1,
                "splits": [
                  {
                    "var": 13,
                    "quality": 4.5943397521972656e+01,
                    "le": 4.6135530471801758e+00
                  }
                ]
              },
              {
                "depth": 6,
                "value": 1.0,
                "norm_class_idx": 1,
                "splits": [
                  {
                    "var": 63,
                    "quality": 4.6026668548583984e+01,
                    "le": 1.3945034027099609e+01
                  }
                ]
              },
              {
                "depth": 7,
                "value": 0.0,
                "norm_class_idx": 0
              },
              {
                "depth": 7,
                "value": 1.0,
                "norm_class_idx": 1,
                "splits": [
                  {
                    "var": 123,
                    "quality": 4.6163265228271484e+01,
                    "le": 1.9323590397834778e-01
                  }
                ]
              },
              {
                "depth": 8,
                "value": 1.0,
                "norm_class_idx": 1,
                "splits": [
                  {
                    "var": 135,
                    "quality": 4.5710144042968750e+01,
                    "le": 3.5571432113647461e+00
                  }
                ]
              },
              {
                "depth": 9,
                "value": 1.0,
                "norm_class_idx": 1,
                "splits": [
                  {
                    "var": 24,
                    "quality": 4.4333332061767578e+01,
                    "le": 3.7277069091796875e+00
                  }
                ]
              },
              {
                "depth": 10,
                "value": 1.0,
                "norm_class_idx": 1
              },
              {
                "depth": 10,
                "value": 1.0,
                "norm_class_idx": 1
              },
              {
                "depth": 9,
                "value": 1.0,
                "norm_class_idx": 1
              },
              {
                "depth": 8,
                "value": 0.0,
                "norm_class_idx": 0
              },
              {
                "depth": 6,
                "value": 0.0,
                "norm_class_idx": 0
              },
              {
                "depth": 5,
                "value": 1.0,
                "norm_class_idx": 1
              },
              {
                "depth": 4,
                "value": 0.0,
                "norm_class_idx": 0,
                "splits": [
                  {
                    "var": 140,
                    "quality": 2.2415685653686523e+01,
                    "le": 6.5678257942199707e+00
                  }
                ]
              },
              {
                "depth": 5,
                "value": 1.0,
                "norm_class_idx": 1,
                "splits": [
                  {
                    "var": 72,
                    "quality": 17.0,
                    "le": 2.0469741821289062e+00
                  }
                ]
              },
              {
                "depth": 6,
                "value": 0.0,
                "norm_class_idx": 0
              },
              {
                "depth": 6,
                "value": 1.0,
                "norm_class_idx": 1
              },
              {
                "depth": 5,
                "value": 0.0,
                "norm_class_idx": 0,
                "splits": [
                  {
                    "var": 25,
                    "quality": 15.0,
                    "le": 1.5625784301757812e+02
                  }
                ]
              },
              {
                "depth": 6,
                "value": 1.0,
                "norm_class_idx": 1
              },
              {
                "depth": 6,
                "value": 0.0,
                "norm_class_idx": 0
              },
              {
                "depth": 3,
                "value": 0.0,
                "norm_class_idx": 0,
                "splits": [
                  {
                    "var": 132,
                    "quality": 5.0532245635986328e+01,
                    "le": 7.1377344131469727e+00
                  }
                ]
              },
              {
                "depth": 4,
                "value": 0.0,
                "norm_class_idx": 0,
                "splits": [
                  {
                    "var": 96,
                    "quality": 4.2195121765136719e+01,
                    "le": 1.3081080436706543e+01
                  }
                ]
              },
              {
                "depth": 5,
                "value": 0.0,
                "norm_class_idx": 0,
                "splits": [
                  {
                    "var": 40,
                    "quality": 3.9049999237060547e+01,
                    "le": 3.9393556118011475e+00
                  }
                ]
              },
              {
                "depth": 6,
                "value": 0.0,
                "norm_class_idx": 0,
                "splits": [
                  {
                    "var": 31,
                    "quality": 40.0,
                    "le": 4.4501898193359375e+02
                  }
                ]
              },
              {
                "depth": 7,
                "value": 0.0,
                "norm_class_idx": 0
              },
              {
                "depth": 7,
                "value": 1.0,
                "norm_class_idx": 1
              },
              {
                "depth": 6,
                "value": 1.0,
                "norm_class_idx": 1
              },
              {
                "depth": 5,
                "value": 1.0,
                "norm_class_idx": 1
              },
              {
                "depth": 4,
                "value": 1.0,
                "norm_class_idx": 1,
                "splits": [
                  {
                    "var": 135,
                    "quality": 2.1399999618530273e+01,
                    "le": 3.4739345312118530e-01
                  }
                ]
              },
              {
                "depth": 5,
                "value": 0.0,
                "norm_class_idx": 0
              },
              {
                "depth": 5,
                "value": 1.0,
                "norm_class_idx": 1,
                "splits": [
                  {
                    "var": 129,
                    "quality": 20.0,
                    "le": 5.1618921756744385e-01
                  }
                ]
              },
              {
                "depth": 6,
                "value": 0.0,
                "norm_class_idx": 0
              },
              {
                "depth": 6,
                "value": 1.0,
                "norm_class_idx": 1
              }
            ]
          },
          {
            "nodes": [
              {
                "depth": 0,
                "value": 1.0,
                "norm_class_idx": 1,
                "splits": [
                  {
                    "var": 41,
                    "quality": 5.3449816894531250e+02,
                    "le": 3.7659540176391602e+00
                  }
                ]
              },
              {
                "depth": 1,
                "value": 1.0,
                "norm_class_idx": 1,
                "splits": [
                  {
                    "var": 96,
                    "quality": 2.4191046142578125e+02,
                    "le": 6.0309562683105469e+00
                  }
                ]
              },
              {
                "depth": 2,
                "value": 0.0,
                "norm_class_idx": 0,
                "splits": [
                  {
                    "var": 143,
                    "quality": 13.0,
                    "le": 7.4388399720191956e-02
                  }
                ]
              },
              {
                "depth": 3,
                "value": 1.0,
                "norm_class_idx": 1
              },
              {
                "depth": 3,
                "value": 0.0,
                "norm_class_idx": 0
              },
              {
                "depth": 2,
                "value": 1.0,
                "norm_class_idx": 1,
                "splits": [
                  {
                    "var": 50,
                    "quality": 2.3919999694824219e+02,
                    "le": 1.8410654067993164e+00
                  }
                ]
              },
              {
                "depth": 3,
                "value": 1.0,
                "norm_class_idx": 1
              },
              {
                "depth": 3,
                "value": 0.0,
                "norm_class_idx": 0
              },
              {
                "depth": 1,
                "value": 0.0,
                "norm_class_idx": 0,
                "splits": [
                  {
                    "var": 103,
                    "quality": 4.0003125000000000e+02,
                    "le": 7.8329116106033325e-02
                  }
                ]
              },
              {
                "depth": 2,
                "value": 1.0,
                "norm_class_idx": 1,
                "splits": [
                  {
                    "var": 140,
                    "quality": 1.5935702514648438e+02,
                    "le": 3.4814276695251465e+00
                  }
                ]
              },
              {
                "depth": 3,
                "value": 1.0,
                "norm_class_idx": 1,
                "splits": [
                  {
                    "var": 13,
                    "quality": 1.0076923370361328e+02,
                    "le": 5.7579507827758789e+00
                  }
                ]
              },
              {
                "depth": 4,
                "value": 1.0,
                "norm_class_idx": 1
              },
              {
                "depth": 4,
                "value": 1.0,
                "norm_class_idx": 1,
                "splits": [
                  {
                    "var": 125,
                    "quality": 26.0,
                    "le": 1.0572223663330078e+00
                  }
                ]
              },
              {
                "depth": 5,
                "value": 0.0,
                "norm_class_idx": 0
              },
              {
                "depth": 5,
                "value": 1.0,
                "norm_class_idx": 1
              },
              {
                "depth": 3,
                "value": 1.0,
                "norm_class_idx": 1,
                "splits": [
                  {
                    "var": 31,
                    "quality": 7.6066131591796875e+01,
                    "le": 1.8716601562500000e+02
                  }
                ]
              },
              {
                "depth": 4,
                "value": 0.0,
                "norm_class_idx": 0,
                "splits": [
                  {
                    "var": 125,
                    "quality": 3.6674419403076172e+01,
                    "le": 3.6453654766082764e+00
                  }
                ]
              },
              {
                "depth": 5,
                "value": 0.0,
                "norm_class_idx": 0,
                "splits": [
                  {
                    "var": 37,
                    "quality": 3.5231182098388672e+01,
                    "le": 4.4381054687500000e+02
                  }
                ]
              },
              {
                "depth": 6,
                "value": 0.0,
                "norm_class_idx": 0,
                "splits": [
                  {
                    "var": 128,
                    "quality": 30.0,
                    "le": 2.0480575561523438e+00
                  }
                ]
              },
              {
                "depth": 7,
                "value": 0.0,
                "norm_class_idx": 0
              },
              {
                "depth": 7,
                "value": 0.0,
                "norm_class_idx": 0
              },
              {
                "depth": 6,
                "value": 0.0,
                "norm_class_idx": 0,
                "splits": [
                  {
                    "var": 48,
                    "quality": 1.0333333015441895e+01,
                    "le": 9.3368835449218750e+00
                  }
                ]
              },
              {
                "depth": 7,
                "value": 1.0,
                "norm_class_idx": 1
              },
              {
                "depth": 7,
                "value": 0.0,
                "norm_class_idx": 0
              },
              {
                "depth": 5,
                "value": 1.0,
                "norm_class_idx": 1
              },
              {
                "depth": 4,
                "value": 1.0,
                "norm_class_idx": 1,
                "splits": [
                  {
                    "var": 40,
                    "quality": 5.7529411315917969e+01,
                    "le": 2.7493262290954590e+00
                  }
                ]
              },
              {
                "depth": 5,
                "value": 0.0,
                "norm_class_idx": 0,
                "splits": [
                  {
                    "var": 22,
                    "quality": 3.0500000000000000e+01,
                    "le": 6.0563096776604652e-03
                  }
                ]
              },
              {
                "depth": 6,
                "value": 1.0,
                "norm_class_idx": 1,
                "splits": [
                  {
                    "var": 1,
                    "quality": 1.4133333206176758e+01,
                    "le": 4.0202285766601562e+01
                  }
                ]
              },
              {
                "depth": 7,
                "value": 1.0,
                "norm_class_idx": 1,
                "splits": [
                  {
                    "var": 117,
                    "quality": 15.0,
                    "le": 1.6180442273616791e-01
                  }
                ]
              },
              {
                "depth": 8,
                "value": 0.0,
                "norm_class_idx": 0
              },
              {
                "depth": 8,
                "value": 1.0,
                "norm_class_idx": 1
              },
              {
                "depth": 7,
                "value": 0.0,
                "norm_class_idx": 0
              },
              {
                "depth": 6,
                "value": 0.0,
                "norm_class_idx": 0
              },
              {
                "depth": 5,
                "value": 1.0,
                "norm_class_idx": 1
              },
              {
                "depth": 2,
                "value": 0.0,
                "norm_class_idx": 0,
                "splits": [
                  {
                    "var": 40,
                    "quality": 3.1750784301757812e+02,
                    "le": 6.4934806823730469e+00
                  }
                ]
              },
              {
                "depth": 3,
                "value": 0.0,
                "norm_class_idx": 0,
                "splits": [
                  {
                    "var": 39,
                    "quality": 2.8919494628906250e+02,
                    "le": 2.5955333709716797e+01
                  }
                ]
              },
              {
                "depth": 4,
                "value": 0.0,
                "norm_class_idx": 0,
                "splits": [
                  {
                    "var": 51,
                    "quality": 2.8442242431640625e+02,
                    "le": 9.3766946792602539e+00
                  }
                ]
              },
              {
                "depth": 5,
                "value": 1.0,
                "norm_class_idx": 1
              },
              {
                "depth": 5,
                "value": 0.0,
                "norm_class_idx": 0,
                "splits": [
                  {
                    "var": 1,
                    "quality": 2.8400708007812500e+02,
                    "le": 1.2382198333740234e+01
                  }
                ]
              },
              {
                "depth": 6,
                "value": 0.0,
                "norm_class_idx": 0
              },
              {
                "depth": 6,
                "value": 0.0,
                "norm_class_idx": 0,
                "splits": [
                  {
                    "var": 36,
                    "quality": 282.0,
                    "le": 1.2284475326538086e+01
                  }
                ]
              },
              {
                "depth": 7,
                "value": 0.0,
                "norm_class_idx": 0
              },
              {
                "depth": 7,
                "value": 1.0,
                "norm_class_idx": 1
              },
              {
                "depth": 4,
                "value": 0.0,
                "norm_class_idx": 0,
                "splits": [
                  {
                    "var": 106,
                    "quality": 1.7666666030883789e+01,
                    "le": 9.7628688812255859e-01
                  }
                ]
              },
              {
                "depth": 5,
                "value": 1.0,
                "norm_class_idx": 1,
                "splits": [
                  {
                    "var": 4,
                    "quality": 12.0,
                    "le": 5.3084058761596680e+00
                  }
                ]
              },
              {
                "depth": 6,
                "value": 1.0,
                "norm_class_idx": 1
              },
              {
                "depth": 6,
                "value": 0.0,
                "norm_class_idx": 0
              },
              {
                "depth": 5,
                "value": 0.0,
                "norm_class_idx": 0
              },
              {
                "depth": 3,
                "value": 1.0,
                "norm_class_idx": 1
              }
            ]
          },
          {
            "nodes": [
              {
                "depth": 0,
                "value": 1.0,
                "norm_class_idx": 1,
                "splits": [
                  {
                    "var": 53,
                    "quality": 6.3324871826171875e+02,
                    "le": 6.6564722061157227e+00
                  }
                ]
              },
              {
                "depth": 1,
                "value": 1.0,
                "norm_class_idx": 1,
                "splits": [
                  {
                    "var": 141,
                    "quality": 3.2646173095703125e+02,
                    "le": 2.3823375701904297e+00
                  }
                ]
              },
              {
                "depth": 2,
                "value": 1.0,
                "norm_class_idx": 1,
                "splits": [
                  {
                    "var": 123,
                    "quality": 277.0,
                    "le": 1.8477445840835571e-01
                  }
                ]
              },
              {
                "depth": 3,
                "value": 1.0,
                "norm_class_idx": 1
              },
              {
                "depth": 3,
                "value": 0.0,
                "norm_class_idx": 0
              },
              {
                "depth": 2,
                "value": 1.0,
                "norm_class_idx": 1,
                "splits": [
                  {
                    "var": 148,
                    "quality": 5.9672725677490234e+01,
                    "le": 1.2565435409545898e+01
                  }
                ]
              },
              {
                "depth": 3,
                "value": 0.0,
                "norm_class_idx": 0,
                "splits": [
                  {
                    "var": 22,
                    "quality": 11.0,
                    "le": 8.0661512911319733e-02
                  }
                ]
              },
              {
                "depth": 4,
                "value": 1.0,
                "norm_class_idx": 1
              },
              {
                "depth": 4,
                "value": 0.0,
                "norm_class_idx": 0
              },
              {
                "depth": 3,
                "value": 1.0,
                "norm_class_idx": 1,
                "splits": [
                  {
                    "var": 100,
                    "quality": 55.0,
                    "le": 8.2576017379760742e+00
                  }
                ]
              },
              {
                "depth": 4,
                "value": 1.0,
                "norm_class_idx": 1
              },
              {
                "depth": 4,
                "value": 0.0,
                "norm_class_idx": 0
              },
              {
                "depth": 1,
                "value": 0.0,
                "norm_class_idx": 0,
                "splits": [
                  {
                    "var": 40,
                    "quality": 3.9216201782226562e+02,
                    "le": 4.3095097541809082e+00
                  }
                ]
              },
              {
                "depth": 2,
                "value": 0.0,
                "norm_class_idx": 0,
                "splits": [
                  {
                    "var": 84,
                    "quality": 3.4056564331054688e+02,
                    "le": 6.2754559516906738e+00
                  }
                ]
              },
              {
                "depth": 3,
                "value": 0.0,
                "norm_class_idx": 0,
                "splits": [
                  {
                    "var": 23,
                    "quality": 3.3788021850585938e+02,
                    "le": 7.1422970294952393e-01
                  }
                ]
              },
              {
                "depth": 4,
                "value": 1.0,
                "norm_class_idx": 1,
                "splits": [
                  {
                    "var": 59,
                    "quality": 12.0,
                    "le": 3.8435584306716919e-01
                  }
                ]
              },
              {
                "depth": 5,
                "value": 0.0,
                "norm_class_idx": 0
              },
              {
                "depth": 5,
                "value": 1.0,
                "norm_class_idx": 1
              },
              {
                "depth": 4,
                "value": 0.0,
                "norm_class_idx": 0,
                "splits": [
                  {
                    "var": 93,
                    "quality": 3.3554855346679688e+02,
                    "le": 1.2167937278747559e+01
                  }
                ]
              },
              {
                "depth": 5,
                "value": 0.0,
                "norm_class_idx": 0,
                "splits": [
                  {
                    "var": 93,
                    "quality": 3.3515771484375000e+02,
                    "le": 9.3853759765625000e-01
                  }
                ]
              },
              {
                "depth": 6,
                "value": 0.0,
                "norm_class_idx": 0
              },
              {
                "depth": 6,
                "value": 0.0,
                "norm_class_idx": 0,
                "splits": [
                  {
                    "var": 47,
                    "quality": 3.3741665649414062e+02,
                    "le": 1.8132448196411133e+01
                  }
                ]
              },
              {
                "depth": 7,
                "value": 0.0,
                "norm_class_idx": 0,
                "splits": [
                  {
                    "var": 48,
                    "quality": 3.3700964355468750e+02,
                    "le": 3.9113559722900391e+00
                  }
                ]
              },
              {
                "depth": 8,
                "value": 1.0,
                "norm_class_idx": 1,
                "splits": [
                  {
                    "var": 84,
                    "quality": 9.3333330154418945e+00,
                    "le": 1.4430407285690308e+00
                  }
                ]
              },
              {
                "depth": 9,
                "value": 0.0,
                "norm_class_idx": 0
              },
              {
                "depth": 9,
                "value": 1.0,
                "norm_class_idx": 1
              },
              {
                "depth": 8,
                "value": 0.0,
                "norm_class_idx": 0,
                "splits": [
                  {
                    "var": 41,
                    "quality": 3.3267623901367188e+02,
                    "le": 2.6662277221679688e+01
                  }
                ]
              },
              {
                "depth": 9,
                "value": 0.0,
                "norm_class_idx": 0,
                "splits": [
                  {
                    "var": 33,
                    "quality": 3.2009786987304688e+02,
                    "le": 6.3002924919128418e+00
                  }
                ]
              },
              {
                "depth": 10,
                "value": 0.0,
                "norm_class_idx": 0,
                "splits": [
                  {
                    "var": 49,
                    "quality": 3.1996969604492188e+02,
                    "le": 6.3038854980468750e+02
                  }
                ]
              },
              {
                "depth": 11,
                "value": 0.0,
                "norm_class_idx": 0,
                "splits": [
                  {
                    "var": 29,
                    "quality": 2.7933332443237305e+01,
                    "le": 6.7070331573486328e+00
                  }
                ]
              },
              {
                "depth": 12,
                "value": 0.0,
                "norm_class_idx": 0,
                "splits": [
                  {
                    "var": 18,
                    "quality": 2.8068965911865234e+01,
                    "le": 1.4892402887344360e+00
                  }
                ]
              },
              {
                "depth": 13,
                "value": 0.0,
                "norm_class_idx": 0,
                "splits": [
                  {
                    "var": 0,
                    "quality": 2.7666666030883789e+01,
                    "le": 1.8375000000000000e+01
                  }
                ]
              },
              {
                "depth": 14,
                "value": 0.0,
                "norm_class_idx": 0
              },
              {
                "depth": 14,
                "value": 0.0,
                "norm_class_idx": 0
              },
              {
                "depth": 13,
                "value": 1.0,
                "norm_class_idx": 1
              },
              {
                "depth": 12,
                "value": 1.0,
                "norm_class_idx": 1
              },
              {
                "depth": 11,
                "value": 0.0,
                "norm_class_idx": 0
              },
              {
                "depth": 10,
                "value": 1.0,
                "norm_class_idx": 1
              },
              {
                "depth": 9,
                "value": 0.0,
                "norm_class_idx": 0,
                "splits": [
                  {
                    "var": 0,
                    "quality": 1.7617647171020508e+01,
                    "le": 2.0875000000000000e+01
                  }
                ]
              },
              {
                "depth": 10,
                "value": 1.0,
                "norm_class_idx": 1
              },
              {
                "depth": 10,
                "value": 0.0,
                "norm_class_idx": 0,
                "splits": [
                  {
                    "var": 8,
                    "quality": 16.0,
                    "le": 1.3761891126632690e+00
                  }
                ]
              },
              {
                "depth": 11,
                "value": 0.0,
                "norm_class_idx": 0
              },
              {
                "depth": 11,
                "value": 0.0,
                "norm_class_idx": 0
              },
              {
                "depth": 7,
                "value": 1.0,
                "norm_class_idx": 1,
                "splits": [
                  {
                    "var": 48,
                    "quality": 12.0,
                    "le": 7.9828157424926758e+00
                  }
                ]
              },
              {
                "depth": 8,
                "value": 1.0,
                "norm_class_idx": 1
              },
              {
                "depth": 8,
                "value": 0.0,
                "norm_class_idx": 0
              },
              {
                "depth": 5,
                "value": 1.0,
                "norm_class_idx": 1
              },
              {
                "depth": 3,
                "value": 1.0,
                "norm_class_idx": 1,
                "splits": [
                  {
                    "var": 48,
                    "quality": 2.0285715103149414e+01,
                    "le": 7.5965662002563477e+00
                  }
                ]
              },
              {
                "depth": 4,
                "value": 1.0,
                "norm_class_idx": 1
              },
              {
                "depth": 4,
                "value": 0.0,
                "norm_class_idx": 0
              },
              {
                "depth": 2,
                "value": 1.0,
                "norm_class_idx": 1,
                "splits": [
                  {
                    "var": 103,
                    "quality": 7.2666664123535156e+01,
                    "le": 7.2764885425567627e-01
                  }
                ]
              },
              {
                "depth": 3,
                "value": 1.0,
                "norm_class_idx": 1,
                "splits": [
                  {
                    "var": 46,
                    "quality": 7.0666664123535156e+01,
                    "le": 8.9981365203857422e+00
                  }
                ]
              },
              {
                "depth": 4,
                "value": 1.0,
                "norm_class_idx": 1
              },
              {
                "depth": 4,
                "value": 0.0,
                "norm_class_idx": 0
              },
              {
                "depth": 3,
                "value": 0.0,
                "norm_class_idx": 0
              }
            ]
          },
          {
            "nodes": [
              {
                "depth": 0,
                "value": 1.0,
                "norm_class_idx": 1,
                "splits": [
                  {
                    "var": 50,
                    "quality": 6.3460687255859375e+02,
                    "le": 1.6943678855895996e+00
                  }
                ]
              },
              {
                "depth": 1,
                "value": 1.0,
                "norm_class_idx": 1,
                "splits": [
                  {
                    "var": 63,
                    "quality": 3.3853628540039062e+02,
                    "le": 1.2403018951416016e+01
                  }
                ]
              },
              {
                "depth": 2,
                "value": 1.0,
                "norm_class_idx": 1
              },
              {
                "depth": 2,
                "value": 1.0,
                "norm_class_idx": 1,
                "splits": [
                  {
                    "var": 123,
                    "quality": 3.4556256103515625e+02,
                    "le": 1.8477445840835571e-01
                  }
                ]
              },
              {
                "depth": 3,
                "value": 1.0,
                "norm_class_idx": 1,
                "splits": [
                  {
                    "var": 42,
                    "quality": 3.4627313232421875e+02,
                    "le": 5.3868942260742188e+00
                  }
                ]
              },
              {
                "depth": 4,
                "value": 0.0,
                "norm_class_idx": 0
              },
              {
                "depth": 4,
                "value": 1.0,
                "norm_class_idx": 1,
                "splits": [
                  {
                    "var": 42,
                    "quality": 3.4217266845703125e+02,
                    "le": 6.9956083297729492e+00
                  }
                ]
              },
              {
                "depth": 5,
                "value": 1.0,
                "norm_class_idx": 1,
                "splits": [
                  {
                    "var": 42,
                    "quality": 12.0,
                    "le": 6.9161157608032227e+00
                  }
                ]
              },
              {
                "depth": 6,
                "value": 1.0,
                "norm_class_idx": 1
              },
              {
                "depth": 6,
                "value": 0.0,
                "norm_class_idx": 0
              },
              {
                "depth": 5,
                "value": 1.0,
                "norm_class_idx": 1,
                "splits": [
                  {
                    "var": 125,
                    "quality": 3.3204876708984375e+02,
                    "le": 7.2129470109939575e-01
                  }
                ]
              },
              {
                "depth": 6,
                "value": 1.0,
                "norm_class_idx": 1,
                "splits": [
                  {
                    "var": 92,
                    "quality": 3.9666667938232422e+01,
                    "le": 7.2071313858032227e+00
                  }
                ]
              },
              {
                "depth": 7,
                "value": 1.0,
                "norm_class_idx": 1
              },
              {
                "depth": 7,
                "value": 1.0,
                "norm_class_idx": 1
              },
              {
                "depth": 6,
                "value": 1.0,
                "norm_class_idx": 1
              },
              {
                "depth": 3,
                "value": 0.0,
                "norm_class_idx": 0
              },
              {
                "depth": 1,
                "value": 0.0,
                "norm_class_idx": 0,
                "splits": [
                  {
                    "var": 96,
                    "quality": 3.2315997314453125e+02,
                    "le": 7.6598606109619141e+00
                  }
                ]
              },
              {
                "depth": 2,
                "value": 0.0,
                "norm_class_idx": 0,
                "splits": [
                  {
                    "var": 72,
                    "quality": 2.4333187866210938e+02,
                    "le": 4.2812948226928711e+00
                  }
                ]
              },
              {
                "depth": 3,
                "value": 0.0,
                "norm_class_idx": 0,
                "splits": [
                  {
                    "var": 22,
                    "quality": 2.2856175231933594e+02,
                    "le": 1.2456792593002319e+00
                  }
                ]
              },
              {
                "depth": 4,
                "value": 0.0,
                "norm_class_idx": 0,
                "splits": [
                  {
                    "var": 48,
                    "quality": 2.3274308776855469e+02,
                    "le": 6.5866909027099609e+00
                  }
                ]
              },
              {
                "depth": 5,
                "value": 1.0,
                "norm_class_idx": 1,
                "splits": [
                  {
                    "var": 108,
                    "quality": 1.5199999809265137e+01,
                    "le": 1.5889505386352539e+01
                  }
                ]
              },
              {
                "depth": 6,
                "value": 1.0,
                "norm_class_idx": 1
              },
              {
                "depth": 6,
                "value": 0.0,
                "norm_class_idx": 0
              },
              {
                "depth": 5,
                "value": 0.0,
                "norm_class_idx": 0,
                "splits": [
                  {
                    "var": 92,
                    "quality": 2.2674458312988281e+02,
                    "le": 1.0721632003784180e+01
                  }
                ]
              },
              {
                "depth": 6,
                "value": 0.0,
                "norm_class_idx": 0,
                "splits": [
                  {
                    "var": 21,
                    "quality": 2.2703479003906250e+02,
                    "le": 7.5539380311965942e-01
                  }
                ]
              },
              {
                "depth": 7,
                "value": 1.0,
                "norm_class_idx": 1
              },
              {
                "depth": 7,
                "value": 0.0,
                "norm_class_idx": 0,
                "splits": [
                  {
                    "var": 85,
                    "quality": 2.2650000000000000e+02,
                    "le": 6.1830294132232666e-01
                  }
                ]
              },
              {
                "depth": 8,
                "value": 0.0,
                "norm_class_idx": 0,
                "splits": [
                  {
                    "var": 17,
                    "quality": 16.0,
                    "le": 5.0963521003723145e-02
                  }
                ]
              },
              {
                "depth": 9,
                "value": 1.0,
                "norm_class_idx": 1
              },
              {
                "depth": 9,
                "value": 0.0,
                "norm_class_idx": 0
              },
              {
                "depth": 8,
                "value": 0.0,
                "norm_class_idx": 0
              },
              {
                "depth": 6,
                "value": 1.0,
                "norm_class_idx": 1
              },
              {
                "depth": 4,
                "value": 1.0,
                "norm_class_idx": 1
              },
              {
                "depth": 3,
                "value": 0.0,
                "norm_class_idx": 0,
                "splits": [
                  {
                    "var": 19,
                    "quality": 3.1625616073608398e+01,
                    "le": 7.9400733947753906e+01
                  }
                ]
              },
              {
                "depth": 4,
                "value": 1.0,
                "norm_class_idx": 1,
                "splits": [
                  {
                    "var": 143,
                    "quality": 14.0,
                    "le": 1.0137703418731689e+00
                  }
                ]
              },
              {
                "depth": 5,
                "value": 1.0,
                "norm_class_idx": 1
              },
              {
                "depth": 5,
                "value": 0.0,
                "norm_class_idx": 0
              },
              {
                "depth": 4,
                "value": 0.0,
                "norm_class_idx": 0,
                "splits": [
                  {
                    "var": 63,
                    "quality": 2.5319999694824219e+01,
                    "le": 4.2626495361328125e+01
                  }
                ]
              },
              {
                "depth": 5,
                "value": 0.0,
                "norm_class_idx": 0,
                "splits": [
                  {
                    "var": 68,
                    "quality": 2.3666666030883789e+01,
                    "le": 9.5043933391571045e-01
                  }
                ]
              },
              {
                "depth": 6,
                "value": 0.0,
                "norm_class_idx": 0
              },
              {
                "depth": 6,
                "value": 1.0,
                "norm_class_idx": 1
              },
              {
                "depth": 5,
                "value": 1.0,
                "norm_class_idx": 1
              },
              {
                "depth": 2,
                "value": 0.0,
                "norm_class_idx": 0,
                "splits": [
                  {
                    "var": 100,
                    "quality": 1.2992773437500000e+02,
                    "le": 6.4977054595947266e+00
                  }
                ]
              },
              {
                "depth": 3,
                "value": 1.0,
                "norm_class_idx": 1,
                "splits": [
                  {
                    "var": 147,
                    "quality": 7.4604553222656250e+01,
                    "le": 3.3016696572303772e-01
                  }
                ]
              },
              {
                "depth": 4,
                "value": 1.0,
                "norm_class_idx": 1,
                "splits": [
                  {
                    "var": 66,
                    "quality": 6.6690834045410156e+01,
                    "le": 1.2825000000000000e+02
                  }
                ]
              },
              {
                "depth": 5,
                "value": 1.0,
                "norm_class_idx": 1,
                "splits": [
                  {
                    "var": 35,
                    "quality": 6.4333335876464844e+01,
                    "le": 1.6410865783691406e+00
                  }
                ]
              },
              {
                "depth": 6,
                "value": 1.0,
                "norm_class_idx": 1
              },
              {
                "depth": 6,
                "value": 1.0,
                "norm_class_idx": 1
              },
              {
                "depth": 5,
                "value": 0.0,
                "norm_class_idx": 0
              },
              {
                "depth": 4,
                "value": 0.0,
                "norm_class_idx": 0,
                "splits": [
                  {
                    "var": 113,
                    "quality": 19.0,
                    "le": 7.9511880874633789e-01
                  }
                ]
              },
              {
                "depth": 5,
                "value": 0.0,
                "norm_class_idx": 0
              },
              {
                "depth": 5,
                "value": 1.0,
                "norm_class_idx": 1
              },
              {
                "depth": 3,
                "value": 0.0,
                "norm_class_idx": 0,
                "splits": [
                  {
                    "var": 145,
                    "quality": 7.3288887023925781e+01,
                    "le": 4.3222406506538391e-01
                  }
                ]
              },
              {
                "depth": 4,
                "value": 0.0,
                "norm_class_idx": 0,
                "splits": [
                  {
                    "var": 40,
                    "quality": 7.7360000610351562e+01,
                    "le": 3.1067943572998047e+00
                  }
                ]
              },
              {
                "depth": 5,
                "value": 0.0,
                "norm_class_idx": 0,
                "splits": [
                  {
                    "var": 33,
                    "quality": 75.0,
                    "le": 7.0898900032043457e+00
                  }
                ]
              },
              {
                "depth": 6,
                "value": 0.0,
                "norm_class_idx": 0
              },
              {
                "depth": 6,
                "value": 1.0,
                "norm_class_idx": 1
              },
              {
                "depth": 5,
                "value": 1.0,
                "norm_class_idx": 1
              },
              {
                "depth": 4,
                "value": 1.0,
                "norm_class_idx": 1
              }
            ]
          },
          {
            "nodes": [
              {
                "depth": 0,
                "value": 1.0,
                "norm_class_idx": 1,
                "splits": [
                  {
                    "var": 46,
                    "quality": 6.6825952148437500e+02,
                    "le": 4.5009450912475586e+00
                  }
                ]
              },
              {
                "depth": 1,
                "value": 0.0,
                "norm_class_idx": 0,
                "splits": [
                  {
                    "var": 55,
                    "quality": 3.3037579345703125e+02,
                    "le": 4.9197505950927734e+01
                  }
                ]
              },
              {
                "depth": 2,
                "value": 0.0,
                "norm_class_idx": 0,
                "splits": [
                  {
                    "var": 152,
                    "quality": 1.0242817687988281e+02,
                    "le": 3.2577773928642273e-01
                  }
                ]
              },
              {
                "depth": 3,
                "value": 0.0,
                "norm_class_idx": 0,
                "splits": [
                  {
                    "var": 33,
                    "quality": 8.8097564697265625e+01,
                    "le": 3.7068834304809570e+00
                  }
                ]
              },
              {
                "depth": 4,
                "value": 0.0,
                "norm_class_idx": 0,
                "splits": [
                  {
                    "var": 37,
                    "quality": 82.0,
                    "le": 8.5664038085937500e+02
                  }
                ]
              },
              {
                "depth": 5,
                "value": 0.0,
                "norm_class_idx": 0
              },
              {
                "depth": 5,
                "value": 1.0,
                "norm_class_idx": 1
              },
              {
                "depth": 4,
                "value": 0.0,
                "norm_class_idx": 0,
                "splits": [
                  {
                    "var": 109,
                    "quality": 1.8181818008422852e+01,
                    "le": 3.9683504104614258e+00
                  }
                ]
              },
              {
                "depth": 5,
                "value": 0.0,
                "norm_class_idx": 0,
                "splits": [
                  {
                    "var": 19,
                    "quality": 11.0,
                    "le": 1.3368377685546875e+02
                  }
                ]
              },
              {
                "depth": 6,
                "value": 0.0,
                "norm_class_idx": 0
              },
              {
                "depth": 6,
                "value": 1.0,
                "norm_class_idx": 1
              },
              {
                "depth": 5,
                "value": 1.0,
                "norm_class_idx": 1
              },
              {
                "depth": 3,
                "value": 1.0,
                "norm_class_idx": 1,
                "splits": [
                  {
                    "var": 20,
                    "quality": 3.4171051025390625e+01,
                    "le": 4.7147673368453979e-01
                  }
                ]
              },
              {
                "depth": 4,
                "value": 0.0,
                "norm_class_idx": 0,
                "splits": [
                  {
                    "var": 90,
                    "quality": 1.7111110687255859e+01,
                    "le": 2.1836311340332031e+01
                  }
                ]
              },
              {
                "depth": 5,
                "value": 0.0,
                "norm_class_idx": 0,
                "splits": [
                  {
                    "var": 84,
                    "quality": 18.0,
                    "le": 6.8838939666748047e+00
                  }
                ]
              },
              {
                "depth": 6,
                "value": 0.0,
                "norm_class_idx": 0
              },
              {
                "depth": 6,
                "value": 1.0,
                "norm_class_idx": 1
              },
              {
                "depth": 5,
                "value": 1.0,
                "norm_class_idx": 1
              },
              {
                "depth": 4,
                "value": 1.0,
                "norm_class_idx": 1,
                "splits": [
                  {
                    "var": 98,
                    "quality": 24.0,
                    "le": 1.0544586181640625e+01
                  }
                ]
              },
              {
                "depth": 5,
                "value": 0.0,
                "norm_class_idx": 0
              },
              {
                "depth": 5,
                "value": 1.0,
                "norm_class_idx": 1
              },
              {
                "depth": 2,
                "value": 0.0,
                "norm_class_idx": 0,
                "splits": [
                  {
                    "var": 48,
                    "quality": 2.5712548828125000e+02,
                    "le": 5.8601260185241699e+00
                  }
                ]
              },
              {
                "depth": 3,
                "value": 1.0,
                "norm_class_idx": 1
              },
              {
                "depth": 3,
                "value": 0.0,
                "norm_class_idx": 0,
                "splits": [
                  {
                    "var": 101,
                    "quality": 2.4900813293457031e+02,
                    "le": 7.3485493659973145e+00
                  }
                ]
              },
              {
                "depth": 4,
                "value": 0.0,
                "norm_class_idx": 0,
                "splits": [
                  {
                    "var": 73,
                    "quality": 245.0,
                    "le": 6.5639405250549316e+00
                  }
                ]
              },
              {
                "depth": 5,
                "value": 0.0,
                "norm_class_idx": 0
              },
              {
                "depth": 5,
                "value": 0.0,
                "norm_class_idx": 0
              },
              {
                "depth": 4,
                "value": 0.0,
                "norm_class_idx": 0
              },
              {
                "depth": 1,
                "value": 1.0,
                "norm_class_idx": 1,
                "splits": [
                  {
                    "var": 143,
                    "quality": 3.6840274047851562e+02,
                    "le": 5.1699426025152206e-02
                  }
                ]
              },
              {
                "depth": 2,
                "value": 1.0,
                "norm_class_idx": 1,
                "splits": [
                  {
                    "var": 38,
                    "quality": 3.3643624877929688e+02,
                    "le": 8.2542532682418823e-01
                  }
                ]
              },
              {
                "depth": 3,
                "value": 1.0,
                "norm_class_idx": 1
              },
              {
                "depth": 3,
                "value": 1.0,
                "norm_class_idx": 1,
                "splits": [
                  {
                    "var": 138,
                    "quality": 1.2286347198486328e+02,
                    "le": 1.9658643722534180e+01
                  }
                ]
              },
              {
                "depth": 4,
                "value": 1.0,
                "norm_class_idx": 1,
                "splits": [
                  {
                    "var": 44,
                    "quality": 7.9025001525878906e+01,
                    "le": 2.8270359039306641e+00
                  }
                ]
              },
              {
                "depth": 5,
                "value": 1.0,
                "norm_class_idx": 1,
                "splits": [
                  {
                    "var": 57,
                    "quality": 7.8250000000000000e+01,
                    "le": 5.9422796964645386e-01
                  }
                ]
              },
              {
                "depth": 6,
                "value": 1.0,
                "norm_class_idx": 1
              },
              {
                "depth": 6,
                "value": 1.0,
                "norm_class_idx": 1
              },
              {
                "depth": 5,
                "value": 0.0,
                "norm_class_idx": 0
              },
              {
                "depth": 4,
                "value": 1.0,
                "norm_class_idx": 1,
                "splits": [
                  {
                    "var": 49,
                    "quality": 5.4064517974853516e+01,
                    "le": 6.4969592285156250e+02
                  }
                ]
              },
              {
                "depth": 5,
                "value": 1.0,
                "norm_class_idx": 1,
                "splits": [
                  {
                    "var": 18,
                    "quality": 5.1489898681640625e+01,
                    "le": 4.6301874518394470e-01
                  }
                ]
              },
              {
                "depth": 6,
                "value": 1.0,
                "norm_class_idx": 1,
                "splits": [
                  {
                    "var": 117,
                    "quality": 43.0,
                    "le": 3.6824767012149096e-03
                  }
                ]
              },
              {
                "depth": 7,
                "value": 0.0,
                "norm_class_idx": 0
              },
              {
                "depth": 7,
                "value": 1.0,
                "norm_class_idx": 1
              },
              {
                "depth": 6,
                "value": 1.0,
                "norm_class_idx": 1,
                "splits": [
                  {
                    "var": 144,
                    "quality": 18.0,
                    "le": 5.8136045932769775e-01
                  }
                ]
              },
              {
                "depth": 7,
                "value": 1.0,
                "norm_class_idx": 1
              },
              {
                "depth": 7,
                "value": 0.0,
                "norm_class_idx": 0
              },
              {
                "depth": 5,
                "value": 0.0,
                "norm_class_idx": 0
              },
              {
                "depth": 2,
                "value": 0.0,
                "norm_class_idx": 0,
                "splits": [
                  {
                    "var": 92,
                    "quality": 4.8235294342041016e+01,
                    "le": 8.6289148330688477e+00
                  }
                ]
              },
              {
                "depth": 3,
                "value": 0.0,
                "norm_class_idx": 0,
                "splits": [
                  {
                    "var": 120,
                    "quality": 34.0,
                    "le": 5.1833021640777588e-01
                  }
                ]
              },
              {
                "depth": 4,
                "value": 1.0,
                "norm_class_idx": 1
              },
              {
                "depth": 4,
                "value": 0.0,
                "norm_class_idx": 0
              },
              {
                "depth": 3,
                "value": 1.0,
                "norm_class_idx": 1,
                "splits": [
                  {
                    "var": 108,
                    "quality": 2.8580644607543945e+01,
                    "le": 2.1282201766967773e+01
                  }
                ]
              },
              {
                "depth": 4,
                "value": 1.0,
                "norm_class_idx": 1,
                "splits": [
                  {
                    "var": 57,
                    "quality": 2.9068965911865234e+01,
                    "le": 4.0114867687225342e-01
                  }
                ]
              },
              {
                "depth": 5,
                "value": 0.0,
                "norm_class_idx": 0
              },
              {
                "depth": 5,
                "value": 1.0,
                "norm_class_idx": 1,
                "splits": [
                  {
                    "var": 73,
                    "quality": 28.0,
                    "le": 1.7353777885437012e+00
                  }
                ]
              },
              {
                "depth": 6,
                "value": 0.0,
                "norm_class_idx": 0
              },
              {
                "depth": 6,
                "value": 1.0,
                "norm_class_idx": 1
              },
              {
                "depth": 4,
                "value": 0.0,
                "norm_class_idx": 0
              }
            ]
          },
          {
            "nodes": [
              {
                "depth": 0,
                "value": 1.0,
                "norm_class_idx": 1,
                "splits": [
                  {
                    "var": 48,
                    "quality": 7.5874017333984375e+02,
                    "le": 6.4754543304443359e+00
                  }
                ]
              },
              {
                "depth": 1,
                "value": 1.0,
                "norm_class_idx": 1,
                "splits": [
                  {
                    "var": 42,
                    "quality": 4.4535369873046875e+02,
                    "le": 5.9206929206848145e+00
                  }
                ]
              },
              {
                "depth": 2,
                "value": 0.0,
                "norm_class_idx": 0
              },
              {
                "depth": 2,
                "value": 1.0,
                "norm_class_idx": 1,
                "splits": [
                  {
                    "var": 51,
                    "quality": 4.4140869140625000e+02,
                    "le": 6.8565869331359863e+00
                  }
                ]
              },
              {
                "depth": 3,
                "value": 1.0,
                "norm_class_idx": 1
              },
              {
                "depth": 3,
                "value": 1.0,
                "norm_class_idx": 1,
                "splits": [
                  {
                    "var": 149,
                    "quality": 1.0186725616455078e+02,
                    "le": 1.3899791240692139e+00
                  }
                ]
              },
              {
                "depth": 4,
                "value": 0.0,
                "norm_class_idx": 0
              },
              {
                "depth": 4,
                "value": 1.0,
                "norm_class_idx": 1,
                "splits": [
                  {
                    "var": 130,
                    "quality": 1.0126280212402344e+02,
                    "le": 3.0863409042358398e+00
                  }
                ]
              },
              {
                "depth": 5,
                "value": 1.0,
                "norm_class_idx": 1,
                "splits": [
                  {
                    "var": 144,
                    "quality": 1.8555555343627930e+01,
                    "le": 5.3933179378509521e-01
                  }
                ]
              },
              {
                "depth": 6,
                "value": 1.0,
                "norm_class_idx": 1
              },
              {
                "depth": 6,
                "value": 0.0,
                "norm_class_idx": 0
              },
              {
                "depth": 5,
                "value": 1.0,
                "norm_class_idx": 1,
                "splits": [
                  {
                    "var": 97,
                    "quality": 8.8022468566894531e+01,
                    "le": 1.7039983272552490e+00
                  }
                ]
              },
              {
                "depth": 6,
                "value": 0.0,
                "norm_class_idx": 0
              },
              {
                "depth": 6,
                "value": 1.0,
                "norm_class_idx": 1,
                "splits": [
                  {
                    "var": 123,
                    "quality": 88.0,
                    "le": 2.5380647182464600e-01
                  }
                ]
              },
              {
                "depth": 7,
                "value": 1.0,
                "norm_class_idx": 1
              },
              {
                "depth": 7,
                "value": 0.0,
                "norm_class_idx": 0
              },
              {
                "depth": 1,
                "value": 0.0,
                "norm_class_idx": 0,
                "splits": [
                  {
                    "var": 132,
                    "quality": 3.3186065673828125e+02,
                    "le": 8.7654819488525391e+00
                  }
                ]
              },
              {
                "depth": 2,
                "value": 0.0,
                "norm_class_idx": 0,
                "splits": [
                  {
                    "var": 37,
                    "quality": 2.9867703247070312e+02,
                    "le": 1.4028077392578125e+03
                  }
                ]
              },
              {
                "depth": 3,
                "value": 0.0,
                "norm_class_idx": 0,
                "splits": [
                  {
                    "var": 20,
                    "quality": 2.9702676391601562e+02,
                    "le": 1.9523361325263977e-01
                  }
                ]
              },
              {
                "depth": 4,
                "value": 0.0,
                "norm_class_idx": 0
              },
              {
                "depth": 4,
                "value": 0.0,
                "norm_class_idx": 0,
                "splits": [
                  {
                    "var": 49,
                    "quality": 299.0,
                    "le": 4.0291305541992188e+02
                  }
                ]
              },
              {
                "depth": 5,
                "value": 1.0,
                "norm_class_idx": 1
              },
              {
                "depth": 5,
                "value": 0.0,
                "norm_class_idx": 0
              },
              {
                "depth": 3,
                "value": 1.0,
                "norm_class_idx": 1
              },
              {
                "depth": 2,
                "value": 0.0,
                "norm_class_idx": 0,
                "splits": [
                  {
                    "var": 37,
                    "quality": 5.0009803771972656e+01,
                    "le": 1.6679790039062500e+03
                  }
                ]
              },
              {
                "depth": 3,
                "value": 0.0,
                "norm_class_idx": 0,
                "splits": [
                  {
                    "var": 100,
                    "quality": 4.3733333587646484e+01,
                    "le": 7.5433244705200195e+00
                  }
                ]
              },
              {
                "depth": 4,
                "value": 1.0,
                "norm_class_idx": 1
              },
              {
                "depth": 4,
                "value": 0.0,
                "norm_class_idx": 0,
                "splits": [
                  {
                    "var": 105,
                    "quality": 4.1181819915771484e+01,
                    "le": 4.8842993378639221e-01
                  }
                ]
              },
              {
                "depth": 5,
                "value": 0.0,
                "norm_class_idx": 0,
                "splits": [
                  {
                    "var": 81,
                    "quality": 4.1142856597900391e+01,
                    "le": 1.2823070287704468e+00
                  }
                ]
              },
              {
                "depth": 6,
                "value": 0.0,
                "norm_class_idx": 0
              },
              {
                "depth": 6,
                "value": 0.0,
                "norm_class_idx": 0
              },
              {
                "depth": 5,
                "value": 1.0,
                "norm_class_idx": 1
              },
              {
                "depth": 3,
                "value": 1.0,
                "norm_class_idx": 1,
                "splits": [
                  {
                    "var": 145,
                    "quality": 1.4666666984558105e+01,
                    "le": 1.5190504491329193e-01
                  }
                ]
              },
              {
                "depth": 4,
                "value": 0.0,
                "norm_class_idx": 0
              },
              {
                "depth": 4,
                "value": 1.0,
                "norm_class_idx": 1
              }
            ]
          },
          {
            "nodes": [
              {
                "depth": 0,
                "value": 1.0,
                "norm_class_idx": 1,
                "splits": [
                  {
                    "var": 52,
                    "quality": 7.2511541748046875e+02,
                    "le": 1.5411460399627686e+00
                  }
                ]
              },
              {
                "depth": 1,
                "value": 1.0,
                "norm_class_idx": 1,
                "splits": [
                  {
                    "var": 52,
                    "quality": 4.1694085693359375e+02,
                    "le": 9.1857939958572388e-02
                  }
                ]
              },
              {
                "depth": 2,
                "value": 1.0,
                "norm_class_idx": 1,
                "splits": [
                  {
                    "var": 96,
                    "quality": 3.4827145385742188e+02,
                    "le": 5.2484068870544434e+00
                  }
                ]
              },
              {
                "depth": 3,
                "value": 0.0,
                "norm_class_idx": 0
              },
              {
                "depth": 3,
                "value": 1.0,
                "norm_class_idx": 1,
                "splits": [
                  {
                    "var": 101,
                    "quality": 3.4820056152343750e+02,
                    "le": 6.7952480316162109e+00
                  }
                ]
              },
              {
                "depth": 4,
                "value": 1.0,
                "norm_class_idx": 1,
                "splits": [
                  {
                    "var": 42,
                    "quality": 3.4779119873046875e+02,
                    "le": 1.0818223953247070e+01
                  }
                ]
              },
              {
                "depth": 5,
                "value": 1.0,
                "norm_class_idx": 1,
                "splits": [
                  {
                    "var": 55,
                    "quality": 8.3666664123535156e+01,
                    "le": 1.1974894714355469e+02
                  }
                ]
              },
              {
                "depth": 6,
                "value": 1.0,
                "norm_class_idx": 1,
                "splits": [
                  {
                    "var": 58,
                    "quality": 8.0691360473632812e+01,
                    "le": 1.0943938046693802e-01
                  }
                ]
              },
              {
                "depth": 7,
                "value": 1.0,
                "norm_class_idx": 1
              },
              {
                "depth": 7,
                "value": 1.0,
                "norm_class_idx": 1,
                "splits": [
                  {
                    "var": 56,
                    "quality": 7.9250000000000000e+01,
                    "le": 1.4680549502372742e-01
                  }
                ]
              },
              {
                "depth": 8,
                "value": 1.0,
                "norm_class_idx": 1
              },
              {
                "depth": 8,
                "value": 1.0,
                "norm_class_idx": 1
              },
              {
                "depth": 6,
                "value": 0.0,
                "norm_class_idx": 0
              },
              {
                "depth": 5,
                "value": 1.0,
                "norm_class_idx": 1
              },
              {
                "depth": 4,
                "value": 0.0,
                "norm_class_idx": 0
              },
              {
                "depth": 2,
                "value": 1.0,
                "norm_class_idx": 1,
                "splits": [
                  {
                    "var": 135,
                    "quality": 8.4891990661621094e+01,
                    "le": 2.8458425402641296e-01
                  }
                ]
              },
              {
                "depth": 3,
                "value": 0.0,
                "norm_class_idx": 0,
                "splits": [
                  {
                    "var": 19,
                    "quality": 16.0,
                    "le": 4.1734945774078369e-01
                  }
                ]
              },
              {
                "depth": 4,
                "value": 1.0,
                "norm_class_idx": 1
              },
              {
                "depth": 4,
                "value": 0.0,
                "norm_class_idx": 0
              },
              {
                "depth": 3,
                "value": 1.0,
                "norm_class_idx": 1,
                "splits": [
                  {
                    "var": 4,
                    "quality": 7.6620254516601562e+01,
                    "le": 5.2976808547973633e+00
                  }
                ]
              },
              {
                "depth": 4,
                "value": 1.0,
                "norm_class_idx": 1,
                "splits": [
                  {
                    "var": 142,
                    "quality": 6.7935066223144531e+01,
                    "le": 2.4944950103759766e+01
                  }
                ]
              },
              {
                "depth": 5,
                "value": 1.0,
                "norm_class_idx": 1,
                "splits": [
                  {
                    "var": 43,
                    "quality": 6.9426666259765625e+01,
                    "le": 1.7402792968750000e+03
                  }
                ]
              },
              {
                "depth": 6,
                "value": 1.0,
                "norm_class_idx": 1,
                "splits": [
                  {
                    "var": 8,
                    "quality": 7.1109588623046875e+01,
                    "le": 5.5325257778167725e-01
                  }
                ]
              },
              {
                "depth": 7,
                "value": 0.0,
                "norm_class_idx": 0
              },
              {
                "depth": 7,
                "value": 1.0,
                "norm_class_idx": 1,
                "splits": [
                  {
                    "var": 138,
                    "quality": 73.0,
                    "le": 2.8379020690917969e+01
                  }
                ]
              },
              {
                "depth": 8,
                "value": 1.0,
                "norm_class_idx": 1
              },
              {
                "depth": 8,
                "value": 0.0,
                "norm_class_idx": 0
              },
              {
                "depth": 6,
                "value": 0.0,
                "norm_class_idx": 0
              },
              {
                "depth": 5,
                "value": 0.0,
                "norm_class_idx": 0
              },
              {
                "depth": 4,
                "value": 0.0,
                "norm_class_idx": 0,
                "splits": [
                  {
                    "var": 47,
                    "quality": 16.0,
                    "le": 6.4660763740539551e+00
                  }
                ]
              },
              {
                "depth": 5,
                "value": 1.0,
                "norm_class_idx": 1
              },
              {
                "depth": 5,
                "value": 0.0,
                "norm_class_idx": 0,
                "splits": [
                  {
                    "var": 97,
                    "quality": 1.4571428298950195e+01,
                    "le": 4.0968537330627441e+00
                  }
                ]
              },
              {
                "depth": 6,
                "value": 0.0,
                "norm_class_idx": 0,
                "splits": [
                  {
                    "var": 97,
                    "quality": 14.0,
                    "le": 1.9561377763748169e+00
                  }
                ]
              },
              {
                "depth": 7,
                "value": 1.0,
                "norm_class_idx": 1
              },
              {
                "depth": 7,
                "value": 0.0,
                "norm_class_idx": 0
              },
              {
                "depth": 6,
                "value": 1.0,
                "norm_class_idx": 1
              },
              {
                "depth": 1,
                "value": 0.0,
                "norm_class_idx": 0,
                "splits": [
                  {
                    "var": 106,
                    "quality": 3.2431741333007812e+02,
                    "le": 6.8141013383865356e-01
                  }
