{
  "object_classifier_type": "OpenCVMLClassifier",
  "featureExtractor": {
    "feature_extractor_type": "DefaultFeatureExtractor",
    "measurements": [
      "Nucleus: Area",
      "Nucleus: Perimeter",
      "Nucleus: Circularity",
      "Nucleus: Max caliper",
      "Nucleus: Min caliper",
      "Nucleus: Eccentricity",
      "Nucleus: DAPI mean",
      "Nucleus: DAPI sum",
      "Nucleus: DAPI std dev",
      "Nucleus: DAPI max",
      "Nucleus: DAPI min",
      "Nucleus: DAPI range",
      "Nucleus: Opal 480 mean",
      "Nucleus: Opal 480 sum",
      "Nucleus: Opal 480 std dev",
      "Nucleus: Opal 480 max",
      "Nucleus: Opal 480 min",
      "Nucleus: Opal 480 range",
      "Nucleus: Opal 520 mean",
      "Nucleus: Opal 520 sum",
      "Nucleus: Opal 520 std dev",
      "Nucleus: Opal 520 max",
      "Nucleus: Opal 520 min",
      "Nucleus: Opal 520 range",
      "Nucleus: Opal 540 mean",
      "Nucleus: Opal 540 sum",
      "Nucleus: Opal 540 std dev",
      "Nucleus: Opal 540 max",
      "Nucleus: Opal 540 min",
      "Nucleus: Opal 540 range",
      "Nucleus: Opal 570 mean",
      "Nucleus: Opal 570 sum",
      "Nucleus: Opal 570 std dev",
      "Nucleus: Opal 570 max",
      "Nucleus: Opal 570 min",
      "Nucleus: Opal 570 range",
      "Nucleus: Opal 620 mean",
      "Nucleus: Opal 620 sum",
      "Nucleus: Opal 620 std dev",
      "Nucleus: Opal 620 max",
      "Nucleus: Opal 620 min",
      "Nucleus: Opal 620 range",
      "Nucleus: Opal 650 mean",
      "Nucleus: Opal 650 sum",
      "Nucleus: Opal 650 std dev",
      "Nucleus: Opal 650 max",
      "Nucleus: Opal 650 min",
      "Nucleus: Opal 650 range",
      "Nucleus: Opal 690 mean",
      "Nucleus: Opal 690 sum",
      "Nucleus: Opal 690 std dev",
      "Nucleus: Opal 690 max",
      "Nucleus: Opal 690 min",
      "Nucleus: Opal 690 range",
      "Nucleus: Opal 780 mean",
      "Nucleus: Opal 780 sum",
      "Nucleus: Opal 780 std dev",
      "Nucleus: Opal 780 max",
      "Nucleus: Opal 780 min",
      "Nucleus: Opal 780 range",
      "Nucleus: Autofluorescence mean",
      "Nucleus: Autofluorescence sum",
      "Nucleus: Autofluorescence std dev",
      "Nucleus: Autofluorescence max",
      "Nucleus: Autofluorescence min",
      "Nucleus: Autofluorescence range",
      "Cell: Area",
      "Cell: Perimeter",
      "Cell: Circularity",
      "Cell: Max caliper",
      "Cell: Min caliper",
      "Cell: Eccentricity",
      "Cell: DAPI mean",
      "Cell: DAPI std dev",
      "Cell: DAPI max",
      "Cell: DAPI min",
      "Cell: Opal 480 mean",
      "Cell: Opal 480 std dev",
      "Cell: Opal 480 max",
      "Cell: Opal 480 min",
      "Cell: Opal 520 mean",
      "Cell: Opal 520 std dev",
      "Cell: Opal 520 max",
      "Cell: Opal 520 min",
      "Cell: Opal 540 mean",
      "Cell: Opal 540 std dev",
      "Cell: Opal 540 max",
      "Cell: Opal 540 min",
      "Cell: Opal 570 mean",
      "Cell: Opal 570 std dev",
      "Cell: Opal 570 max",
      "Cell: Opal 570 min",
      "Cell: Opal 620 mean",
      "Cell: Opal 620 std dev",
      "Cell: Opal 620 max",
      "Cell: Opal 620 min",
      "Cell: Opal 650 mean",
      "Cell: Opal 650 std dev",
      "Cell: Opal 650 max",
      "Cell: Opal 650 min",
      "Cell: Opal 690 mean",
      "Cell: Opal 690 std dev",
      "Cell: Opal 690 max",
      "Cell: Opal 690 min",
      "Cell: Opal 780 mean",
      "Cell: Opal 780 std dev",
      "Cell: Opal 780 max",
      "Cell: Opal 780 min",
      "Cell: Autofluorescence mean",
      "Cell: Autofluorescence std dev",
      "Cell: Autofluorescence max",
      "Cell: Autofluorescence min",
      "Cytoplasm: DAPI mean",
      "Cytoplasm: DAPI std dev",
      "Cytoplasm: DAPI max",
      "Cytoplasm: DAPI min",
      "Cytoplasm: Opal 480 mean",
      "Cytoplasm: Opal 480 std dev",
      "Cytoplasm: Opal 480 max",
      "Cytoplasm: Opal 480 min",
      "Cytoplasm: Opal 520 mean",
      "Cytoplasm: Opal 520 std dev",
      "Cytoplasm: Opal 520 max",
      "Cytoplasm: Opal 520 min",
      "Cytoplasm: Opal 540 mean",
      "Cytoplasm: Opal 540 std dev",
      "Cytoplasm: Opal 540 max",
      "Cytoplasm: Opal 540 min",
      "Cytoplasm: Opal 570 mean",
      "Cytoplasm: Opal 570 std dev",
      "Cytoplasm: Opal 570 max",
      "Cytoplasm: Opal 570 min",
      "Cytoplasm: Opal 620 mean",
      "Cytoplasm: Opal 620 std dev",
      "Cytoplasm: Opal 620 max",
      "Cytoplasm: Opal 620 min",
      "Cytoplasm: Opal 650 mean",
      "Cytoplasm: Opal 650 std dev",
      "Cytoplasm: Opal 650 max",
      "Cytoplasm: Opal 650 min",
      "Cytoplasm: Opal 690 mean",
      "Cytoplasm: Opal 690 std dev",
      "Cytoplasm: Opal 690 max",
      "Cytoplasm: Opal 690 min",
      "Cytoplasm: Opal 780 mean",
      "Cytoplasm: Opal 780 std dev",
      "Cytoplasm: Opal 780 max",
      "Cytoplasm: Opal 780 min",
      "Cytoplasm: Autofluorescence mean",
      "Cytoplasm: Autofluorescence std dev",
      "Cytoplasm: Autofluorescence max",
      "Cytoplasm: Autofluorescence min",
      "Nucleus/Cell area ratio"
    ]
  },
  "classifier": {
    "class": "RTrees",
    "statmodel": {
      "opencv_ml_rtrees": {
        "format": 3,
        "is_classifier": 1,
        "var_all": 154,
        "var_count": 153,
        "ord_var_count": 153,
        "cat_var_count": 1,
        "training_params": {
          "use_surrogates": 0,
          "max_categories": 10,
          "regression_accuracy": 0.0,
          "max_depth": 25,
          "min_sample_count": 10,
          "cross_validation_folds": 0,
          "nactive_vars": 0
        },
        "global_var_idx": 1,
        "var_idx": [
          0,
          1,
          2,
          3,
          4,
          5,
          6,
          7,
          8,
          9,
          10,
          11,
          12,
          13,
          14,
          15,
          16,
          17,
          18,
          19,
          20,
          21,
          22,
          23,
          24,
          25,
          26,
          27,
          28,
          29,
          30,
          31,
          32,
          33,
          34,
          35,
          36,
          37,
          38,
          39,
          40,
          41,
          42,
          43,
          44,
          45,
          46,
          47,
          48,
          49,
          50,
          51,
          52,
          53,
          54,
          55,
          56,
          57,
          58,
          59,
          60,
          61,
          62,
          63,
          64,
          65,
          66,
          67,
          68,
          69,
          70,
          71,
          72,
          73,
          74,
          75,
          76,
          77,
          78,
          79,
          80,
          81,
          82,
          83,
          84,
          85,
          86,
          87,
          88,
          89,
          90,
          91,
          92,
          93,
          94,
          95,
          96,
          97,
          98,
          99,
          100,
          101,
          102,
          103,
          104,
          105,
          106,
          107,
          108,
          109,
          110,
          111,
          112,
          113,
          114,
          115,
          116,
          117,
          118,
          119,
          120,
          121,
          122,
          123,
          124,
          125,
          126,
          127,
          128,
          129,
          130,
          131,
          132,
          133,
          134,
          135,
          136,
          137,
          138,
          139,
          140,
          141,
          142,
          143,
          144,
          145,
          146,
          147,
          148,
          149,
          150,
          151,
          152
        ],
        "var_type": [
          0,
          0,
          0,
          0,
          0,
          0,
          0,
          0,
          0,
          0,
          0,
          0,
          0,
          0,
          0,
          0,
          0,
          0,
          0,
          0,
          0,
          0,
          0,
          0,
          0,
          0,
          0,
          0,
          0,
          0,
          0,
          0,
          0,
          0,
          0,
          0,
          0,
          0,
          0,
          0,
          0,
          0,
          0,
          0,
          0,
          0,
          0,
          0,
          0,
          0,
          0,
          0,
          0,
          0,
          0,
          0,
          0,
          0,
          0,
          0,
          0,
          0,
          0,
          0,
          0,
          0,
          0,
          0,
          0,
          0,
          0,
          0,
          0,
          0,
          0,
          0,
          0,
          0,
          0,
          0,
          0,
          0,
          0,
          0,
          0,
          0,
          0,
          0,
          0,
          0,
          0,
          0,
          0,
          0,
          0,
          0,
          0,
          0,
          0,
          0,
          0,
          0,
          0,
          0,
          0,
          0,
          0,
          0,
          0,
          0,
          0,
          0,
          0,
          0,
          0,
          0,
          0,
          0,
          0,
          0,
          0,
          0,
          0,
          0,
          0,
          0,
          0,
          0,
          0,
          0,
          0,
          0,
          0,
          0,
          0,
          0,
          0,
          0,
          0,
          0,
          0,
          0,
          0,
          0,
          0,
          0,
          0,
          0,
          0,
          0,
          0,
          0,
          0,
          1
        ],
        "cat_ofs": [
          0,
          0,
          0,
          0,
          0,
          0,
          0,
          0,
          0,
          0,
          0,
          0,
          0,
          0,
          0,
          0,
          0,
          0,
          0,
          0,
          0,
          0,
          0,
          0,
          0,
          0,
          0,
          0,
          0,
          0,
          0,
          0,
          0,
          0,
          0,
          0,
          0,
          0,
          0,
          0,
          0,
          0,
          0,
          0,
          0,
          0,
          0,
          0,
          0,
          0,
          0,
          0,
          0,
          0,
          0,
          0,
          0,
          0,
          0,
          0,
          0,
          0,
          0,
          0,
          0,
          0,
          0,
          0,
          0,
          0,
          0,
          0,
          0,
          0,
          0,
          0,
          0,
          0,
          0,
          0,
          0,
          0,
          0,
          0,
          0,
          0,
          0,
          0,
          0,
          0,
          0,
          0,
          0,
          0,
          0,
          0,
          0,
          0,
          0,
          0,
          0,
          0,
          0,
          0,
          0,
          0,
          0,
          0,
          0,
          0,
          0,
          0,
          0,
          0,
          0,
          0,
          0,
          0,
          0,
          0,
          0,
          0,
          0,
          0,
          0,
          0,
          0,
          0,
          0,
          0,
          0,
          0,
          0,
          0,
          0,
          0,
          0,
          0,
          0,
          0,
          0,
          0,
          0,
          0,
          0,
          0,
          0,
          0,
          0,
          0,
          0,
          0,
          0,
          0,
          0,
          0,
          0,
          0,
          0,
          0,
          0,
          0,
          0,
          0,
          0,
          0,
          0,
          0,
          0,
          0,
          0,
          0,
          0,
          0,
          0,
          0,
          0,
          0,
          0,
          0,
          0,
          0,
          0,
          0,
          0,
          0,
          0,
          0,
          0,
          0,
          0,
          0,
          0,
          0,
          0,
          0,
          0,
          0,
          0,
          0,
          0,
          0,
          0,
          0,
          0,
          0,
          0,
          0,
          0,
          0,
          0,
          0,
          0,
          0,
          0,
          0,
          0,
          0,
          0,
          0,
          0,
          0,
          0,
          0,
          0,
          0,
          0,
          0,
          0,
          0,
          0,
          0,
          0,
          0,
          0,
          0,
          0,
          0,
          0,
          0,
          0,
          0,
          0,
          0,
          0,
          0,
          0,
          0,
          0,
          0,
          0,
          0,
          0,
          0,
          0,
          0,
          0,
          0,
          0,
          0,
          0,
          0,
          0,
          0,
          0,
          0,
          0,
          0,
          0,
          0,
          0,
          0,
          0,
          0,
          0,
          0,
          0,
          0,
          0,
          0,
          0,
          0,
          0,
          0,
          0,
          0,
          0,
          0,
          0,
          0,
          0,
          0,
          0,
          0,
          0,
          0,
          0,
          0,
          0,
          0,
          0,
          0,
          0,
          0,
          0,
          0
        ],
        "class_labels": [
          0,
          1
        ],
        "missing_subst": [
          0.0,
          0.0,
          0.0,
          0.0,
          0.0,
          0.0,
          0.0,
          0.0,
          0.0,
          0.0,
          0.0,
          0.0,
          0.0,
          0.0,
          0.0,
          0.0,
          0.0,
          0.0,
          0.0,
          0.0,
          0.0,
          0.0,
          0.0,
          0.0,
          0.0,
          0.0,
          0.0,
          0.0,
          0.0,
          0.0,
          0.0,
          0.0,
          0.0,
          0.0,
          0.0,
          0.0,
          0.0,
          0.0,
          0.0,
          0.0,
          0.0,
          0.0,
          0.0,
          0.0,
          0.0,
          0.0,
          0.0,
          0.0,
          0.0,
          0.0,
          0.0,
          0.0,
          0.0,
          0.0,
          0.0,
          0.0,
          0.0,
          0.0,
          0.0,
          0.0,
          0.0,
          0.0,
          0.0,
          0.0,
          0.0,
          0.0,
          0.0,
          0.0,
          0.0,
          0.0,
          0.0,
          0.0,
          0.0,
          0.0,
          0.0,
          0.0,
          0.0,
          0.0,
          0.0,
          0.0,
          0.0,
          0.0,
          0.0,
          0.0,
          0.0,
          0.0,
          0.0,
          0.0,
          0.0,
          0.0,
          0.0,
          0.0,
          0.0,
          0.0,
          0.0,
          0.0,
          0.0,
          0.0,
          0.0,
          0.0,
          0.0,
          0.0,
          0.0,
          0.0,
          0.0,
          0.0,
          0.0,
          0.0,
          0.0,
          0.0,
          0.0,
          0.0,
          0.0,
          0.0,
          0.0,
          0.0,
          0.0,
          0.0,
          0.0,
          0.0,
          0.0,
          0.0,
          0.0,
          0.0,
          0.0,
          0.0,
          0.0,
          0.0,
          0.0,
          0.0,
          0.0,
          0.0,
          0.0,
          0.0,
          0.0,
          0.0,
          0.0,
          0.0,
          0.0,
          0.0,
          0.0,
          0.0,
          0.0,
          0.0,
          0.0,
          0.0,
          0.0,
          0.0,
          0.0,
          0.0,
          0.0,
          0.0,
          0.0,
          0.0
        ],
        "oob_error": 0.0,
        "ntrees": 50,
        "trees": [
          {
            "nodes": [
              {
                "depth": 0,
                "value": 0.0,
                "norm_class_idx": 0,
                "splits": [
                  {
                    "var": 47,
                    "quality": 1.5156281738281250e+03,
                    "le": 9.5439510345458984e+00
                  }
                ]
              },
              {
                "depth": 1,
                "value": 1.0,
                "norm_class_idx": 1,
                "splits": [
                  {
                    "var": 43,
                    "quality": 6.3922033691406250e+02,
                    "le": 1.6709213867187500e+03
                  }
                ]
              },
              {
                "depth": 2,
                "value": 1.0,
                "norm_class_idx": 1,
                "splits": [
                  {
                    "var": 1,
                    "quality": 4.1841244506835938e+02,
                    "le": 1.8082962036132812e+01
                  }
                ]
              },
              {
                "depth": 3,
                "value": 1.0,
                "norm_class_idx": 1,
                "splits": [
                  {
                    "var": 96,
                    "quality": 1.8495732116699219e+02,
                    "le": 1.2717184066772461e+01
                  }
                ]
              },
              {
                "depth": 4,
                "value": 1.0,
                "norm_class_idx": 1,
                "splits": [
                  {
                    "var": 101,
                    "quality": 1.2605149078369141e+02,
                    "le": 1.2395837903022766e-01
                  }
                ]
              },
              {
                "depth": 5,
                "value": 1.0,
                "norm_class_idx": 1,
                "splits": [
                  {
                    "var": 96,
                    "quality": 2.7574073791503906e+01,
                    "le": 1.1809836387634277e+01
                  }
                ]
              },
              {
                "depth": 6,
                "value": 1.0,
                "norm_class_idx": 1,
                "splits": [
                  {
                    "var": 73,
                    "quality": 27.0,
                    "le": 4.1078791618347168e+00
                  }
                ]
              },
              {
                "depth": 7,
                "value": 1.0,
                "norm_class_idx": 1
              },
              {
                "depth": 7,
                "value": 0.0,
                "norm_class_idx": 0
              },
              {
                "depth": 6,
                "value": 0.0,
                "norm_class_idx": 0
              },
              {
                "depth": 5,
                "value": 1.0,
                "norm_class_idx": 1,
                "splits": [
                  {
                    "var": 114,
                    "quality": 1.0209523773193359e+02,
                    "le": 2.4105834960937500e+00
                  }
                ]
              },
              {
                "depth": 6,
                "value": 1.0,
                "norm_class_idx": 1
              },
              {
                "depth": 6,
                "value": 1.0,
                "norm_class_idx": 1,
                "splits": [
                  {
                    "var": 114,
                    "quality": 21.0,
                    "le": 2.4459061622619629e+00
                  }
                ]
              },
              {
                "depth": 7,
                "value": 0.0,
                "norm_class_idx": 0
              },
              {
                "depth": 7,
                "value": 1.0,
                "norm_class_idx": 1
              },
              {
                "depth": 4,
                "value": 0.0,
                "norm_class_idx": 0,
                "splits": [
                  {
                    "var": 87,
                    "quality": 6.5611778259277344e+01,
                    "le": 1.8277154862880707e-01
                  }
                ]
              },
              {
                "depth": 5,
                "value": 0.0,
                "norm_class_idx": 0,
                "splits": [
                  {
                    "var": 45,
                    "quality": 6.6199996948242188e+01,
                    "le": 2.0212686538696289e+01
                  }
                ]
              },
              {
                "depth": 6,
                "value": 0.0,
                "norm_class_idx": 0,
                "splits": [
                  {
                    "var": 110,
                    "quality": 2.2399999618530273e+01,
                    "le": 2.4525074005126953e+01
                  }
                ]
              },
              {
                "depth": 7,
                "value": 0.0,
                "norm_class_idx": 0,
                "splits": [
                  {
                    "var": 146,
                    "quality": 2.1963800430297852e+01,
                    "le": 8.7721627950668335e-01
                  }
                ]
              },
              {
                "depth": 8,
                "value": 0.0,
                "norm_class_idx": 0,
                "splits": [
                  {
                    "var": 70,
                    "quality": 17.0,
                    "le": 8.3532066345214844e+00
                  }
                ]
              },
              {
                "depth": 9,
                "value": 0.0,
                "norm_class_idx": 0
              },
              {
                "depth": 9,
                "value": 1.0,
                "norm_class_idx": 1
              },
              {
                "depth": 8,
                "value": 1.0,
                "norm_class_idx": 1,
                "splits": [
                  {
                    "var": 14,
                    "quality": 8.6363639831542969e+00,
                    "le": 9.7045497968792915e-03
                  }
                ]
              },
              {
                "depth": 9,
                "value": 1.0,
                "norm_class_idx": 1,
                "splits": [
                  {
                    "var": 5,
                    "quality": 9.5000000000000000e+00,
                    "le": 7.0273947715759277e-01
                  }
                ]
              },
              {
                "depth": 10,
                "value": 0.0,
                "norm_class_idx": 0
              },
              {
                "depth": 10,
                "value": 1.0,
                "norm_class_idx": 1
              },
              {
                "depth": 9,
                "value": 0.0,
                "norm_class_idx": 0
              },
              {
                "depth": 7,
                "value": 1.0,
                "norm_class_idx": 1
              },
              {
                "depth": 6,
                "value": 0.0,
                "norm_class_idx": 0
              },
              {
                "depth": 5,
                "value": 1.0,
                "norm_class_idx": 1
              },
              {
                "depth": 3,
                "value": 1.0,
                "norm_class_idx": 1,
                "splits": [
                  {
                    "var": 24,
                    "quality": 2.9631817626953125e+02,
                    "le": 1.3788124546408653e-02
                  }
                ]
              },
              {
                "depth": 4,
                "value": 0.0,
                "norm_class_idx": 0
              },
              {
                "depth": 4,
                "value": 1.0,
                "norm_class_idx": 1,
                "splits": [
                  {
                    "var": 73,
                    "quality": 2.9770559692382812e+02,
                    "le": 7.8509302139282227e+00
                  }
                ]
              },
              {
                "depth": 5,
                "value": 1.0,
                "norm_class_idx": 1,
                "splits": [
                  {
                    "var": 124,
                    "quality": 2.9705960083007812e+02,
                    "le": 9.5109507441520691e-02
                  }
                ]
              },
              {
                "depth": 6,
                "value": 0.0,
                "norm_class_idx": 0
              },
              {
                "depth": 6,
                "value": 1.0,
                "norm_class_idx": 1,
                "splits": [
                  {
                    "var": 45,
                    "quality": 2.9658065795898438e+02,
                    "le": 1.6259426116943359e+01
                  }
                ]
              },
              {
                "depth": 7,
                "value": 1.0,
                "norm_class_idx": 1
              },
              {
                "depth": 7,
                "value": 1.0,
                "norm_class_idx": 1,
                "splits": [
                  {
                    "var": 45,
                    "quality": 2.7266666412353516e+01,
                    "le": 1.6295864105224609e+01
                  }
                ]
              },
              {
                "depth": 8,
                "value": 0.0,
                "norm_class_idx": 0
              },
              {
                "depth": 8,
                "value": 1.0,
                "norm_class_idx": 1,
                "splits": [
                  {
                    "var": 126,
                    "quality": 2.8068965911865234e+01,
                    "le": 4.2858071327209473e+00
                  }
                ]
              },
              {
                "depth": 9,
                "value": 0.0,
                "norm_class_idx": 0
              },
              {
                "depth": 9,
                "value": 1.0,
                "norm_class_idx": 1,
                "splits": [
                  {
                    "var": 135,
                    "quality": 29.0,
                    "le": 1.8583746254444122e-01
                  }
                ]
              },
              {
                "depth": 10,
                "value": 0.0,
                "norm_class_idx": 0
              },
              {
                "depth": 10,
                "value": 1.0,
                "norm_class_idx": 1
              },
              {
                "depth": 5,
                "value": 0.0,
                "norm_class_idx": 0
              },
              {
                "depth": 2,
                "value": 0.0,
                "norm_class_idx": 0,
                "splits": [
                  {
                    "var": 46,
                    "quality": 2.9802279663085938e+02,
                    "le": 1.1457075119018555e+01
                  }
                ]
              },
              {
                "depth": 3,
                "value": 1.0,
                "norm_class_idx": 1,
                "splits": [
                  {
                    "var": 124,
                    "quality": 1.0463515472412109e+02,
                    "le": 3.3907756805419922e+00
                  }
                ]
              },
              {
                "depth": 4,
                "value": 0.0,
                "norm_class_idx": 0,
                "splits": [
                  {
                    "var": 23,
                    "quality": 6.1692790985107422e+01,
                    "le": 6.1082625389099121e-01
                  }
                ]
              },
              {
                "depth": 5,
                "value": 1.0,
                "norm_class_idx": 1,
                "splits": [
                  {
                    "var": 33,
                    "quality": 2.7636363983154297e+01,
                    "le": 2.3215842247009277e+00
                  }
                ]
              },
              {
                "depth": 6,
                "value": 0.0,
                "norm_class_idx": 0,
                "splits": [
                  {
                    "var": 98,
                    "quality": 2.6183822631835938e+01,
                    "le": 1.7760322570800781e+01
                  }
                ]
              },
              {
                "depth": 7,
                "value": 1.0,
                "norm_class_idx": 1,
                "splits": [
                  {
                    "var": 113,
                    "quality": 17.0,
                    "le": 3.8442140817642212e-01
                  }
                ]
              },
              {
                "depth": 8,
                "value": 0.0,
                "norm_class_idx": 0
              },
              {
                "depth": 8,
                "value": 1.0,
                "norm_class_idx": 1
              },
              {
                "depth": 7,
                "value": 0.0,
                "norm_class_idx": 0,
                "splits": [
                  {
                    "var": 114,
                    "quality": 16.0,
                    "le": 1.3974630832672119e+00
                  }
                ]
              },
              {
                "depth": 8,
                "value": 1.0,
                "norm_class_idx": 1
              },
              {
                "depth": 8,
                "value": 0.0,
                "norm_class_idx": 0
              },
              {
                "depth": 6,
                "value": 1.0,
                "norm_class_idx": 1
              },
              {
                "depth": 5,
                "value": 0.0,
                "norm_class_idx": 0,
                "splits": [
                  {
                    "var": 32,
                    "quality": 4.1571430206298828e+01,
                    "le": 1.5995703935623169e+00
                  }
                ]
              },
              {
                "depth": 6,
                "value": 0.0,
                "norm_class_idx": 0,
                "splits": [
                  {
                    "var": 113,
                    "quality": 4.2370368957519531e+01,
                    "le": 2.0784637331962585e-01
                  }
                ]
              },
              {
                "depth": 7,
                "value": 1.0,
                "norm_class_idx": 1
              },
              {
                "depth": 7,
                "value": 0.0,
                "norm_class_idx": 0,
                "splits": [
                  {
                    "var": 18,
                    "quality": 4.2129032135009766e+01,
                    "le": 1.4589837193489075e-01
                  }
                ]
              },
              {
                "depth": 8,
                "value": 0.0,
                "norm_class_idx": 0,
                "splits": [
                  {
                    "var": 93,
                    "quality": 2.1482759475708008e+01,
                    "le": 2.3569038510322571e-01
                  }
                ]
              },
              {
                "depth": 9,
                "value": 1.0,
                "norm_class_idx": 1
              },
              {
                "depth": 9,
                "value": 0.0,
                "norm_class_idx": 0,
                "splits": [
                  {
                    "var": 9,
                    "quality": 2.2185184478759766e+01,
                    "le": 2.0780891418457031e+01
                  }
                ]
              },
              {
                "depth": 10,
                "value": 0.0,
                "norm_class_idx": 0,
                "splits": [
                  {
                    "var": 68,
                    "quality": 2.2200000762939453e+01,
                    "le": 9.3022918701171875e-01
                  }
                ]
              },
              {
                "depth": 11,
                "value": 0.0,
                "norm_class_idx": 0
              },
              {
                "depth": 11,
                "value": 0.0,
                "norm_class_idx": 0
              },
              {
                "depth": 10,
                "value": 1.0,
                "norm_class_idx": 1
              },
              {
                "depth": 8,
                "value": 0.0,
                "norm_class_idx": 0
              },
              {
                "depth": 6,
                "value": 1.0,
                "norm_class_idx": 1
              },
              {
                "depth": 4,
                "value": 1.0,
                "norm_class_idx": 1,
                "splits": [
                  {
                    "var": 114,
                    "quality": 5.2145454406738281e+01,
                    "le": 1.6459608078002930e+00
                  }
                ]
              },
              {
                "depth": 5,
                "value": 0.0,
                "norm_class_idx": 0
              },
              {
                "depth": 5,
                "value": 1.0,
                "norm_class_idx": 1,
                "splits": [
                  {
                    "var": 0,
                    "quality": 53.0,
                    "le": 3.4625000000000000e+01
                  }
                ]
              },
              {
                "depth": 6,
                "value": 0.0,
                "norm_class_idx": 0
              },
              {
                "depth": 6,
                "value": 1.0,
                "norm_class_idx": 1
              },
              {
                "depth": 3,
                "value": 0.0,
                "norm_class_idx": 0,
                "splits": [
                  {
                    "var": 131,
                    "quality": 2.2097340393066406e+02,
                    "le": 1.0447413921356201e+00
                  }
                ]
              },
              {
                "depth": 4,
                "value": 0.0,
                "norm_class_idx": 0,
                "splits": [
                  {
                    "var": 78,
                    "quality": 2.1922026062011719e+02,
                    "le": 1.8373767852783203e+01
                  }
                ]
              },
              {
                "depth": 5,
                "value": 0.0,
                "norm_class_idx": 0,
                "splits": [
                  {
                    "var": 137,
                    "quality": 2.2063603210449219e+02,
                    "le": 1.7678565979003906e+00
                  }
                ]
              },
              {
                "depth": 6,
                "value": 1.0,
                "norm_class_idx": 1
              },
              {
                "depth": 6,
                "value": 0.0,
                "norm_class_idx": 0,
                "splits": [
                  {
                    "var": 35,
                    "quality": 2.1840921020507812e+02,
                    "le": 1.2343896627426147e+00
                  }
                ]
              },
              {
                "depth": 7,
                "value": 0.0,
                "norm_class_idx": 0
              },
              {
                "depth": 7,
                "value": 0.0,
                "norm_class_idx": 0,
                "splits": [
                  {
                    "var": 12,
                    "quality": 2.1539999389648438e+02,
                    "le": 2.2486658766865730e-02
                  }
                ]
              },
              {
                "depth": 8,
                "value": 0.0,
                "norm_class_idx": 0
              },
              {
                "depth": 8,
                "value": 0.0,
                "norm_class_idx": 0
              },
              {
                "depth": 5,
                "value": 1.0,
                "norm_class_idx": 1
              },
              {
                "depth": 4,
                "value": 0.0,
                "norm_class_idx": 0,
                "splits": [
                  {
                    "var": 149,
                    "quality": 9.3333330154418945e+00,
                    "le": 2.0010941028594971e+00
                  }
                ]
              },
              {
                "depth": 5,
                "value": 0.0,
                "norm_class_idx": 0
              },
              {
                "depth": 5,
                "value": 1.0,
                "norm_class_idx": 1
              },
              {
                "depth": 1,
                "value": 0.0,
                "norm_class_idx": 0,
                "splits": [
                  {
                    "var": 38,
                    "quality": 1.1040426025390625e+03,
                    "le": 1.0993540287017822e+00
                  }
                ]
              },
              {
                "depth": 2,
                "value": 0.0,
                "norm_class_idx": 0,
                "splits": [
                  {
                    "var": 45,
                    "quality": 1.1298774414062500e+03,
                    "le": 2.0564346313476562e+01
                  }
                ]
              },
              {
                "depth": 3,
                "value": 1.0,
                "norm_class_idx": 1,
                "splits": [
                  {
                    "var": 42,
                    "quality": 1.3018077087402344e+02,
                    "le": 1.2096611022949219e+01
                  }
                ]
              },
              {
                "depth": 4,
                "value": 1.0,
                "norm_class_idx": 1,
                "splits": [
                  {
                    "var": 71,
                    "quality": 6.2056278228759766e+01,
                    "le": 8.0744254589080811e-01
                  }
                ]
              },
              {
                "depth": 5,
                "value": 1.0,
                "norm_class_idx": 1,
                "splits": [
                  {
                    "var": 152,
                    "quality": 6.1632785797119141e+01,
                    "le": 4.8230379819869995e-01
                  }
                ]
              },
              {
                "depth": 6,
                "value": 1.0,
                "norm_class_idx": 1,
                "splits": [
                  {
                    "var": 37,
                    "quality": 5.9500000000000000e+01,
                    "le": 5.0995965576171875e+02
                  }
                ]
              },
              {
                "depth": 7,
                "value": 1.0,
                "norm_class_idx": 1
              },
              {
                "depth": 7,
                "value": 1.0,
                "norm_class_idx": 1
              },
              {
                "depth": 6,
                "value": 0.0,
                "norm_class_idx": 0
              },
              {
                "depth": 5,
                "value": 0.0,
                "norm_class_idx": 0
              },
              {
                "depth": 4,
                "value": 0.0,
                "norm_class_idx": 0,
                "splits": [
                  {
                    "var": 69,
                    "quality": 8.3608467102050781e+01,
                    "le": 1.3864572525024414e+01
                  }
                ]
              },
              {
                "depth": 5,
                "value": 0.0,
                "norm_class_idx": 0,
                "splits": [
                  {
                    "var": 147,
                    "quality": 4.5299999237060547e+01,
                    "le": 3.0516842007637024e-01
                  }
                ]
              },
              {
                "depth": 6,
                "value": 0.0,
                "norm_class_idx": 0,
                "splits": [
                  {
                    "var": 14,
                    "quality": 2.6076923370361328e+01,
                    "le": 3.0487811565399170e+00
                  }
                ]
              },
              {
                "depth": 7,
                "value": 0.0,
                "norm_class_idx": 0,
                "splits": [
                  {
                    "var": 130,
                    "quality": 2.4666666030883789e+01,
                    "le": 3.1966142654418945e+00
                  }
                ]
              },
              {
                "depth": 8,
                "value": 0.0,
                "norm_class_idx": 0
              },
              {
                "depth": 8,
                "value": 0.0,
                "norm_class_idx": 0
              },
              {
                "depth": 7,
                "value": 1.0,
                "norm_class_idx": 1
              },
              {
                "depth": 6,
                "value": 1.0,
                "norm_class_idx": 1,
                "splits": [
                  {
                    "var": 128,
                    "quality": 3.1275861740112305e+01,
                    "le": 1.1707181930541992e+00
                  }
                ]
              },
              {
                "depth": 7,
                "value": 0.0,
                "norm_class_idx": 0
              },
              {
                "depth": 7,
                "value": 1.0,
                "norm_class_idx": 1,
                "splits": [
                  {
                    "var": 88,
                    "quality": 27.0,
                    "le": 1.3748654127120972e+00
                  }
                ]
              },
              {
                "depth": 8,
                "value": 0.0,
                "norm_class_idx": 0
              },
              {
                "depth": 8,
                "value": 1.0,
                "norm_class_idx": 1
              },
              {
                "depth": 5,
                "value": 0.0,
                "norm_class_idx": 0,
                "splits": [
                  {
                    "var": 8,
                    "quality": 5.2400001525878906e+01,
                    "le": 1.0769600868225098e+00
                  }
                ]
              },
              {
                "depth": 6,
                "value": 0.0,
                "norm_class_idx": 0
              },
              {
                "depth": 6,
                "value": 0.0,
                "norm_class_idx": 0
              },
              {
                "depth": 3,
                "value": 0.0,
                "norm_class_idx": 0,
                "splits": [
                  {
                    "var": 60,
                    "quality": 1.0456610107421875e+03,
                    "le": 2.4399950027465820e+01
                  }
                ]
              },
              {
                "depth": 4,
                "value": 0.0,
                "norm_class_idx": 0,
                "splits": [
                  {
                    "var": 36,
                    "quality": 1.0388173828125000e+03,
                    "le": 4.0014786720275879e+00
                  }
                ]
              },
              {
                "depth": 5,
                "value": 0.0,
                "norm_class_idx": 0,
                "splits": [
                  {
                    "var": 91,
                    "quality": 1.0416704101562500e+03,
                    "le": 1.4044746160507202e+00
                  }
                ]
              },
              {
                "depth": 6,
                "value": 0.0,
                "norm_class_idx": 0,
                "splits": [
                  {
                    "var": 45,
                    "quality": 1.0419887695312500e+03,
                    "le": 2.1847076416015625e+01
                  }
                ]
              },
              {
                "depth": 7,
                "value": 0.0,
                "norm_class_idx": 0,
                "splits": [
                  {
                    "var": 104,
                    "quality": 9.7900566101074219e+01,
                    "le": 6.5957367420196533e-01
                  }
                ]
              },
              {
                "depth": 8,
                "value": 0.0,
                "norm_class_idx": 0,
                "splits": [
                  {
                    "var": 96,
                    "quality": 8.3023811340332031e+01,
                    "le": 1.1443615913391113e+01
                  }
                ]
              },
              {
                "depth": 9,
                "value": 1.0,
                "norm_class_idx": 1
              },
              {
                "depth": 9,
                "value": 0.0,
                "norm_class_idx": 0,
                "splits": [
                  {
                    "var": 126,
                    "quality": 8.2125000000000000e+01,
                    "le": 1.3894239425659180e+01
                  }
                ]
              },
              {
                "depth": 10,
                "value": 0.0,
                "norm_class_idx": 0
              },
              {
                "depth": 10,
                "value": 0.0,
                "norm_class_idx": 0,
                "splits": [
                  {
                    "var": 89,
                    "quality": 16.0,
                    "le": 4.7600066661834717e-01
                  }
                ]
              },
              {
                "depth": 11,
                "value": 1.0,
                "norm_class_idx": 1
              },
              {
                "depth": 11,
                "value": 0.0,
                "norm_class_idx": 0
              },
              {
                "depth": 8,
                "value": 0.0,
                "norm_class_idx": 0,
                "splits": [
                  {
                    "var": 134,
                    "quality": 2.1769229888916016e+01,
                    "le": 2.4520030021667480e+00
                  }
                ]
              },
              {
                "depth": 9,
                "value": 1.0,
                "norm_class_idx": 1
              },
              {
                "depth": 9,
                "value": 0.0,
                "norm_class_idx": 0,
                "splits": [
                  {
                    "var": 44,
                    "quality": 2.0782608032226562e+01,
                    "le": 2.6301460266113281e+00
                  }
                ]
              },
              {
                "depth": 10,
                "value": 0.0,
                "norm_class_idx": 0,
                "splits": [
                  {
                    "var": 137,
                    "quality": 1.9363636016845703e+01,
                    "le": 2.0199704170227051e+00
                  }
                ]
              },
              {
                "depth": 11,
                "value": 1.0,
                "norm_class_idx": 1
              },
              {
                "depth": 11,
                "value": 0.0,
                "norm_class_idx": 0,
                "splits": [
                  {
                    "var": 35,
                    "quality": 2.0095237731933594e+01,
                    "le": 1.6030979156494141e+00
                  }
                ]
              },
              {
                "depth": 12,
                "value": 1.0,
                "norm_class_idx": 1
              },
              {
                "depth": 12,
                "value": 0.0,
                "norm_class_idx": 0,
                "splits": [
                  {
                    "var": 145,
                    "quality": 21.0,
                    "le": 2.7575850486755371e-01
                  }
                ]
              },
              {
                "depth": 13,
                "value": 0.0,
                "norm_class_idx": 0
              },
              {
                "depth": 13,
                "value": 1.0,
                "norm_class_idx": 1
              },
              {
                "depth": 10,
                "value": 1.0,
                "norm_class_idx": 1
              },
              {
                "depth": 7,
                "value": 0.0,
                "norm_class_idx": 0,
                "splits": [
                  {
                    "var": 12,
                    "quality": 9.5105206298828125e+02,
                    "le": 5.0505456924438477e+00
                  }
                ]
              },
              {
                "depth": 8,
                "value": 0.0,
                "norm_class_idx": 0,
                "splits": [
                  {
                    "var": 139,
                    "quality": 9.5027368164062500e+02,
                    "le": 1.1701883316040039e+01
                  }
                ]
              },
              {
                "depth": 9,
                "value": 0.0,
                "norm_class_idx": 0,
                "splits": [
                  {
                    "var": 131,
                    "quality": 8.8857141113281250e+02,
                    "le": 1.0632333755493164e+00
                  }
                ]
              },
              {
                "depth": 10,
                "value": 0.0,
                "norm_class_idx": 0
              },
              {
                "depth": 10,
                "value": 0.0,
                "norm_class_idx": 0,
                "splits": [
                  {
                    "var": 111,
                    "quality": 1.2666666984558105e+01,
                    "le": 8.5539760589599609e+00
                  }
                ]
              },
              {
                "depth": 11,
                "value": 0.0,
                "norm_class_idx": 0
              },
              {
                "depth": 11,
                "value": 1.0,
                "norm_class_idx": 1
              },
              {
                "depth": 9,
                "value": 0.0,
                "norm_class_idx": 0,
                "splits": [
                  {
                    "var": 15,
                    "quality": 6.6030303955078125e+01,
                    "le": 5.3148341178894043e-01
                  }
                ]
              },
              {
                "depth": 10,
                "value": 0.0,
                "norm_class_idx": 0,
                "splits": [
                  {
                    "var": 133,
                    "quality": 6.4400001525878906e+01,
                    "le": 2.9557430744171143e-01
                  }
                ]
              },
              {
                "depth": 11,
                "value": 0.0,
                "norm_class_idx": 0
              },
              {
                "depth": 11,
                "value": 0.0,
                "norm_class_idx": 0
              },
              {
                "depth": 10,
                "value": 1.0,
                "norm_class_idx": 1
              },
              {
                "depth": 8,
                "value": 1.0,
                "norm_class_idx": 1
              },
              {
                "depth": 6,
                "value": 1.0,
                "norm_class_idx": 1
              },
              {
                "depth": 5,
                "value": 1.0,
                "norm_class_idx": 1
              },
              {
                "depth": 4,
                "value": 1.0,
                "norm_class_idx": 1,
                "splits": [
                  {
                    "var": 89,
                    "quality": 1.5181818008422852e+01,
                    "le": 1.0745899677276611e+00
                  }
                ]
              },
              {
                "depth": 5,
                "value": 1.0,
                "norm_class_idx": 1,
                "splits": [
                  {
                    "var": 56,
                    "quality": 11.0,
                    "le": 7.9192437231540680e-02
                  }
                ]
              },
              {
                "depth": 6,
                "value": 0.0,
                "norm_class_idx": 0
              },
              {
                "depth": 6,
                "value": 1.0,
                "norm_class_idx": 1
              },
              {
                "depth": 5,
                "value": 0.0,
                "norm_class_idx": 0
              },
              {
                "depth": 2,
                "value": 1.0,
                "norm_class_idx": 1,
                "splits": [
                  {
                    "var": 63,
                    "quality": 5.1150943756103516e+01,
                    "le": 1.5733381271362305e+01
                  }
                ]
              },
              {
                "depth": 3,
                "value": 0.0,
                "norm_class_idx": 0
              },
              {
                "depth": 3,
                "value": 1.0,
                "norm_class_idx": 1,
                "splits": [
                  {
                    "var": 126,
                    "quality": 5.1038459777832031e+01,
                    "le": 2.6241602897644043e+00
                  }
                ]
              },
              {
                "depth": 4,
                "value": 0.0,
                "norm_class_idx": 0
              },
              {
                "depth": 4,
                "value": 1.0,
                "norm_class_idx": 1,
                "splits": [
                  {
                    "var": 66,
                    "quality": 52.0,
                    "le": 1.6950000000000000e+02
                  }
                ]
              },
              {
                "depth": 5,
                "value": 1.0,
                "norm_class_idx": 1
              },
              {
                "depth": 5,
                "value": 0.0,
                "norm_class_idx": 0
              }
            ]
          },
          {
            "nodes": [
              {
                "depth": 0,
                "value": 0.0,
                "norm_class_idx": 0,
                "splits": [
                  {
                    "var": 46,
                    "quality": 1.7338526611328125e+03,
                    "le": 7.8773903846740723e+00
                  }
                ]
              },
              {
                "depth": 1,
                "value": 1.0,
                "norm_class_idx": 1,
                "splits": [
                  {
                    "var": 97,
                    "quality": 4.5261096191406250e+02,
                    "le": 4.0903797149658203e+00
                  }
                ]
              },
              {
                "depth": 2,
                "value": 1.0,
                "norm_class_idx": 1,
                "splits": [
                  {
                    "var": 132,
                    "quality": 4.0850112915039062e+02,
                    "le": 1.0092248916625977e+00
                  }
                ]
              },
              {
                "depth": 3,
                "value": 1.0,
                "norm_class_idx": 1,
                "splits": [
                  {
                    "var": 42,
                    "quality": 3.7083332061767578e+01,
                    "le": 1.1595283508300781e+01
                  }
                ]
              },
              {
                "depth": 4,
                "value": 1.0,
                "norm_class_idx": 1,
                "splits": [
                  {
                    "var": 138,
                    "quality": 23.0,
                    "le": 2.2840288162231445e+01
                  }
                ]
              },
              {
                "depth": 5,
                "value": 1.0,
                "norm_class_idx": 1
              },
              {
                "depth": 5,
                "value": 0.0,
                "norm_class_idx": 0
              },
              {
                "depth": 4,
                "value": 0.0,
                "norm_class_idx": 0
              },
              {
                "depth": 3,
                "value": 1.0,
                "norm_class_idx": 1,
                "splits": [
                  {
                    "var": 129,
                    "quality": 3.9150448608398438e+02,
                    "le": 4.2026251554489136e-01
                  }
                ]
              },
              {
                "depth": 4,
                "value": 1.0,
                "norm_class_idx": 1,
                "splits": [
                  {
                    "var": 34,
                    "quality": 5.1357692718505859e+01,
                    "le": 3.7813499569892883e-01
                  }
                ]
              },
              {
                "depth": 5,
                "value": 1.0,
                "norm_class_idx": 1,
                "splits": [
                  {
                    "var": 24,
                    "quality": 40.0,
                    "le": 3.7520654499530792e-02
                  }
                ]
              },
              {
                "depth": 6,
                "value": 0.0,
                "norm_class_idx": 0
              },
              {
                "depth": 6,
                "value": 1.0,
                "norm_class_idx": 1
              },
              {
                "depth": 5,
                "value": 1.0,
                "norm_class_idx": 1,
                "splits": [
                  {
                    "var": 45,
                    "quality": 1.9538461685180664e+01,
                    "le": 1.6553310394287109e+01
                  }
                ]
              },
              {
                "depth": 6,
                "value": 1.0,
                "norm_class_idx": 1,
                "splits": [
                  {
                    "var": 10,
                    "quality": 12.0,
                    "le": 1.3731087744235992e-01
                  }
                ]
              },
              {
                "depth": 7,
                "value": 0.0,
                "norm_class_idx": 0
              },
              {
                "depth": 7,
                "value": 1.0,
                "norm_class_idx": 1
              },
              {
                "depth": 6,
                "value": 0.0,
                "norm_class_idx": 0,
                "splits": [
                  {
                    "var": 32,
                    "quality": 1.1500000000000000e+01,
                    "le": 3.5822328925132751e-01
                  }
                ]
              },
              {
                "depth": 7,
                "value": 0.0,
                "norm_class_idx": 0
              },
              {
                "depth": 7,
                "value": 1.0,
                "norm_class_idx": 1
              },
              {
                "depth": 4,
                "value": 1.0,
                "norm_class_idx": 1,
                "splits": [
                  {
                    "var": 42,
                    "quality": 3.5102273559570312e+02,
                    "le": 1.4274674415588379e+01
                  }
                ]
              },
              {
                "depth": 5,
                "value": 1.0,
                "norm_class_idx": 1,
                "splits": [
                  {
                    "var": 150,
                    "quality": 3.4838095092773438e+02,
                    "le": 1.5998512268066406e+01
                  }
                ]
              },
              {
                "depth": 6,
                "value": 1.0,
                "norm_class_idx": 1,
                "splits": [
                  {
                    "var": 126,
                    "quality": 1.9666666030883789e+01,
                    "le": 1.1643779754638672e+01
                  }
                ]
              },
              {
                "depth": 7,
                "value": 1.0,
                "norm_class_idx": 1
              },
              {
                "depth": 7,
                "value": 0.0,
                "norm_class_idx": 0
              },
              {
                "depth": 6,
                "value": 1.0,
                "norm_class_idx": 1
              },
              {
                "depth": 5,
                "value": 0.0,
                "norm_class_idx": 0
              },
              {
                "depth": 2,
                "value": 0.0,
                "norm_class_idx": 0,
                "splits": [
                  {
                    "var": 36,
                    "quality": 7.0552940368652344e+01,
                    "le": 3.1892428398132324e+00
                  }
                ]
              },
              {
                "depth": 3,
                "value": 0.0,
                "norm_class_idx": 0,
                "splits": [
                  {
                    "var": 70,
                    "quality": 6.1857807159423828e+01,
                    "le": 9.5889244079589844e+00
                  }
                ]
              },
              {
                "depth": 4,
                "value": 1.0,
                "norm_class_idx": 1,
                "splits": [
                  {
                    "var": 142,
                    "quality": 2.6015384674072266e+01,
                    "le": 9.4859075546264648e-01
                  }
                ]
              },
              {
                "depth": 5,
                "value": 0.0,
                "norm_class_idx": 0,
                "splits": [
                  {
                    "var": 24,
                    "quality": 13.0,
                    "le": 7.0461521148681641e+00
                  }
                ]
              },
              {
                "depth": 6,
                "value": 0.0,
                "norm_class_idx": 0
              },
              {
                "depth": 6,
                "value": 1.0,
                "norm_class_idx": 1
              },
              {
                "depth": 5,
                "value": 1.0,
                "norm_class_idx": 1,
                "splits": [
                  {
                    "var": 139,
                    "quality": 18.0,
                    "le": 1.6258556842803955e+00
                  }
                ]
              },
              {
                "depth": 6,
                "value": 0.0,
                "norm_class_idx": 0
              },
              {
                "depth": 6,
                "value": 1.0,
                "norm_class_idx": 1
              },
              {
                "depth": 4,
                "value": 0.0,
                "norm_class_idx": 0,
                "splits": [
                  {
                    "var": 60,
                    "quality": 4.9333332061767578e+01,
                    "le": 2.2932868957519531e+01
                  }
                ]
              },
              {
                "depth": 5,
                "value": 0.0,
                "norm_class_idx": 0
              },
              {
                "depth": 5,
                "value": 1.0,
                "norm_class_idx": 1
              },
              {
                "depth": 3,
                "value": 1.0,
                "norm_class_idx": 1
              },
              {
                "depth": 1,
                "value": 0.0,
                "norm_class_idx": 0,
                "splits": [
                  {
                    "var": 46,
                    "quality": 1.3865737304687500e+03,
                    "le": 1.0480051994323730e+01
                  }
                ]
              },
              {
                "depth": 2,
                "value": 0.0,
                "norm_class_idx": 0,
                "splits": [
                  {
                    "var": 67,
                    "quality": 3.5889904785156250e+02,
                    "le": 3.4488304138183594e+01
                  }
                ]
              },
              {
                "depth": 3,
                "value": 1.0,
                "norm_class_idx": 1,
                "splits": [
                  {
                    "var": 8,
                    "quality": 9.9749382019042969e+01,
                    "le": 2.5462558269500732e+00
                  }
                ]
              },
              {
                "depth": 4,
                "value": 1.0,
                "norm_class_idx": 1,
                "splits": [
                  {
                    "var": 144,
                    "quality": 9.4621215820312500e+01,
                    "le": 5.0896608829498291e-01
                  }
                ]
              },
              {
                "depth": 5,
                "value": 0.0,
                "norm_class_idx": 0,
                "splits": [
                  {
                    "var": 96,
                    "quality": 17.0,
                    "le": 1.2019241333007812e+01
                  }
                ]
              },
              {
                "depth": 6,
                "value": 1.0,
                "norm_class_idx": 1
              },
              {
                "depth": 6,
                "value": 0.0,
                "norm_class_idx": 0,
                "splits": [
                  {
                    "var": 1,
                    "quality": 18.0,
                    "le": 1.2857864379882812e+01
                  }
                ]
              },
              {
                "depth": 7,
                "value": 1.0,
                "norm_class_idx": 1
              },
              {
                "depth": 7,
                "value": 0.0,
                "norm_class_idx": 0
              },
              {
                "depth": 5,
                "value": 1.0,
                "norm_class_idx": 1,
                "splits": [
                  {
                    "var": 42,
                    "quality": 1.0408421325683594e+02,
                    "le": 1.5041351318359375e+01
                  }
                ]
              },
              {
                "depth": 6,
                "value": 1.0,
                "norm_class_idx": 1,
                "splits": [
                  {
                    "var": 146,
                    "quality": 9.2599998474121094e+01,
                    "le": 7.8963607549667358e-01
                  }
                ]
              },
              {
                "depth": 7,
                "value": 1.0,
                "norm_class_idx": 1
              },
              {
                "depth": 7,
                "value": 1.0,
                "norm_class_idx": 1
              },
              {
                "depth": 6,
                "value": 0.0,
                "norm_class_idx": 0
              },
              {
                "depth": 4,
                "value": 0.0,
                "norm_class_idx": 0,
                "splits": [
                  {
                    "var": 97,
                    "quality": 2.3173913955688477e+01,
                    "le": 1.6943178176879883e+00
                  }
                ]
              },
              {
                "depth": 5,
                "value": 1.0,
                "norm_class_idx": 1
              },
              {
                "depth": 5,
                "value": 0.0,
                "norm_class_idx": 0,
                "splits": [
                  {
                    "var": 110,
                    "quality": 1.9399999618530273e+01,
                    "le": 3.6486999511718750e+01
                  }
                ]
              },
              {
                "depth": 6,
                "value": 0.0,
                "norm_class_idx": 0,
                "splits": [
                  {
                    "var": 110,
                    "quality": 20.0,
                    "le": 1.4794956207275391e+01
                  }
                ]
              },
              {
                "depth": 7,
                "value": 1.0,
                "norm_class_idx": 1
              },
              {
                "depth": 7,
                "value": 0.0,
                "norm_class_idx": 0
              },
              {
                "depth": 6,
                "value": 1.0,
                "norm_class_idx": 1
              },
              {
                "depth": 3,
                "value": 0.0,
                "norm_class_idx": 0,
                "splits": [
                  {
                    "var": 47,
                    "quality": 2.8962542724609375e+02,
                    "le": 8.6091251373291016e+00
                  }
                ]
              },
              {
                "depth": 4,
                "value": 1.0,
                "norm_class_idx": 1,
                "splits": [
                  {
                    "var": 26,
                    "quality": 4.4945453643798828e+01,
                    "le": 1.0365257263183594e+00
                  }
                ]
              },
              {
                "depth": 5,
                "value": 0.0,
                "norm_class_idx": 0,
                "splits": [
                  {
                    "var": 145,
                    "quality": 20.0,
                    "le": 1.5836626291275024e-01
                  }
                ]
              },
              {
                "depth": 6,
                "value": 0.0,
                "norm_class_idx": 0
              },
              {
                "depth": 6,
                "value": 1.0,
                "norm_class_idx": 1
              },
              {
                "depth": 5,
                "value": 1.0,
                "norm_class_idx": 1,
                "splits": [
                  {
                    "var": 4,
                    "quality": 3.5764705657958984e+01,
                    "le": 7.5612478256225586e+00
                  }
                ]
              },
              {
                "depth": 6,
                "value": 1.0,
                "norm_class_idx": 1
              },
              {
                "depth": 6,
                "value": 0.0,
                "norm_class_idx": 0,
                "splits": [
                  {
                    "var": 36,
                    "quality": 1.3666666984558105e+01,
                    "le": 2.3108193874359131e+00
                  }
                ]
              },
              {
                "depth": 7,
                "value": 0.0,
                "norm_class_idx": 0,
                "splits": [
                  {
                    "var": 5,
                    "quality": 12.0,
                    "le": 5.2548837661743164e-01
                  }
                ]
              },
              {
                "depth": 8,
                "value": 1.0,
                "norm_class_idx": 1
              },
              {
                "depth": 8,
                "value": 0.0,
                "norm_class_idx": 0
              },
              {
                "depth": 7,
                "value": 1.0,
                "norm_class_idx": 1
              },
              {
                "depth": 4,
                "value": 0.0,
                "norm_class_idx": 0,
                "splits": [
                  {
                    "var": 63,
                    "quality": 2.6572491455078125e+02,
                    "le": 3.0439275741577148e+01
                  }
                ]
              },
              {
                "depth": 5,
                "value": 0.0,
                "norm_class_idx": 0,
                "splits": [
                  {
                    "var": 29,
                    "quality": 2.6655612182617188e+02,
                    "le": 9.9549303054809570e+00
                  }
                ]
              },
              {
                "depth": 6,
                "value": 0.0,
                "norm_class_idx": 0,
                "splits": [
                  {
                    "var": 140,
                    "quality": 2.6376965332031250e+02,
                    "le": 5.1624268293380737e-02
                  }
                ]
              },
              {
                "depth": 7,
                "value": 0.0,
                "norm_class_idx": 0,
                "splits": [
                  {
                    "var": 140,
                    "quality": 16.0,
                    "le": 3.6482784897089005e-02
                  }
                ]
              },
              {
                "depth": 8,
                "value": 0.0,
                "norm_class_idx": 0
              },
              {
                "depth": 8,
                "value": 1.0,
                "norm_class_idx": 1
              },
              {
                "depth": 7,
                "value": 0.0,
                "norm_class_idx": 0,
                "splits": [
                  {
                    "var": 50,
                    "quality": 2.5956845092773438e+02,
                    "le": 1.2007085084915161e+00
                  }
                ]
              },
              {
                "depth": 8,
                "value": 0.0,
                "norm_class_idx": 0,
                "splits": [
                  {
                    "var": 114,
                    "quality": 2.5903054809570312e+02,
                    "le": 1.0839601516723633e+01
                  }
                ]
              },
              {
                "depth": 9,
                "value": 0.0,
                "norm_class_idx": 0,
                "splits": [
                  {
                    "var": 47,
                    "quality": 2.5811428833007812e+02,
                    "le": 1.1797697067260742e+01
                  }
                ]
              },
              {
                "depth": 10,
                "value": 0.0,
                "norm_class_idx": 0,
                "splits": [
                  {
                    "var": 47,
                    "quality": 6.8028984069824219e+01,
                    "le": 1.1668125152587891e+01
                  }
                ]
              },
              {
                "depth": 11,
                "value": 0.0,
                "norm_class_idx": 0,
                "splits": [
                  {
                    "var": 56,
                    "quality": 6.7181816101074219e+01,
                    "le": 1.3950935006141663e-01
                  }
                ]
              },
              {
                "depth": 12,
                "value": 0.0,
                "norm_class_idx": 0
              },
              {
                "depth": 12,
                "value": 0.0,
                "norm_class_idx": 0,
                "splits": [
                  {
                    "var": 73,
                    "quality": 9.6666669845581055e+00,
                    "le": 4.0592665672302246e+00
                  }
                ]
              },
              {
                "depth": 13,
                "value": 0.0,
                "norm_class_idx": 0
              },
              {
                "depth": 13,
                "value": 0.0,
                "norm_class_idx": 0
              },
              {
                "depth": 11,
                "value": 1.0,
                "norm_class_idx": 1
              },
              {
                "depth": 10,
                "value": 0.0,
                "norm_class_idx": 0
              },
              {
                "depth": 9,
                "value": 1.0,
                "norm_class_idx": 1
              },
              {
                "depth": 8,
                "value": 1.0,
                "norm_class_idx": 1
              },
              {
                "depth": 6,
                "value": 1.0,
                "norm_class_idx": 1,
                "splits": [
                  {
                    "var": 47,
                    "quality": 1.1285714149475098e+01,
                    "le": 1.1664730072021484e+01
                  }
                ]
              },
              {
                "depth": 7,
                "value": 1.0,
                "norm_class_idx": 1
              },
              {
                "depth": 7,
                "value": 0.0,
                "norm_class_idx": 0
              },
              {
                "depth": 5,
                "value": 1.0,
                "norm_class_idx": 1
              },
              {
                "depth": 2,
                "value": 0.0,
                "norm_class_idx": 0,
                "splits": [
                  {
                    "var": 45,
                    "quality": 1.1091599121093750e+03,
                    "le": 1.9628383636474609e+01
                  }
                ]
              },
              {
                "depth": 3,
                "value": 0.0,
                "norm_class_idx": 0,
                "splits": [
                  {
                    "var": 34,
                    "quality": 6.7929878234863281e+01,
                    "le": 7.2574925422668457e-01
                  }
                ]
              },
              {
                "depth": 4,
                "value": 0.0,
                "norm_class_idx": 0,
                "splits": [
                  {
                    "var": 146,
                    "quality": 6.0142856597900391e+01,
                    "le": 1.1043530702590942e+00
                  }
                ]
              },
              {
                "depth": 5,
                "value": 0.0,
                "norm_class_idx": 0,
                "splits": [
                  {
                    "var": 38,
                    "quality": 5.4036365509033203e+01,
                    "le": 1.7535017430782318e-01
                  }
                ]
              },
              {
                "depth": 6,
                "value": 1.0,
                "norm_class_idx": 1
              },
              {
                "depth": 6,
                "value": 0.0,
                "norm_class_idx": 0,
                "splits": [
                  {
                    "var": 61,
                    "quality": 55.0,
                    "le": 7.2675305175781250e+02
                  }
                ]
              },
              {
                "depth": 7,
                "value": 1.0,
                "norm_class_idx": 1
              },
              {
                "depth": 7,
                "value": 0.0,
                "norm_class_idx": 0
              },
              {
                "depth": 5,
                "value": 1.0,
                "norm_class_idx": 1
              },
              {
                "depth": 4,
                "value": 1.0,
                "norm_class_idx": 1,
                "splits": [
                  {
                    "var": 114,
                    "quality": 2.5472221374511719e+01,
                    "le": 5.7192797660827637e+00
                  }
                ]
              },
              {
                "depth": 5,
                "value": 1.0,
                "norm_class_idx": 1,
                "splits": [
                  {
                    "var": 66,
                    "quality": 2.3682538986206055e+01,
                    "le": 7.5375000000000000e+01
                  }
                ]
              },
              {
                "depth": 6,
                "value": 0.0,
                "norm_class_idx": 0,
                "splits": [
                  {
                    "var": 42,
                    "quality": 1.2199999809265137e+01,
                    "le": 1.4998648643493652e+01
                  }
                ]
              },
              {
                "depth": 7,
                "value": 0.0,
                "norm_class_idx": 0
              },
              {
                "depth": 7,
                "value": 1.0,
                "norm_class_idx": 1
              },
              {
                "depth": 6,
                "value": 1.0,
                "norm_class_idx": 1,
                "splits": [
                  {
                    "var": 63,
                    "quality": 18.0,
                    "le": 1.2950214385986328e+01
                  }
                ]
              },
              {
                "depth": 7,
                "value": 0.0,
                "norm_class_idx": 0
              },
              {
                "depth": 7,
                "value": 1.0,
                "norm_class_idx": 1
              },
              {
                "depth": 5,
                "value": 0.0,
                "norm_class_idx": 0
              },
              {
                "depth": 3,
                "value": 0.0,
                "norm_class_idx": 0,
                "splits": [
                  {
                    "var": 13,
                    "quality": 1.0519808349609375e+03,
                    "le": 2.8079675292968750e+02
                  }
                ]
              },
              {
                "depth": 4,
                "value": 0.0,
                "norm_class_idx": 0,
                "splits": [
                  {
                    "var": 58,
                    "quality": 1.0528922119140625e+03,
                    "le": 8.4675300121307373e-01
                  }
                ]
              },
              {
                "depth": 5,
                "value": 0.0,
                "norm_class_idx": 0,
                "splits": [
                  {
                    "var": 5,
                    "quality": 1.0527772216796875e+03,
                    "le": 3.0626380443572998e-01
                  }
                ]
              },
              {
                "depth": 6,
                "value": 0.0,
                "norm_class_idx": 0,
                "splits": [
                  {
                    "var": 124,
                    "quality": 1.7399999618530273e+01,
                    "le": 1.3750178813934326e+00
                  }
                ]
              },
              {
                "depth": 7,
                "value": 1.0,
                "norm_class_idx": 1
              },
              {
                "depth": 7,
                "value": 0.0,
                "norm_class_idx": 0
              },
              {
                "depth": 6,
                "value": 0.0,
                "norm_class_idx": 0,
                "splits": [
                  {
                    "var": 65,
                    "quality": 1.0407352294921875e+03,
                    "le": 3.0750646591186523e+00
                  }
                ]
              },
              {
                "depth": 7,
                "value": 0.0,
                "norm_class_idx": 0
              },
              {
                "depth": 7,
                "value": 0.0,
                "norm_class_idx": 0,
                "splits": [
                  {
                    "var": 42,
                    "quality": 1.0400476074218750e+03,
                    "le": 1.4471494674682617e+01
                  }
                ]
              },
              {
                "depth": 8,
                "value": 0.0,
                "norm_class_idx": 0
              },
              {
                "depth": 8,
                "value": 0.0,
                "norm_class_idx": 0,
                "splits": [
                  {
                    "var": 58,
                    "quality": 1.0398908691406250e+03,
                    "le": 6.7944210767745972e-01
                  }
                ]
              },
              {
                "depth": 9,
                "value": 0.0,
                "norm_class_idx": 0,
                "splits": [
                  {
                    "var": 73,
                    "quality": 1013.0,
                    "le": 9.5048284530639648e+00
                  }
                ]
              },
              {
                "depth": 10,
                "value": 0.0,
                "norm_class_idx": 0
              },
              {
                "depth": 10,
                "value": 1.0,
                "norm_class_idx": 1
              },
              {
                "depth": 9,
                "value": 0.0,
                "norm_class_idx": 0,
                "splits": [
                  {
                    "var": 77,
                    "quality": 3.1200000762939453e+01,
                    "le": 1.3979926705360413e-02
                  }
                ]
              },
              {
                "depth": 10,
                "value": 0.0,
                "norm_class_idx": 0
              },
              {
                "depth": 10,
                "value": 0.0,
                "norm_class_idx": 0
              },
              {
                "depth": 5,
                "value": 1.0,
                "norm_class_idx": 1
              },
              {
                "depth": 4,
                "value": 1.0,
                "norm_class_idx": 1
              }
            ]
          },
          {
            "nodes": [
              {
                "depth": 0,
                "value": 0.0,
                "norm_class_idx": 0,
                "splits": [
                  {
                    "var": 13,
                    "quality": 1.5153917236328125e+03,
                    "le": 7.8286102294921875e+01
                  }
                ]
              },
              {
                "depth": 1,
                "value": 0.0,
                "norm_class_idx": 0,
                "splits": [
                  {
                    "var": 45,
                    "quality": 1.6795686035156250e+03,
                    "le": 1.8465892791748047e+01
                  }
                ]
              },
              {
                "depth": 2,
                "value": 1.0,
                "norm_class_idx": 1,
                "splits": [
                  {
                    "var": 45,
                    "quality": 3.7769992065429688e+02,
                    "le": 1.5913174629211426e+01
                  }
                ]
              },
              {
                "depth": 3,
                "value": 1.0,
                "norm_class_idx": 1,
                "splits": [
                  {
                    "var": 84,
                    "quality": 2.6311853027343750e+02,
                    "le": 2.3858277127146721e-02
                  }
                ]
              },
              {
                "depth": 4,
                "value": 0.0,
                "norm_class_idx": 0
              },
              {
                "depth": 4,
                "value": 1.0,
                "norm_class_idx": 1,
                "splits": [
                  {
                    "var": 105,
                    "quality": 2.6602984619140625e+02,
                    "le": 5.8304265141487122e-02
                  }
                ]
              },
              {
                "depth": 5,
                "value": 0.0,
                "norm_class_idx": 0
              },
              {
                "depth": 5,
                "value": 1.0,
                "norm_class_idx": 1,
                "splits": [
                  {
                    "var": 86,
                    "quality": 2.6420776367187500e+02,
                    "le": 2.8676958084106445e+00
                  }
                ]
              },
              {
                "depth": 6,
                "value": 1.0,
                "norm_class_idx": 1
              },
              {
                "depth": 6,
                "value": 1.0,
                "norm_class_idx": 1,
                "splits": [
                  {
                    "var": 95,
                    "quality": 2.5608334350585938e+02,
                    "le": 1.7979815602302551e-01
                  }
                ]
              },
              {
                "depth": 7,
                "value": 1.0,
                "norm_class_idx": 1,
                "splits": [
                  {
                    "var": 59,
                    "quality": 24.0,
                    "le": 3.7119323015213013e-01
                  }
                ]
              },
              {
                "depth": 8,
                "value": 0.0,
                "norm_class_idx": 0
              },
              {
                "depth": 8,
                "value": 1.0,
                "norm_class_idx": 1
              },
              {
                "depth": 7,
                "value": 1.0,
                "norm_class_idx": 1
              },
              {
                "depth": 3,
                "value": 1.0,
                "norm_class_idx": 1,
                "splits": [
                  {
                    "var": 128,
                    "quality": 1.4085900878906250e+02,
                    "le": 1.7329614162445068e+00
                  }
                ]
              },
              {
                "depth": 4,
                "value": 0.0,
                "norm_class_idx": 0,
                "splits": [
                  {
                    "var": 128,
                    "quality": 8.4523735046386719e+01,
                    "le": 1.2091217041015625e+00
                  }
                ]
              },
              {
                "depth": 5,
                "value": 0.0,
                "norm_class_idx": 0,
                "splits": [
                  {
                    "var": 25,
                    "quality": 3.6636363983154297e+01,
                    "le": 1.0206943359375000e+03
                  }
                ]
              },
              {
                "depth": 6,
                "value": 0.0,
                "norm_class_idx": 0,
                "splits": [
                  {
                    "var": 146,
                    "quality": 3.6761905670166016e+01,
                    "le": 6.1515271663665771e-01
                  }
                ]
              },
              {
                "depth": 7,
                "value": 1.0,
                "norm_class_idx": 1
              },
              {
                "depth": 7,
                "value": 0.0,
                "norm_class_idx": 0,
                "splits": [
                  {
                    "var": 8,
                    "quality": 3.7654052734375000e+01,
                    "le": 5.9019446372985840e-01
                  }
                ]
              },
              {
                "depth": 8,
                "value": 1.0,
                "norm_class_idx": 1
              },
              {
                "depth": 8,
                "value": 0.0,
                "norm_class_idx": 0,
                "splits": [
                  {
                    "var": 69,
                    "quality": 3.5666667938232422e+01,
                    "le": 1.5747100830078125e+01
                  }
                ]
              },
              {
                "depth": 9,
                "value": 0.0,
                "norm_class_idx": 0
              },
              {
                "depth": 9,
                "value": 0.0,
                "norm_class_idx": 0
              },
              {
                "depth": 6,
                "value": 1.0,
                "norm_class_idx": 1
              },
              {
                "depth": 5,
                "value": 1.0,
                "norm_class_idx": 1,
                "splits": [
                  {
                    "var": 23,
                    "quality": 6.3946216583251953e+01,
                    "le": 8.7965983152389526e-01
                  }
                ]
              },
              {
                "depth": 6,
                "value": 1.0,
                "norm_class_idx": 1,
                "splits": [
                  {
                    "var": 84,
                    "quality": 4.6714759826660156e+01,
                    "le": 1.7546976804733276e+00
                  }
                ]
              },
              {
                "depth": 7,
                "value": 0.0,
                "norm_class_idx": 0,
                "splits": [
                  {
                    "var": 65,
                    "quality": 1.5333333015441895e+01,
                    "le": 5.7418274879455566e+00
                  }
                ]
              },
              {
                "depth": 8,
                "value": 1.0,
                "norm_class_idx": 1
              },
              {
                "depth": 8,
                "value": 0.0,
                "norm_class_idx": 0
              },
              {
                "depth": 7,
                "value": 1.0,
                "norm_class_idx": 1,
                "splits": [
                  {
                    "var": 129,
                    "quality": 3.9865249633789062e+01,
                    "le": 3.2452070713043213e-01
                  }
                ]
              },
              {
                "depth": 8,
                "value": 0.0,
                "norm_class_idx": 0
              },
              {
                "depth": 8,
                "value": 1.0,
                "norm_class_idx": 1,
                "splits": [
                  {
                    "var": 138,
                    "quality": 3.9711112976074219e+01,
                    "le": 1.5637786865234375e+01
                  }
                ]
              },
              {
                "depth": 9,
                "value": 0.0,
                "norm_class_idx": 0
              },
              {
                "depth": 9,
                "value": 1.0,
                "norm_class_idx": 1,
                "splits": [
                  {
                    "var": 4,
                    "quality": 3.9409091949462891e+01,
                    "le": 8.4477672576904297e+00
                  }
                ]
              },
              {
                "depth": 10,
                "value": 1.0,
                "norm_class_idx": 1,
                "splits": [
                  {
                    "var": 26,
                    "quality": 4.0571430206298828e+01,
                    "le": 1.4065290689468384e+00
                  }
                ]
              },
              {
                "depth": 11,
                "value": 1.0,
                "norm_class_idx": 1
              },
              {
                "depth": 11,
                "value": 1.0,
                "norm_class_idx": 1
              },
              {
                "depth": 10,
                "value": 0.0,
                "norm_class_idx": 0
              },
              {
                "depth": 6,
                "value": 0.0,
                "norm_class_idx": 0,
                "splits": [
                  {
                    "var": 142,
                    "quality": 2.8580644607543945e+01,
                    "le": 5.4174623489379883e+00
                  }
                ]
              },
              {
                "depth": 7,
                "value": 0.0,
                "norm_class_idx": 0,
                "splits": [
                  {
                    "var": 127,
                    "quality": 2.9068965911865234e+01,
                    "le": 3.1358316540718079e-01
                  }
                ]
              },
              {
                "depth": 8,
                "value": 0.0,
                "norm_class_idx": 0,
                "splits": [
                  {
                    "var": 116,
                    "quality": 2.7666666030883789e+01,
                    "le": 9.6685633063316345e-02
                  }
                ]
              },
              {
                "depth": 9,
                "value": 0.0,
                "norm_class_idx": 0
              },
              {
                "depth": 9,
                "value": 0.0,
                "norm_class_idx": 0
              },
              {
                "depth": 8,
                "value": 1.0,
                "norm_class_idx": 1
              },
              {
                "depth": 7,
                "value": 1.0,
                "norm_class_idx": 1
              },
              {
                "depth": 4,
                "value": 1.0,
                "norm_class_idx": 1,
                "splits": [
                  {
                    "var": 106,
                    "quality": 7.1029411315917969e+01,
                    "le": 8.0891823768615723e-01
                  }
                ]
              },
              {
                "depth": 5,
                "value": 0.0,
                "norm_class_idx": 0
              },
              {
                "depth": 5,
                "value": 1.0,
                "norm_class_idx": 1,
                "splits": [
                  {
                    "var": 80,
                    "quality": 68.0,
                    "le": 1.8563613891601562e+00
                  }
                ]
              },
              {
                "depth": 6,
                "value": 1.0,
                "norm_class_idx": 1
              },
              {
                "depth": 6,
                "value": 0.0,
                "norm_class_idx": 0
              },
              {
                "depth": 2,
                "value": 0.0,
                "norm_class_idx": 0,
                "splits": [
                  {
                    "var": 41,
                    "quality": 1.3599188232421875e+03,
                    "le": 5.2670879364013672e+00
                  }
                ]
              },
              {
                "depth": 3,
                "value": 0.0,
                "norm_class_idx": 0,
                "splits": [
                  {
                    "var": 89,
                    "quality": 1.3616038818359375e+03,
                    "le": 3.1578116416931152e+00
                  }
                ]
              },
              {
                "depth": 4,
                "value": 0.0,
                "norm_class_idx": 0,
                "splits": [
                  {
                    "var": 54,
                    "quality": 1.3584703369140625e+03,
                    "le": 8.0249387025833130e-01
                  }
                ]
              },
              {
                "depth": 5,
                "value": 0.0,
                "norm_class_idx": 0,
                "splits": [
                  {
                    "var": 110,
                    "quality": 1.2439771728515625e+03,
                    "le": 1.2580533981323242e+01
                  }
                ]
              },
              {
                "depth": 6,
