{
  "object_classifier_type": "OpenCVMLClassifier",
  "featureExtractor": {
    "feature_extractor_type": "DefaultFeatureExtractor",
    "measurements": [
      "Nucleus: Area",
      "Nucleus: Perimeter",
      "Nucleus: Circularity",
      "Nucleus: Max caliper",
      "Nucleus: Min caliper",
      "Nucleus: Eccentricity",
      "Nucleus: DAPI mean",
      "Nucleus: DAPI sum",
      "Nucleus: DAPI std dev",
      "Nucleus: DAPI max",
      "Nucleus: DAPI min",
      "Nucleus: DAPI range",
      "Nucleus: Opal 480 mean",
      "Nucleus: Opal 480 sum",
      "Nucleus: Opal 480 std dev",
      "Nucleus: Opal 480 max",
      "Nucleus: Opal 480 min",
      "Nucleus: Opal 480 range",
      "Nucleus: Opal 520 mean",
      "Nucleus: Opal 520 sum",
      "Nucleus: Opal 520 std dev",
      "Nucleus: Opal 520 max",
      "Nucleus: Opal 520 min",
      "Nucleus: Opal 520 range",
      "Nucleus: Opal 540 mean",
      "Nucleus: Opal 540 sum",
      "Nucleus: Opal 540 std dev",
      "Nucleus: Opal 540 max",
      "Nucleus: Opal 540 min",
      "Nucleus: Opal 540 range",
      "Nucleus: Opal 570 mean",
      "Nucleus: Opal 570 sum",
      "Nucleus: Opal 570 std dev",
      "Nucleus: Opal 570 max",
      "Nucleus: Opal 570 min",
      "Nucleus: Opal 570 range",
      "Nucleus: Opal 620 mean",
      "Nucleus: Opal 620 sum",
      "Nucleus: Opal 620 std dev",
      "Nucleus: Opal 620 max",
      "Nucleus: Opal 620 min",
      "Nucleus: Opal 620 range",
      "Nucleus: Opal 650 mean",
      "Nucleus: Opal 650 sum",
      "Nucleus: Opal 650 std dev",
      "Nucleus: Opal 650 max",
      "Nucleus: Opal 650 min",
      "Nucleus: Opal 650 range",
      "Nucleus: Opal 690 mean",
      "Nucleus: Opal 690 sum",
      "Nucleus: Opal 690 std dev",
      "Nucleus: Opal 690 max",
      "Nucleus: Opal 690 min",
      "Nucleus: Opal 690 range",
      "Nucleus: Opal 780 mean",
      "Nucleus: Opal 780 sum",
      "Nucleus: Opal 780 std dev",
      "Nucleus: Opal 780 max",
      "Nucleus: Opal 780 min",
      "Nucleus: Opal 780 range",
      "Nucleus: Autofluorescence mean",
      "Nucleus: Autofluorescence sum",
      "Nucleus: Autofluorescence std dev",
      "Nucleus: Autofluorescence max",
      "Nucleus: Autofluorescence min",
      "Nucleus: Autofluorescence range",
      "Cell: Area",
      "Cell: Perimeter",
      "Cell: Circularity",
      "Cell: Max caliper",
      "Cell: Min caliper",
      "Cell: Eccentricity",
      "Cell: DAPI mean",
      "Cell: DAPI std dev",
      "Cell: DAPI max",
      "Cell: DAPI min",
      "Cell: Opal 480 mean",
      "Cell: Opal 480 std dev",
      "Cell: Opal 480 max",
      "Cell: Opal 480 min",
      "Cell: Opal 520 mean",
      "Cell: Opal 520 std dev",
      "Cell: Opal 520 max",
      "Cell: Opal 520 min",
      "Cell: Opal 540 mean",
      "Cell: Opal 540 std dev",
      "Cell: Opal 540 max",
      "Cell: Opal 540 min",
      "Cell: Opal 570 mean",
      "Cell: Opal 570 std dev",
      "Cell: Opal 570 max",
      "Cell: Opal 570 min",
      "Cell: Opal 620 mean",
      "Cell: Opal 620 std dev",
      "Cell: Opal 620 max",
      "Cell: Opal 620 min",
      "Cell: Opal 650 mean",
      "Cell: Opal 650 std dev",
      "Cell: Opal 650 max",
      "Cell: Opal 650 min",
      "Cell: Opal 690 mean",
      "Cell: Opal 690 std dev",
      "Cell: Opal 690 max",
      "Cell: Opal 690 min",
      "Cell: Opal 780 mean",
      "Cell: Opal 780 std dev",
      "Cell: Opal 780 max",
      "Cell: Opal 780 min",
      "Cell: Autofluorescence mean",
      "Cell: Autofluorescence std dev",
      "Cell: Autofluorescence max",
      "Cell: Autofluorescence min",
      "Cytoplasm: DAPI mean",
      "Cytoplasm: DAPI std dev",
      "Cytoplasm: DAPI max",
      "Cytoplasm: DAPI min",
      "Cytoplasm: Opal 480 mean",
      "Cytoplasm: Opal 480 std dev",
      "Cytoplasm: Opal 480 max",
      "Cytoplasm: Opal 480 min",
      "Cytoplasm: Opal 520 mean",
      "Cytoplasm: Opal 520 std dev",
      "Cytoplasm: Opal 520 max",
      "Cytoplasm: Opal 520 min",
      "Cytoplasm: Opal 540 mean",
      "Cytoplasm: Opal 540 std dev",
      "Cytoplasm: Opal 540 max",
      "Cytoplasm: Opal 540 min",
      "Cytoplasm: Opal 570 mean",
      "Cytoplasm: Opal 570 std dev",
      "Cytoplasm: Opal 570 max",
      "Cytoplasm: Opal 570 min",
      "Cytoplasm: Opal 620 mean",
      "Cytoplasm: Opal 620 std dev",
      "Cytoplasm: Opal 620 max",
      "Cytoplasm: Opal 620 min",
      "Cytoplasm: Opal 650 mean",
      "Cytoplasm: Opal 650 std dev",
      "Cytoplasm: Opal 650 max",
      "Cytoplasm: Opal 650 min",
      "Cytoplasm: Opal 690 mean",
      "Cytoplasm: Opal 690 std dev",
      "Cytoplasm: Opal 690 max",
      "Cytoplasm: Opal 690 min",
      "Cytoplasm: Opal 780 mean",
      "Cytoplasm: Opal 780 std dev",
      "Cytoplasm: Opal 780 max",
      "Cytoplasm: Opal 780 min",
      "Cytoplasm: Autofluorescence mean",
      "Cytoplasm: Autofluorescence std dev",
      "Cytoplasm: Autofluorescence max",
      "Cytoplasm: Autofluorescence min",
      "Nucleus/Cell area ratio"
    ]
  },
  "classifier": {
    "class": "RTrees",
    "statmodel": {
      "opencv_ml_rtrees": {
        "format": 3,
        "is_classifier": 1,
        "var_all": 154,
        "var_count": 153,
        "ord_var_count": 153,
        "cat_var_count": 1,
        "training_params": {
          "use_surrogates": 0,
          "max_categories": 10,
          "regression_accuracy": 0.0,
          "max_depth": 25,
          "min_sample_count": 10,
          "cross_validation_folds": 0,
          "nactive_vars": 0
        },
        "global_var_idx": 1,
        "var_idx": [
          0,
          1,
          2,
          3,
          4,
          5,
          6,
          7,
          8,
          9,
          10,
          11,
          12,
          13,
          14,
          15,
          16,
          17,
          18,
          19,
          20,
          21,
          22,
          23,
          24,
          25,
          26,
          27,
          28,
          29,
          30,
          31,
          32,
          33,
          34,
          35,
          36,
          37,
          38,
          39,
          40,
          41,
          42,
          43,
          44,
          45,
          46,
          47,
          48,
          49,
          50,
          51,
          52,
          53,
          54,
          55,
          56,
          57,
          58,
          59,
          60,
          61,
          62,
          63,
          64,
          65,
          66,
          67,
          68,
          69,
          70,
          71,
          72,
          73,
          74,
          75,
          76,
          77,
          78,
          79,
          80,
          81,
          82,
          83,
          84,
          85,
          86,
          87,
          88,
          89,
          90,
          91,
          92,
          93,
          94,
          95,
          96,
          97,
          98,
          99,
          100,
          101,
          102,
          103,
          104,
          105,
          106,
          107,
          108,
          109,
          110,
          111,
          112,
          113,
          114,
          115,
          116,
          117,
          118,
          119,
          120,
          121,
          122,
          123,
          124,
          125,
          126,
          127,
          128,
          129,
          130,
          131,
          132,
          133,
          134,
          135,
          136,
          137,
          138,
          139,
          140,
          141,
          142,
          143,
          144,
          145,
          146,
          147,
          148,
          149,
          150,
          151,
          152
        ],
        "var_type": [
          0,
          0,
          0,
          0,
          0,
          0,
          0,
          0,
          0,
          0,
          0,
          0,
          0,
          0,
          0,
          0,
          0,
          0,
          0,
          0,
          0,
          0,
          0,
          0,
          0,
          0,
          0,
          0,
          0,
          0,
          0,
          0,
          0,
          0,
          0,
          0,
          0,
          0,
          0,
          0,
          0,
          0,
          0,
          0,
          0,
          0,
          0,
          0,
          0,
          0,
          0,
          0,
          0,
          0,
          0,
          0,
          0,
          0,
          0,
          0,
          0,
          0,
          0,
          0,
          0,
          0,
          0,
          0,
          0,
          0,
          0,
          0,
          0,
          0,
          0,
          0,
          0,
          0,
          0,
          0,
          0,
          0,
          0,
          0,
          0,
          0,
          0,
          0,
          0,
          0,
          0,
          0,
          0,
          0,
          0,
          0,
          0,
          0,
          0,
          0,
          0,
          0,
          0,
          0,
          0,
          0,
          0,
          0,
          0,
          0,
          0,
          0,
          0,
          0,
          0,
          0,
          0,
          0,
          0,
          0,
          0,
          0,
          0,
          0,
          0,
          0,
          0,
          0,
          0,
          0,
          0,
          0,
          0,
          0,
          0,
          0,
          0,
          0,
          0,
          0,
          0,
          0,
          0,
          0,
          0,
          0,
          0,
          0,
          0,
          0,
          0,
          0,
          0,
          1
        ],
        "cat_ofs": [
          0,
          0,
          0,
          0,
          0,
          0,
          0,
          0,
          0,
          0,
          0,
          0,
          0,
          0,
          0,
          0,
          0,
          0,
          0,
          0,
          0,
          0,
          0,
          0,
          0,
          0,
          0,
          0,
          0,
          0,
          0,
          0,
          0,
          0,
          0,
          0,
          0,
          0,
          0,
          0,
          0,
          0,
          0,
          0,
          0,
          0,
          0,
          0,
          0,
          0,
          0,
          0,
          0,
          0,
          0,
          0,
          0,
          0,
          0,
          0,
          0,
          0,
          0,
          0,
          0,
          0,
          0,
          0,
          0,
          0,
          0,
          0,
          0,
          0,
          0,
          0,
          0,
          0,
          0,
          0,
          0,
          0,
          0,
          0,
          0,
          0,
          0,
          0,
          0,
          0,
          0,
          0,
          0,
          0,
          0,
          0,
          0,
          0,
          0,
          0,
          0,
          0,
          0,
          0,
          0,
          0,
          0,
          0,
          0,
          0,
          0,
          0,
          0,
          0,
          0,
          0,
          0,
          0,
          0,
          0,
          0,
          0,
          0,
          0,
          0,
          0,
          0,
          0,
          0,
          0,
          0,
          0,
          0,
          0,
          0,
          0,
          0,
          0,
          0,
          0,
          0,
          0,
          0,
          0,
          0,
          0,
          0,
          0,
          0,
          0,
          0,
          0,
          0,
          0,
          0,
          0,
          0,
          0,
          0,
          0,
          0,
          0,
          0,
          0,
          0,
          0,
          0,
          0,
          0,
          0,
          0,
          0,
          0,
          0,
          0,
          0,
          0,
          0,
          0,
          0,
          0,
          0,
          0,
          0,
          0,
          0,
          0,
          0,
          0,
          0,
          0,
          0,
          0,
          0,
          0,
          0,
          0,
          0,
          0,
          0,
          0,
          0,
          0,
          0,
          0,
          0,
          0,
          0,
          0,
          0,
          0,
          0,
          0,
          0,
          0,
          0,
          0,
          0,
          0,
          0,
          0,
          0,
          0,
          0,
          0,
          0,
          0,
          0,
          0,
          0,
          0,
          0,
          0,
          0,
          0,
          0,
          0,
          0,
          0,
          0,
          0,
          0,
          0,
          0,
          0,
          0,
          0,
          0,
          0,
          0,
          0,
          0,
          0,
          0,
          0,
          0,
          0,
          0,
          0,
          0,
          0,
          0,
          0,
          0,
          0,
          0,
          0,
          0,
          0,
          0,
          0,
          0,
          0,
          0,
          0,
          0,
          0,
          0,
          0,
          0,
          0,
          0,
          0,
          0,
          0,
          0,
          0,
          0,
          0,
          0,
          0,
          0,
          0,
          0,
          0,
          0,
          0,
          0,
          0,
          0,
          0,
          0,
          0,
          0,
          0,
          0
        ],
        "class_labels": [
          0,
          1
        ],
        "missing_subst": [
          0.0,
          0.0,
          0.0,
          0.0,
          0.0,
          0.0,
          0.0,
          0.0,
          0.0,
          0.0,
          0.0,
          0.0,
          0.0,
          0.0,
          0.0,
          0.0,
          0.0,
          0.0,
          0.0,
          0.0,
          0.0,
          0.0,
          0.0,
          0.0,
          0.0,
          0.0,
          0.0,
          0.0,
          0.0,
          0.0,
          0.0,
          0.0,
          0.0,
          0.0,
          0.0,
          0.0,
          0.0,
          0.0,
          0.0,
          0.0,
          0.0,
          0.0,
          0.0,
          0.0,
          0.0,
          0.0,
          0.0,
          0.0,
          0.0,
          0.0,
          0.0,
          0.0,
          0.0,
          0.0,
          0.0,
          0.0,
          0.0,
          0.0,
          0.0,
          0.0,
          0.0,
          0.0,
          0.0,
          0.0,
          0.0,
          0.0,
          0.0,
          0.0,
          0.0,
          0.0,
          0.0,
          0.0,
          0.0,
          0.0,
          0.0,
          0.0,
          0.0,
          0.0,
          0.0,
          0.0,
          0.0,
          0.0,
          0.0,
          0.0,
          0.0,
          0.0,
          0.0,
          0.0,
          0.0,
          0.0,
          0.0,
          0.0,
          0.0,
          0.0,
          0.0,
          0.0,
          0.0,
          0.0,
          0.0,
          0.0,
          0.0,
          0.0,
          0.0,
          0.0,
          0.0,
          0.0,
          0.0,
          0.0,
          0.0,
          0.0,
          0.0,
          0.0,
          0.0,
          0.0,
          0.0,
          0.0,
          0.0,
          0.0,
          0.0,
          0.0,
          0.0,
          0.0,
          0.0,
          0.0,
          0.0,
          0.0,
          0.0,
          0.0,
          0.0,
          0.0,
          0.0,
          0.0,
          0.0,
          0.0,
          0.0,
          0.0,
          0.0,
          0.0,
          0.0,
          0.0,
          0.0,
          0.0,
          0.0,
          0.0,
          0.0,
          0.0,
          0.0,
          0.0,
          0.0,
          0.0,
          0.0,
          0.0,
          0.0,
          0.0
        ],
        "oob_error": 6.1046511627906974e-02,
        "var_importance": [
          6.15363428e-03,
          6.05883030e-03,
          6.03297492e-03,
          6.06744923e-03,
          6.21396396e-03,
          6.09330460e-03,
          6.15363428e-03,
          6.09330460e-03,
          6.10192306e-03,
          6.07606769e-03,
          6.08468615e-03,
          6.13639690e-03,
          6.29153056e-03,
          6.18810859e-03,
          6.16225274e-03,
          6.38633408e-03,
          6.08468615e-03,
          6.10192306e-03,
          1.45567060e-02,
          1.50738182e-02,
          1.09886322e-02,
          1.03939530e-02,
          9.37696639e-03,
          1.22383200e-02,
          6.26567472e-03,
          6.11915998e-03,
          6.24843780e-03,
          6.12777844e-03,
          6.17087120e-03,
          6.08468615e-03,
          6.48975698e-03,
          6.38633408e-03,
          6.13639690e-03,
          6.25705626e-03,
          6.73969416e-03,
          6.17948966e-03,
          6.21396396e-03,
          6.16225274e-03,
          6.92930259e-03,
          6.43804623e-03,
          6.30014902e-03,
          7.35161034e-03,
          6.39495347e-03,
          6.21396396e-03,
          6.18810859e-03,
          6.11054152e-03,
          6.20534550e-03,
          6.11054152e-03,
          6.30876794e-03,
          6.14501582e-03,
          6.20534550e-03,
          6.64489064e-03,
          6.36909716e-03,
          6.53284974e-03,
          6.39495347e-03,
          6.27429364e-03,
          6.07606769e-03,
          6.11054152e-03,
          6.22258242e-03,
          6.05883030e-03,
          6.30014902e-03,
          6.09330460e-03,
          6.25705626e-03,
          6.12777844e-03,
          6.23120088e-03,
          6.00711862e-03,
          6.11915998e-03,
          6.11054152e-03,
          6.11915998e-03,
          6.07606769e-03,
          6.11915998e-03,
          6.05021184e-03,
          6.05883030e-03,
          6.09330460e-03,
          6.12777844e-03,
          6.08468615e-03,
          6.23120088e-03,
          6.36909716e-03,
          6.18810859e-03,
          6.08468615e-03,
          1.00664487e-02,
          8.68748315e-03,
          8.96327756e-03,
          6.27429364e-03,
          6.12777844e-03,
          6.23120088e-03,
          6.13639690e-03,
          6.11054152e-03,
          6.10192306e-03,
          6.13639690e-03,
          6.05883030e-03,
          6.17948966e-03,
          6.11915998e-03,
          6.29153056e-03,
          6.99825026e-03,
          6.16225274e-03,
          6.83449861e-03,
          6.13639690e-03,
          6.13639690e-03,
          6.36047870e-03,
          6.20534550e-03,
          6.38633408e-03,
          6.33462332e-03,
          6.17948966e-03,
          5.98126324e-03,
          6.12777844e-03,
          6.05883030e-03,
          6.27429364e-03,
          6.14501582e-03,
          6.11915998e-03,
          6.14501582e-03,
          6.11054152e-03,
          6.11054152e-03,
          6.10192306e-03,
          6.11915998e-03,
          6.08468615e-03,
          6.17948966e-03,
          6.20534550e-03,
          6.15363428e-03,
          6.08468615e-03,
          7.56707415e-03,
          7.25680683e-03,
          7.01548764e-03,
          6.25705626e-03,
          6.04159338e-03,
          6.06744923e-03,
          6.11915998e-03,
          6.07606769e-03,
          6.25705626e-03,
          6.09330460e-03,
          6.13639690e-03,
          6.18810859e-03,
          6.49837544e-03,
          6.94653951e-03,
          7.50674400e-03,
          6.16225274e-03,
          6.61903480e-03,
          6.17948966e-03,
          6.07606769e-03,
          6.11915998e-03,
          6.45528315e-03,
          6.53284974e-03,
          6.38633408e-03,
          6.12777844e-03,
          6.10192306e-03,
          6.10192306e-03,
          6.09330460e-03,
          6.06744923e-03,
          6.09330460e-03,
          6.22258242e-03,
          6.06744923e-03,
          6.11054152e-03,
          6.11054152e-03
        ],
        "ntrees": 50,
        "trees": [
          {
            "nodes": [
              {
                "depth": 0,
                "value": 1.0,
                "norm_class_idx": 1,
                "splits": [
                  {
                    "var": 22,
                    "quality": 7.3075231933593750e+02,
                    "le": 4.9920642375946045e-01
                  }
                ]
              },
              {
                "depth": 1,
                "value": 1.0,
                "norm_class_idx": 1,
                "splits": [
                  {
                    "var": 82,
                    "quality": 5.8934356689453125e+02,
                    "le": 2.7034382820129395e+00
                  }
                ]
              },
              {
                "depth": 2,
                "value": 1.0,
                "norm_class_idx": 1,
                "splits": [
                  {
                    "var": 30,
                    "quality": 3.7440536499023438e+02,
                    "le": 2.4847382307052612e-01
                  }
                ]
              },
              {
                "depth": 3,
                "value": 1.0,
                "norm_class_idx": 1
              },
              {
                "depth": 3,
                "value": 1.0,
                "norm_class_idx": 1,
                "splits": [
                  {
                    "var": 118,
                    "quality": 3.7107406616210938e+02,
                    "le": 1.5165876388549805e+01
                  }
                ]
              },
              {
                "depth": 4,
                "value": 1.0,
                "norm_class_idx": 1
              },
              {
                "depth": 4,
                "value": 1.0,
                "norm_class_idx": 1,
                "splits": [
                  {
                    "var": 80,
                    "quality": 27.0,
                    "le": 4.8413485288619995e-01
                  }
                ]
              },
              {
                "depth": 5,
                "value": 1.0,
                "norm_class_idx": 1
              },
              {
                "depth": 5,
                "value": 0.0,
                "norm_class_idx": 0
              },
              {
                "depth": 2,
                "value": 1.0,
                "norm_class_idx": 1,
                "splits": [
                  {
                    "var": 122,
                    "quality": 2.7139379882812500e+02,
                    "le": 2.4727377891540527e+00
                  }
                ]
              },
              {
                "depth": 3,
                "value": 0.0,
                "norm_class_idx": 0,
                "splits": [
                  {
                    "var": 38,
                    "quality": 5.1633335113525391e+01,
                    "le": 1.6165635585784912e+00
                  }
                ]
              },
              {
                "depth": 4,
                "value": 0.0,
                "norm_class_idx": 0,
                "splits": [
                  {
                    "var": 93,
                    "quality": 5.0862068176269531e+01,
                    "le": 2.8284645080566406e-01
                  }
                ]
              },
              {
                "depth": 5,
                "value": 1.0,
                "norm_class_idx": 1
              },
              {
                "depth": 5,
                "value": 0.0,
                "norm_class_idx": 0,
                "splits": [
                  {
                    "var": 56,
                    "quality": 5.0777778625488281e+01,
                    "le": 9.8566979169845581e-02
                  }
                ]
              },
              {
                "depth": 6,
                "value": 0.0,
                "norm_class_idx": 0,
                "splits": [
                  {
                    "var": 131,
                    "quality": 1.3125000000000000e+01,
                    "le": 9.1485971212387085e-01
                  }
                ]
              },
              {
                "depth": 7,
                "value": 0.0,
                "norm_class_idx": 0,
                "splits": [
                  {
                    "var": 71,
                    "quality": 1.3600000381469727e+01,
                    "le": 4.9663951992988586e-01
                  }
                ]
              },
              {
                "depth": 8,
                "value": 1.0,
                "norm_class_idx": 1
              },
              {
                "depth": 8,
                "value": 0.0,
                "norm_class_idx": 0
              },
              {
                "depth": 7,
                "value": 1.0,
                "norm_class_idx": 1
              },
              {
                "depth": 6,
                "value": 0.0,
                "norm_class_idx": 0
              },
              {
                "depth": 4,
                "value": 1.0,
                "norm_class_idx": 1
              },
              {
                "depth": 3,
                "value": 1.0,
                "norm_class_idx": 1,
                "splits": [
                  {
                    "var": 48,
                    "quality": 2.3282637023925781e+02,
                    "le": 1.6554111242294312e-01
                  }
                ]
              },
              {
                "depth": 4,
                "value": 1.0,
                "norm_class_idx": 1,
                "splits": [
                  {
                    "var": 18,
                    "quality": 5.3195121765136719e+01,
                    "le": 2.1324818134307861e+00
                  }
                ]
              },
              {
                "depth": 5,
                "value": 1.0,
                "norm_class_idx": 1,
                "splits": [
                  {
                    "var": 104,
                    "quality": 3.9049999237060547e+01,
                    "le": 9.0839910507202148e-01
                  }
                ]
              },
              {
                "depth": 6,
                "value": 1.0,
                "norm_class_idx": 1,
                "splits": [
                  {
                    "var": 134,
                    "quality": 3.8500000000000000e+01,
                    "le": 2.1786623001098633e+00
                  }
                ]
              },
              {
                "depth": 7,
                "value": 1.0,
                "norm_class_idx": 1
              },
              {
                "depth": 7,
                "value": 1.0,
                "norm_class_idx": 1
              },
              {
                "depth": 6,
                "value": 0.0,
                "norm_class_idx": 0
              },
              {
                "depth": 5,
                "value": 0.0,
                "norm_class_idx": 0
              },
              {
                "depth": 4,
                "value": 1.0,
                "norm_class_idx": 1,
                "splits": [
                  {
                    "var": 30,
                    "quality": 2.0423585510253906e+02,
                    "le": 4.6747136116027832e+00
                  }
                ]
              },
              {
                "depth": 5,
                "value": 1.0,
                "norm_class_idx": 1,
                "splits": [
                  {
                    "var": 25,
                    "quality": 2.0461045837402344e+02,
                    "le": 3.5170669555664062e+00
                  }
                ]
              },
              {
                "depth": 6,
                "value": 1.0,
                "norm_class_idx": 1
              },
              {
                "depth": 6,
                "value": 1.0,
                "norm_class_idx": 1,
                "splits": [
                  {
                    "var": 70,
                    "quality": 2.0142105102539062e+02,
                    "le": 1.2727954864501953e+01
                  }
                ]
              },
              {
                "depth": 7,
                "value": 1.0,
                "norm_class_idx": 1
              },
              {
                "depth": 7,
                "value": 1.0,
                "norm_class_idx": 1,
                "splits": [
                  {
                    "var": 128,
                    "quality": 1.7111110687255859e+01,
                    "le": 1.0645380020141602e+00
                  }
                ]
              },
              {
                "depth": 8,
                "value": 0.0,
                "norm_class_idx": 0
              },
              {
                "depth": 8,
                "value": 1.0,
                "norm_class_idx": 1,
                "splits": [
                  {
                    "var": 114,
                    "quality": 17.0,
                    "le": 2.8250975608825684e+00
                  }
                ]
              },
              {
                "depth": 9,
                "value": 0.0,
                "norm_class_idx": 0
              },
              {
                "depth": 9,
                "value": 1.0,
                "norm_class_idx": 1
              },
              {
                "depth": 5,
                "value": 0.0,
                "norm_class_idx": 0
              },
              {
                "depth": 1,
                "value": 0.0,
                "norm_class_idx": 0,
                "splits": [
                  {
                    "var": 102,
                    "quality": 1.9519903564453125e+02,
                    "le": 1.4516460418701172e+01
                  }
                ]
              },
              {
                "depth": 2,
                "value": 0.0,
                "norm_class_idx": 0,
                "splits": [
                  {
                    "var": 0,
                    "quality": 1.7094143676757812e+02,
                    "le": 9.6250000000000000e+00
                  }
                ]
              },
              {
                "depth": 3,
                "value": 1.0,
                "norm_class_idx": 1
              },
              {
                "depth": 3,
                "value": 0.0,
                "norm_class_idx": 0,
                "splits": [
                  {
                    "var": 96,
                    "quality": 1.7127932739257812e+02,
                    "le": 2.2955207824707031e+01
                  }
                ]
              },
              {
                "depth": 4,
                "value": 0.0,
                "norm_class_idx": 0,
                "splits": [
                  {
                    "var": 19,
                    "quality": 174.0,
                    "le": 2.1641830444335938e+02
                  }
                ]
              },
              {
                "depth": 5,
                "value": 0.0,
                "norm_class_idx": 0
              },
              {
                "depth": 5,
                "value": 0.0,
                "norm_class_idx": 0
              },
              {
                "depth": 4,
                "value": 1.0,
                "norm_class_idx": 1
              },
              {
                "depth": 2,
                "value": 1.0,
                "norm_class_idx": 1,
                "splits": [
                  {
                    "var": 34,
                    "quality": 3.7799999237060547e+01,
                    "le": 8.2580056041479111e-03
                  }
                ]
              },
              {
                "depth": 3,
                "value": 0.0,
                "norm_class_idx": 0,
                "splits": [
                  {
                    "var": 6,
                    "quality": 1.2181818008422852e+01,
                    "le": 7.8838605880737305e+00
                  }
                ]
              },
              {
                "depth": 4,
                "value": 0.0,
                "norm_class_idx": 0,
                "splits": [
                  {
                    "var": 145,
                    "quality": 11.0,
                    "le": 3.1987249851226807e-01
                  }
                ]
              },
              {
                "depth": 5,
                "value": 0.0,
                "norm_class_idx": 0
              },
              {
                "depth": 5,
                "value": 1.0,
                "norm_class_idx": 1
              },
              {
                "depth": 4,
                "value": 1.0,
                "norm_class_idx": 1
              },
              {
                "depth": 3,
                "value": 1.0,
                "norm_class_idx": 1,
                "splits": [
                  {
                    "var": 98,
                    "quality": 3.3060607910156250e+01,
                    "le": 2.0162160873413086e+01
                  }
                ]
              },
              {
                "depth": 4,
                "value": 1.0,
                "norm_class_idx": 1,
                "splits": [
                  {
                    "var": 48,
                    "quality": 33.0,
                    "le": 3.3552658557891846e+00
                  }
                ]
              },
              {
                "depth": 5,
                "value": 0.0,
                "norm_class_idx": 0
              },
              {
                "depth": 5,
                "value": 1.0,
                "norm_class_idx": 1
              },
              {
                "depth": 4,
                "value": 0.0,
                "norm_class_idx": 0
              }
            ]
          },
          {
            "nodes": [
              {
                "depth": 0,
                "value": 1.0,
                "norm_class_idx": 1,
                "splits": [
                  {
                    "var": 21,
                    "quality": 7.1924029541015625e+02,
                    "le": 4.0307955741882324e+00
                  }
                ]
              },
              {
                "depth": 1,
                "value": 1.0,
                "norm_class_idx": 1,
                "splits": [
                  {
                    "var": 39,
                    "quality": 5.0771221923828125e+02,
                    "le": 2.6587214469909668e+00
                  }
                ]
              },
              {
                "depth": 2,
                "value": 1.0,
                "norm_class_idx": 1,
                "splits": [
                  {
                    "var": 31,
                    "quality": 1.2617760467529297e+02,
                    "le": 5.4055358886718750e+02
                  }
                ]
              },
              {
                "depth": 3,
                "value": 1.0,
                "norm_class_idx": 1,
                "splits": [
                  {
                    "var": 122,
                    "quality": 1.1580596923828125e+02,
                    "le": 1.2067168235778809e+01
                  }
                ]
              },
              {
                "depth": 4,
                "value": 1.0,
                "norm_class_idx": 1,
                "splits": [
                  {
                    "var": 18,
                    "quality": 1.2544444274902344e+02,
                    "le": 8.2983970642089844e-01
                  }
                ]
              },
              {
                "depth": 5,
                "value": 1.0,
                "norm_class_idx": 1
              },
              {
                "depth": 5,
                "value": 0.0,
                "norm_class_idx": 0,
                "splits": [
                  {
                    "var": 2,
                    "quality": 1.4615385055541992e+01,
                    "le": 7.1174168586730957e-01
                  }
                ]
              },
              {
                "depth": 6,
                "value": 1.0,
                "norm_class_idx": 1
              },
              {
                "depth": 6,
                "value": 0.0,
                "norm_class_idx": 0,
                "splits": [
                  {
                    "var": 98,
                    "quality": 1.1666666984558105e+01,
                    "le": 2.8059440612792969e+01
                  }
                ]
              },
              {
                "depth": 7,
                "value": 0.0,
                "norm_class_idx": 0
              },
              {
                "depth": 7,
                "value": 1.0,
                "norm_class_idx": 1
              },
              {
                "depth": 4,
                "value": 0.0,
                "norm_class_idx": 0
              },
              {
                "depth": 3,
                "value": 1.0,
                "norm_class_idx": 1,
                "splits": [
                  {
                    "var": 81,
                    "quality": 2.2666666030883789e+01,
                    "le": 4.9890577793121338e-01
                  }
                ]
              },
              {
                "depth": 4,
                "value": 1.0,
                "norm_class_idx": 1
              },
              {
                "depth": 4,
                "value": 0.0,
                "norm_class_idx": 0,
                "splits": [
                  {
                    "var": 2,
                    "quality": 12.0,
                    "le": 6.9447273015975952e-01
                  }
                ]
              },
              {
                "depth": 5,
                "value": 1.0,
                "norm_class_idx": 1
              },
              {
                "depth": 5,
                "value": 0.0,
                "norm_class_idx": 0
              },
              {
                "depth": 2,
                "value": 1.0,
                "norm_class_idx": 1,
                "splits": [
                  {
                    "var": 72,
                    "quality": 3.8712625122070312e+02,
                    "le": 2.8449079394340515e-01
                  }
                ]
              },
              {
                "depth": 3,
                "value": 0.0,
                "norm_class_idx": 0
              },
              {
                "depth": 3,
                "value": 1.0,
                "norm_class_idx": 1,
                "splits": [
                  {
                    "var": 35,
                    "quality": 3.8804592895507812e+02,
                    "le": 1.1257936954498291e+00
                  }
                ]
              },
              {
                "depth": 4,
                "value": 0.0,
                "norm_class_idx": 0
              },
              {
                "depth": 4,
                "value": 1.0,
                "norm_class_idx": 1,
                "splits": [
                  {
                    "var": 145,
                    "quality": 3.8630178833007812e+02,
                    "le": 1.0040535032749176e-01
                  }
                ]
              },
              {
                "depth": 5,
                "value": 1.0,
                "norm_class_idx": 1,
                "splits": [
                  {
                    "var": 7,
                    "quality": 25.0,
                    "le": 1.5693386840820312e+02
                  }
                ]
              },
              {
                "depth": 6,
                "value": 0.0,
                "norm_class_idx": 0
              },
              {
                "depth": 6,
                "value": 1.0,
                "norm_class_idx": 1
              },
              {
                "depth": 5,
                "value": 1.0,
                "norm_class_idx": 1,
                "splits": [
                  {
                    "var": 42,
                    "quality": 365.0,
                    "le": 3.5234123229980469e+01
                  }
                ]
              },
              {
                "depth": 6,
                "value": 1.0,
                "norm_class_idx": 1
              },
              {
                "depth": 6,
                "value": 0.0,
                "norm_class_idx": 0
              },
              {
                "depth": 1,
                "value": 0.0,
                "norm_class_idx": 0,
                "splits": [
                  {
                    "var": 52,
                    "quality": 2.6551455688476562e+02,
                    "le": 1.8475684523582458e-01
                  }
                ]
              },
              {
                "depth": 2,
                "value": 0.0,
                "norm_class_idx": 0,
                "splits": [
                  {
                    "var": 57,
                    "quality": 2.1095240783691406e+02,
                    "le": 7.0679616928100586e-01
                  }
                ]
              },
              {
                "depth": 3,
                "value": 0.0,
                "norm_class_idx": 0,
                "splits": [
                  {
                    "var": 136,
                    "quality": 1.0409401702880859e+02,
                    "le": 2.2317661285400391e+01
                  }
                ]
              },
              {
                "depth": 4,
                "value": 0.0,
                "norm_class_idx": 0,
                "splits": [
                  {
                    "var": 121,
                    "quality": 1.0465185546875000e+02,
                    "le": 3.2309889793395996e+00
                  }
                ]
              },
              {
                "depth": 5,
                "value": 0.0,
                "norm_class_idx": 0,
                "splits": [
                  {
                    "var": 74,
                    "quality": 90.0,
                    "le": 2.4319329261779785e+00
                  }
                ]
              },
              {
                "depth": 6,
                "value": 1.0,
                "norm_class_idx": 1
              },
              {
                "depth": 6,
                "value": 0.0,
                "norm_class_idx": 0
              },
              {
                "depth": 5,
                "value": 0.0,
                "norm_class_idx": 0,
                "splits": [
                  {
                    "var": 120,
                    "quality": 2.3385713577270508e+01,
                    "le": 3.7694110870361328e+00
                  }
                ]
              },
              {
                "depth": 6,
                "value": 1.0,
                "norm_class_idx": 1
              },
              {
                "depth": 6,
                "value": 0.0,
                "norm_class_idx": 0,
                "splits": [
                  {
                    "var": 105,
                    "quality": 20.0,
                    "le": 9.0714171528816223e-02
                  }
                ]
              },
              {
                "depth": 7,
                "value": 1.0,
                "norm_class_idx": 1
              },
              {
                "depth": 7,
                "value": 0.0,
                "norm_class_idx": 0
              },
              {
                "depth": 4,
                "value": 1.0,
                "norm_class_idx": 1
              },
              {
                "depth": 3,
                "value": 0.0,
                "norm_class_idx": 0,
                "splits": [
                  {
                    "var": 22,
                    "quality": 1.4124673461914062e+02,
                    "le": 4.8312139511108398e-01
                  }
                ]
              },
              {
                "depth": 4,
                "value": 1.0,
                "norm_class_idx": 1,
                "splits": [
                  {
                    "var": 86,
                    "quality": 4.8782608032226562e+01,
                    "le": 2.1159543991088867e+01
                  }
                ]
              },
              {
                "depth": 5,
                "value": 1.0,
                "norm_class_idx": 1,
                "splits": [
                  {
                    "var": 116,
                    "quality": 4.5261817932128906e+01,
                    "le": 6.2207859009504318e-03
                  }
                ]
              },
              {
                "depth": 6,
                "value": 1.0,
                "norm_class_idx": 1,
                "splits": [
                  {
                    "var": 85,
                    "quality": 25.0,
                    "le": 2.6463484764099121e+00
                  }
                ]
              },
              {
                "depth": 7,
                "value": 1.0,
                "norm_class_idx": 1
              },
              {
                "depth": 7,
                "value": 0.0,
                "norm_class_idx": 0
              },
              {
                "depth": 6,
                "value": 1.0,
                "norm_class_idx": 1,
                "splits": [
                  {
                    "var": 108,
                    "quality": 2.7784679412841797e+01,
                    "le": 1.3321132659912109e+01
                  }
                ]
              },
              {
                "depth": 7,
                "value": 0.0,
                "norm_class_idx": 0,
                "splits": [
                  {
                    "var": 131,
                    "quality": 1.9410715103149414e+01,
                    "le": 1.9168585538864136e-01
                  }
                ]
              },
              {
                "depth": 8,
                "value": 1.0,
                "norm_class_idx": 1
              },
              {
                "depth": 8,
                "value": 0.0,
                "norm_class_idx": 0,
                "splits": [
                  {
                    "var": 22,
                    "quality": 16.0,
                    "le": 1.8317165970802307e-01
                  }
                ]
              },
              {
                "depth": 9,
                "value": 0.0,
                "norm_class_idx": 0
              },
              {
                "depth": 9,
                "value": 1.0,
                "norm_class_idx": 1
              },
              {
                "depth": 7,
                "value": 1.0,
                "norm_class_idx": 1,
                "splits": [
                  {
                    "var": 122,
                    "quality": 1.9399999618530273e+01,
                    "le": 4.3206863403320312e+00
                  }
                ]
              },
              {
                "depth": 8,
                "value": 0.0,
                "norm_class_idx": 0
              },
              {
                "depth": 8,
                "value": 1.0,
                "norm_class_idx": 1
              },
              {
                "depth": 5,
                "value": 0.0,
                "norm_class_idx": 0
              },
              {
                "depth": 4,
                "value": 0.0,
                "norm_class_idx": 0,
                "splits": [
                  {
                    "var": 50,
                    "quality": 1.0268608093261719e+02,
                    "le": 5.4797783493995667e-02
                  }
                ]
              },
              {
                "depth": 5,
                "value": 1.0,
                "norm_class_idx": 1
              },
              {
                "depth": 5,
                "value": 0.0,
                "norm_class_idx": 0,
                "splits": [
                  {
                    "var": 14,
                    "quality": 102.0,
                    "le": 1.3549112714827061e-02
                  }
                ]
              },
              {
                "depth": 6,
                "value": 0.0,
                "norm_class_idx": 0
              },
              {
                "depth": 6,
                "value": 0.0,
                "norm_class_idx": 0
              },
              {
                "depth": 2,
                "value": 1.0,
                "norm_class_idx": 1,
                "splits": [
                  {
                    "var": 78,
                    "quality": 7.1639640808105469e+01,
                    "le": 2.0351499319076538e-01
                  }
                ]
              },
              {
                "depth": 3,
                "value": 0.0,
                "norm_class_idx": 0,
                "splits": [
                  {
                    "var": 150,
                    "quality": 1.0181818008422852e+01,
                    "le": 2.6202329635620117e+01
                  }
                ]
              },
              {
                "depth": 4,
                "value": 0.0,
                "norm_class_idx": 0,
                "splits": [
                  {
                    "var": 11,
                    "quality": 11.0,
                    "le": 1.3951331138610840e+01
                  }
                ]
              },
              {
                "depth": 5,
                "value": 0.0,
                "norm_class_idx": 0
              },
              {
                "depth": 5,
                "value": 1.0,
                "norm_class_idx": 1
              },
              {
                "depth": 4,
                "value": 1.0,
                "norm_class_idx": 1
              },
              {
                "depth": 3,
                "value": 1.0,
                "norm_class_idx": 1,
                "splits": [
                  {
                    "var": 29,
                    "quality": 6.6444442749023438e+01,
                    "le": 2.6904991149902344e+01
                  }
                ]
              },
              {
                "depth": 4,
                "value": 1.0,
                "norm_class_idx": 1,
                "splits": [
                  {
                    "var": 149,
                    "quality": 6.8114288330078125e+01,
                    "le": 2.0227768421173096e+00
                  }
                ]
              },
              {
                "depth": 5,
                "value": 0.0,
                "norm_class_idx": 0
              },
              {
                "depth": 5,
                "value": 1.0,
                "norm_class_idx": 1,
                "splits": [
                  {
                    "var": 134,
                    "quality": 6.8666664123535156e+01,
                    "le": 9.3548297882080078e+00
                  }
                ]
              },
              {
                "depth": 6,
                "value": 0.0,
                "norm_class_idx": 0
              },
              {
                "depth": 6,
                "value": 1.0,
                "norm_class_idx": 1
              },
              {
                "depth": 4,
                "value": 0.0,
                "norm_class_idx": 0
              }
            ]
          },
          {
            "nodes": [
              {
                "depth": 0,
                "value": 1.0,
                "norm_class_idx": 1,
                "splits": [
                  {
                    "var": 40,
                    "quality": 6.0461535644531250e+02,
                    "le": 9.9435359239578247e-02
                  }
                ]
              },
              {
                "depth": 1,
                "value": 0.0,
                "norm_class_idx": 0,
                "splits": [
                  {
                    "var": 152,
                    "quality": 4.8541667938232422e+01,
                    "le": 4.7091782093048096e-01
                  }
                ]
              },
              {
                "depth": 2,
                "value": 0.0,
                "norm_class_idx": 0,
                "splits": [
                  {
                    "var": 116,
                    "quality": 48.0,
                    "le": 3.4244902133941650e+00
                  }
                ]
              },
              {
                "depth": 3,
                "value": 0.0,
                "norm_class_idx": 0
              },
              {
                "depth": 3,
                "value": 1.0,
                "norm_class_idx": 1
              },
              {
                "depth": 2,
                "value": 1.0,
                "norm_class_idx": 1
              },
              {
                "depth": 1,
                "value": 1.0,
                "norm_class_idx": 1,
                "splits": [
                  {
                    "var": 134,
                    "quality": 5.9494348144531250e+02,
                    "le": 5.7790298461914062e+00
                  }
                ]
              },
              {
                "depth": 2,
                "value": 1.0,
                "norm_class_idx": 1,
                "splits": [
                  {
                    "var": 14,
                    "quality": 3.2040756225585938e+02,
                    "le": 8.3468935918062925e-04
                  }
                ]
              },
              {
                "depth": 3,
                "value": 1.0,
                "norm_class_idx": 1,
                "splits": [
                  {
                    "var": 57,
                    "quality": 2.3234866333007812e+02,
                    "le": 6.5995424985885620e-01
                  }
                ]
              },
              {
                "depth": 4,
                "value": 0.0,
                "norm_class_idx": 0,
                "splits": [
                  {
                    "var": 120,
                    "quality": 5.8157142639160156e+01,
                    "le": 3.2925248146057129e-01
                  }
                ]
              },
              {
                "depth": 5,
                "value": 1.0,
                "norm_class_idx": 1,
                "splits": [
                  {
                    "var": 44,
                    "quality": 20.0,
                    "le": 3.0328519344329834e+00
                  }
                ]
              },
              {
                "depth": 6,
                "value": 1.0,
                "norm_class_idx": 1
              },
              {
                "depth": 6,
                "value": 0.0,
                "norm_class_idx": 0
              },
              {
                "depth": 5,
                "value": 0.0,
                "norm_class_idx": 0,
                "splits": [
                  {
                    "var": 44,
                    "quality": 4.9069766998291016e+01,
                    "le": 1.8959176540374756e+00
                  }
                ]
              },
              {
                "depth": 6,
                "value": 0.0,
                "norm_class_idx": 0
              },
              {
                "depth": 6,
                "value": 0.0,
                "norm_class_idx": 0,
                "splits": [
                  {
                    "var": 41,
                    "quality": 2.7776189804077148e+01,
                    "le": 1.4516532421112061e+00
                  }
                ]
              },
              {
                "depth": 7,
                "value": 1.0,
                "norm_class_idx": 1,
                "splits": [
                  {
                    "var": 130,
                    "quality": 1.8142856597900391e+01,
                    "le": 3.1258006095886230e+00
                  }
                ]
              },
              {
                "depth": 8,
                "value": 0.0,
                "norm_class_idx": 0,
                "splits": [
                  {
                    "var": 131,
                    "quality": 14.0,
                    "le": 1.9244992733001709e-01
                  }
                ]
              },
              {
                "depth": 9,
                "value": 1.0,
                "norm_class_idx": 1
              },
              {
                "depth": 9,
                "value": 0.0,
                "norm_class_idx": 0
              },
              {
                "depth": 8,
                "value": 1.0,
                "norm_class_idx": 1,
                "splits": [
                  {
                    "var": 43,
                    "quality": 1.2153845787048340e+01,
                    "le": 1.0873115234375000e+03
                  }
                ]
              },
              {
                "depth": 9,
                "value": 0.0,
                "norm_class_idx": 0
              },
              {
                "depth": 9,
                "value": 1.0,
                "norm_class_idx": 1,
                "splits": [
                  {
                    "var": 132,
                    "quality": 13.0,
                    "le": 6.0549223423004150e-01
                  }
                ]
              },
              {
                "depth": 10,
                "value": 0.0,
                "norm_class_idx": 0
              },
              {
                "depth": 10,
                "value": 1.0,
                "norm_class_idx": 1
              },
              {
                "depth": 7,
                "value": 0.0,
                "norm_class_idx": 0,
                "splits": [
                  {
                    "var": 43,
                    "quality": 15.0,
                    "le": 8.6572187500000000e+03
                  }
                ]
              },
              {
                "depth": 8,
                "value": 0.0,
                "norm_class_idx": 0
              },
              {
                "depth": 8,
                "value": 1.0,
                "norm_class_idx": 1
              },
              {
                "depth": 4,
                "value": 1.0,
                "norm_class_idx": 1,
                "splits": [
                  {
                    "var": 64,
                    "quality": 2.0422102355957031e+02,
                    "le": 1.3175181388854980e+01
                  }
                ]
              },
              {
                "depth": 5,
                "value": 1.0,
                "norm_class_idx": 1,
                "splits": [
                  {
                    "var": 35,
                    "quality": 1.9030657958984375e+02,
                    "le": 2.5841131210327148e+00
                  }
                ]
              },
              {
                "depth": 6,
                "value": 1.0,
                "norm_class_idx": 1,
                "splits": [
                  {
                    "var": 31,
                    "quality": 1.0998837280273438e+02,
                    "le": 9.9005340576171875e+01
                  }
                ]
              },
              {
                "depth": 7,
                "value": 0.0,
                "norm_class_idx": 0,
                "splits": [
                  {
                    "var": 69,
                    "quality": 12.0,
                    "le": 9.4886713027954102e+00
                  }
                ]
              },
              {
                "depth": 8,
                "value": 1.0,
                "norm_class_idx": 1
              },
              {
                "depth": 8,
                "value": 0.0,
                "norm_class_idx": 0
              },
              {
                "depth": 7,
                "value": 1.0,
                "norm_class_idx": 1,
                "splits": [
                  {
                    "var": 23,
                    "quality": 1.1185713958740234e+02,
                    "le": 2.4587435722351074e+00
                  }
                ]
              },
              {
                "depth": 8,
                "value": 1.0,
                "norm_class_idx": 1
              },
              {
                "depth": 8,
                "value": 1.0,
                "norm_class_idx": 1,
                "splits": [
                  {
                    "var": 55,
                    "quality": 2.5769229888916016e+01,
                    "le": 5.4545295715332031e+01
                  }
                ]
              },
              {
                "depth": 9,
                "value": 0.0,
                "norm_class_idx": 0
              },
              {
                "depth": 9,
                "value": 1.0,
                "norm_class_idx": 1,
                "splits": [
                  {
                    "var": 6,
                    "quality": 2.0545454025268555e+01,
                    "le": 3.5401246547698975e+00
                  }
                ]
              },
              {
                "depth": 10,
                "value": 1.0,
                "norm_class_idx": 1
              },
              {
                "depth": 10,
                "value": 0.0,
                "norm_class_idx": 0,
                "splits": [
                  {
                    "var": 34,
                    "quality": 9.3333330154418945e+00,
                    "le": 6.0378295183181763e-01
                  }
                ]
              },
              {
                "depth": 11,
                "value": 1.0,
                "norm_class_idx": 1
              },
              {
                "depth": 11,
                "value": 0.0,
                "norm_class_idx": 0
              },
              {
                "depth": 6,
                "value": 1.0,
                "norm_class_idx": 1,
                "splits": [
                  {
                    "var": 105,
                    "quality": 9.8436592102050781e+01,
                    "le": 1.8750488758087158e-01
                  }
                ]
              },
              {
                "depth": 7,
                "value": 0.0,
                "norm_class_idx": 0,
                "splits": [
                  {
                    "var": 80,
                    "quality": 8.8566238403320312e+01,
                    "le": 6.2128412723541260e-01
                  }
                ]
              },
              {
                "depth": 8,
                "value": 1.0,
                "norm_class_idx": 1,
                "splits": [
                  {
                    "var": 136,
                    "quality": 3.7052631378173828e+01,
                    "le": 9.6344890594482422e+00
                  }
                ]
              },
              {
                "depth": 9,
                "value": 0.0,
                "norm_class_idx": 0
              },
              {
                "depth": 9,
                "value": 1.0,
                "norm_class_idx": 1,
                "splits": [
                  {
                    "var": 66,
                    "quality": 38.0,
                    "le": 6.5375000000000000e+01
                  }
                ]
              },
              {
                "depth": 10,
                "value": 0.0,
                "norm_class_idx": 0
              },
              {
                "depth": 10,
                "value": 1.0,
                "norm_class_idx": 1
              },
              {
                "depth": 8,
                "value": 0.0,
                "norm_class_idx": 0,
                "splits": [
                  {
                    "var": 21,
                    "quality": 5.9441177368164062e+01,
                    "le": 3.0488991737365723e+00
                  }
                ]
              },
              {
                "depth": 9,
                "value": 1.0,
                "norm_class_idx": 1
              },
              {
                "depth": 9,
                "value": 0.0,
                "norm_class_idx": 0,
                "splits": [
                  {
                    "var": 77,
                    "quality": 5.8866512298583984e+01,
                    "le": 5.6617724895477295e-01
                  }
                ]
              },
              {
                "depth": 10,
                "value": 0.0,
                "norm_class_idx": 0,
                "splits": [
                  {
                    "var": 69,
                    "quality": 5.7701148986816406e+01,
                    "le": 1.8521366119384766e+01
                  }
                ]
              },
              {
                "depth": 11,
                "value": 0.0,
                "norm_class_idx": 0,
                "splits": [
                  {
                    "var": 123,
                    "quality": 5.6666667938232422e+01,
                    "le": 1.5572860836982727e-01
                  }
                ]
              },
              {
                "depth": 12,
                "value": 0.0,
                "norm_class_idx": 0
              },
              {
                "depth": 12,
                "value": 0.0,
                "norm_class_idx": 0
              },
              {
                "depth": 11,
                "value": 1.0,
                "norm_class_idx": 1
              },
              {
                "depth": 10,
                "value": 1.0,
                "norm_class_idx": 1
              },
              {
                "depth": 7,
                "value": 1.0,
                "norm_class_idx": 1,
                "splits": [
                  {
                    "var": 9,
                    "quality": 4.8572795867919922e+01,
                    "le": 1.2944381713867188e+01
                  }
                ]
              },
              {
                "depth": 8,
                "value": 1.0,
                "norm_class_idx": 1,
                "splits": [
                  {
                    "var": 111,
                    "quality": 1.8607843399047852e+01,
                    "le": 3.9981210231781006e+00
                  }
                ]
              },
              {
                "depth": 9,
                "value": 1.0,
                "norm_class_idx": 1,
                "splits": [
                  {
                    "var": 10,
                    "quality": 12.0,
                    "le": 2.4131088256835938e+00
                  }
                ]
              },
              {
                "depth": 10,
                "value": 1.0,
                "norm_class_idx": 1
              },
              {
                "depth": 10,
                "value": 0.0,
                "norm_class_idx": 0
              },
              {
                "depth": 9,
                "value": 0.0,
                "norm_class_idx": 0,
                "splits": [
                  {
                    "var": 23,
                    "quality": 17.0,
                    "le": 2.6474699974060059e+00
                  }
                ]
              },
              {
                "depth": 10,
                "value": 1.0,
                "norm_class_idx": 1
              },
              {
                "depth": 10,
                "value": 0.0,
                "norm_class_idx": 0
              },
              {
                "depth": 8,
                "value": 1.0,
                "norm_class_idx": 1,
                "splits": [
                  {
                    "var": 147,
                    "quality": 3.4500000000000000e+01,
                    "le": 3.2099461555480957e-01
                  }
                ]
              },
              {
                "depth": 9,
                "value": 1.0,
                "norm_class_idx": 1
              },
              {
                "depth": 9,
                "value": 1.0,
                "norm_class_idx": 1
              },
              {
                "depth": 5,
                "value": 0.0,
                "norm_class_idx": 0,
                "splits": [
                  {
                    "var": 152,
                    "quality": 2.7266666412353516e+01,
                    "le": 1.9933289289474487e-01
                  }
                ]
              },
              {
                "depth": 6,
                "value": 1.0,
                "norm_class_idx": 1
              },
              {
                "depth": 6,
                "value": 0.0,
                "norm_class_idx": 0,
                "splits": [
                  {
                    "var": 121,
                    "quality": 30.0,
                    "le": 2.3043029010295868e-01
                  }
                ]
              },
              {
                "depth": 7,
                "value": 1.0,
                "norm_class_idx": 1
              },
              {
                "depth": 7,
                "value": 0.0,
                "norm_class_idx": 0
              },
              {
                "depth": 3,
                "value": 1.0,
                "norm_class_idx": 1,
                "splits": [
                  {
                    "var": 61,
                    "quality": 1.0121123504638672e+02,
                    "le": 5.6308740234375000e+03
                  }
                ]
              },
              {
                "depth": 4,
                "value": 1.0,
                "norm_class_idx": 1,
                "splits": [
                  {
                    "var": 18,
                    "quality": 1.0520420837402344e+02,
                    "le": 1.6918528079986572e+00
                  }
                ]
              },
              {
                "depth": 5,
                "value": 1.0,
                "norm_class_idx": 1,
                "splits": [
                  {
                    "var": 20,
                    "quality": 9.8599998474121094e+01,
                    "le": 1.0053721666336060e+00
                  }
                ]
              },
              {
                "depth": 6,
                "value": 1.0,
                "norm_class_idx": 1
              },
              {
                "depth": 6,
                "value": 1.0,
                "norm_class_idx": 1
              },
              {
                "depth": 5,
                "value": 0.0,
                "norm_class_idx": 0,
                "splits": [
                  {
                    "var": 100,
                    "quality": 16.0,
                    "le": 8.6158156394958496e-02
                  }
                ]
              },
              {
                "depth": 6,
                "value": 1.0,
                "norm_class_idx": 1
              },
              {
                "depth": 6,
                "value": 0.0,
                "norm_class_idx": 0
              },
              {
                "depth": 4,
                "value": 0.0,
                "norm_class_idx": 0
              },
              {
                "depth": 2,
                "value": 1.0,
                "norm_class_idx": 1,
                "splits": [
                  {
                    "var": 23,
                    "quality": 2.9672323608398438e+02,
                    "le": 4.3874187469482422e+00
                  }
                ]
              },
              {
                "depth": 3,
                "value": 1.0,
                "norm_class_idx": 1,
                "splits": [
                  {
                    "var": 25,
                    "quality": 2.4307258605957031e+02,
                    "le": 3.3336933593750000e+03
                  }
                ]
              },
              {
                "depth": 4,
                "value": 1.0,
                "norm_class_idx": 1,
                "splits": [
                  {
                    "var": 82,
                    "quality": 2.4226728820800781e+02,
                    "le": 5.3004369735717773e+00
                  }
                ]
              },
              {
                "depth": 5,
                "value": 1.0,
                "norm_class_idx": 1,
                "splits": [
                  {
                    "var": 46,
                    "quality": 2.1516667175292969e+02,
                    "le": 1.1672924041748047e+01
                  }
                ]
              },
              {
                "depth": 6,
                "value": 1.0,
                "norm_class_idx": 1
              },
              {
                "depth": 6,
                "value": 1.0,
                "norm_class_idx": 1,
                "splits": [
                  {
                    "var": 23,
                    "quality": 12.0,
                    "le": 2.4384765625000000e+00
                  }
                ]
              },
              {
                "depth": 7,
                "value": 1.0,
                "norm_class_idx": 1
              },
              {
                "depth": 7,
                "value": 0.0,
                "norm_class_idx": 0
              },
              {
                "depth": 5,
                "value": 1.0,
                "norm_class_idx": 1,
                "splits": [
                  {
                    "var": 122,
                    "quality": 31.0,
                    "le": 5.4133586883544922e+00
                  }
                ]
              },
              {
                "depth": 6,
                "value": 0.0,
                "norm_class_idx": 0
              },
              {
                "depth": 6,
                "value": 1.0,
                "norm_class_idx": 1
              },
              {
                "depth": 4,
                "value": 0.0,
                "norm_class_idx": 0
              },
              {
                "depth": 3,
                "value": 1.0,
                "norm_class_idx": 1,
                "splits": [
                  {
                    "var": 41,
                    "quality": 6.6666664123535156e+01,
                    "le": 4.1877903938293457e+00
                  }
                ]
              },
              {
                "depth": 4,
                "value": 0.0,
                "norm_class_idx": 0
              },
              {
                "depth": 4,
                "value": 1.0,
                "norm_class_idx": 1,
                "splits": [
                  {
                    "var": 139,
                    "quality": 6.3666667938232422e+01,
                    "le": 4.9014849662780762e+00
                  }
                ]
              },
              {
                "depth": 5,
                "value": 1.0,
                "norm_class_idx": 1,
                "splits": [
                  {
                    "var": 87,
                    "quality": 5.8033897399902344e+01,
                    "le": 2.0834810733795166e+00
                  }
                ]
              },
              {
                "depth": 6,
                "value": 1.0,
                "norm_class_idx": 1,
                "splits": [
                  {
                    "var": 117,
                    "quality": 5.7500000000000000e+01,
                    "le": 7.5771943666040897e-03
                  }
                ]
              },
              {
                "depth": 7,
                "value": 1.0,
                "norm_class_idx": 1
              },
              {
                "depth": 7,
                "value": 1.0,
                "norm_class_idx": 1
              },
              {
                "depth": 6,
                "value": 0.0,
                "norm_class_idx": 0
              },
              {
                "depth": 5,
                "value": 0.0,
                "norm_class_idx": 0,
                "splits": [
                  {
                    "var": 93,
                    "quality": 1.1888889312744141e+01,
                    "le": 8.5958070755004883e+00
                  }
                ]
              },
              {
                "depth": 6,
                "value": 1.0,
                "norm_class_idx": 1
              },
              {
                "depth": 6,
                "value": 0.0,
                "norm_class_idx": 0
              }
            ]
          },
          {
            "nodes": [
              {
                "depth": 0,
                "value": 1.0,
                "norm_class_idx": 1,
                "splits": [
                  {
                    "var": 23,
                    "quality": 7.0737536621093750e+02,
                    "le": 3.0130491256713867e+00
                  }
                ]
              },
              {
                "depth": 1,
                "value": 1.0,
                "norm_class_idx": 1,
                "splits": [
                  {
                    "var": 109,
                    "quality": 4.9365249633789062e+02,
                    "le": 1.2099833488464355e+00
                  }
                ]
              },
              {
                "depth": 2,
                "value": 0.0,
                "norm_class_idx": 0
              },
              {
                "depth": 2,
                "value": 1.0,
                "norm_class_idx": 1,
                "splits": [
                  {
                    "var": 151,
                    "quality": 4.9368252563476562e+02,
                    "le": 1.2351482391357422e+01
                  }
                ]
              },
              {
                "depth": 3,
                "value": 1.0,
                "norm_class_idx": 1,
                "splits": [
                  {
                    "var": 65,
                    "quality": 4.8632208251953125e+02,
                    "le": 2.7906489372253418e+00
                  }
                ]
              },
              {
                "depth": 4,
                "value": 0.0,
                "norm_class_idx": 0
              },
              {
                "depth": 4,
                "value": 1.0,
                "norm_class_idx": 1,
                "splits": [
                  {
                    "var": 23,
                    "quality": 4.8820431518554688e+02,
                    "le": 2.5787353515625000e+00
                  }
                ]
              },
              {
                "depth": 5,
                "value": 1.0,
                "norm_class_idx": 1,
                "splits": [
                  {
                    "var": 31,
                    "quality": 4.6118182373046875e+02,
                    "le": 4.6138046264648438e+01
                  }
                ]
              },
              {
                "depth": 6,
                "value": 1.0,
                "norm_class_idx": 1,
                "splits": [
                  {
                    "var": 37,
                    "quality": 11.0,
                    "le": 4.9473132324218750e+02
                  }
                ]
              },
              {
                "depth": 7,
                "value": 1.0,
                "norm_class_idx": 1
              },
              {
                "depth": 7,
                "value": 0.0,
                "norm_class_idx": 0
              },
              {
                "depth": 6,
                "value": 1.0,
                "norm_class_idx": 1
              },
              {
                "depth": 5,
                "value": 1.0,
                "norm_class_idx": 1,
                "splits": [
                  {
                    "var": 80,
                    "quality": 3.8060607910156250e+01,
                    "le": 5.8959501981735229e-01
                  }
                ]
              },
              {
                "depth": 6,
                "value": 0.0,
                "norm_class_idx": 0
              },
              {
                "depth": 6,
                "value": 1.0,
                "norm_class_idx": 1,
                "splits": [
                  {
                    "var": 29,
                    "quality": 3.1666666030883789e+01,
                    "le": 4.3749623298645020e+00
                  }
                ]
              },
              {
                "depth": 7,
                "value": 1.0,
                "norm_class_idx": 1
              },
              {
                "depth": 7,
                "value": 1.0,
                "norm_class_idx": 1
              },
              {
                "depth": 3,
                "value": 1.0,
                "norm_class_idx": 1,
                "splits": [
                  {
                    "var": 0,
                    "quality": 14.0,
                    "le": 4.2500000000000000e+01
                  }
                ]
              },
              {
                "depth": 4,
                "value": 1.0,
                "norm_class_idx": 1
              },
              {
                "depth": 4,
                "value": 0.0,
                "norm_class_idx": 0
              },
              {
                "depth": 1,
                "value": 0.0,
                "norm_class_idx": 0,
                "splits": [
                  {
                    "var": 133,
                    "quality": 2.8971026611328125e+02,
                    "le": 2.0371065139770508e+00
                  }
                ]
              },
              {
                "depth": 2,
                "value": 0.0,
                "norm_class_idx": 0,
                "splits": [
                  {
                    "var": 66,
                    "quality": 1.8870484924316406e+02,
                    "le": 1.7062500000000000e+02
                  }
                ]
              },
              {
                "depth": 3,
                "value": 0.0,
                "norm_class_idx": 0,
                "splits": [
                  {
                    "var": 51,
                    "quality": 1.8134159851074219e+02,
                    "le": 1.4197607994079590e+01
                  }
                ]
              },
              {
                "depth": 4,
                "value": 0.0,
                "norm_class_idx": 0,
                "splits": [
                  {
                    "var": 4,
                    "quality": 1.8213613891601562e+02,
                    "le": 8.4997997283935547e+00
                  }
                ]
              },
              {
                "depth": 5,
                "value": 0.0,
                "norm_class_idx": 0,
                "splits": [
                  {
                    "var": 93,
                    "quality": 1.6869461059570312e+02,
                    "le": 4.0053397417068481e-01
                  }
                ]
              },
              {
                "depth": 6,
                "value": 0.0,
                "norm_class_idx": 0,
                "splits": [
                  {
                    "var": 88,
                    "quality": 5.2603664398193359e+01,
                    "le": 1.8036313056945801e+00
                  }
                ]
              },
              {
                "depth": 7,
                "value": 0.0,
                "norm_class_idx": 0,
                "splits": [
                  {
                    "var": 42,
                    "quality": 4.4855297088623047e+01,
                    "le": 1.4944139480590820e+01
                  }
                ]
              },
              {
                "depth": 8,
                "value": 0.0,
                "norm_class_idx": 0,
                "splits": [
                  {
                    "var": 56,
                    "quality": 1.4800000190734863e+01,
                    "le": 8.0427311360836029e-02
                  }
                ]
              },
              {
                "depth": 9,
                "value": 0.0,
                "norm_class_idx": 0
              },
              {
                "depth": 9,
                "value": 1.0,
                "norm_class_idx": 1
              },
              {
                "depth": 8,
                "value": 0.0,
                "norm_class_idx": 0,
                "splits": [
                  {
                    "var": 107,
                    "quality": 3.9195121765136719e+01,
                    "le": 3.0803194642066956e-01
                  }
                ]
              },
              {
                "depth": 9,
                "value": 0.0,
                "norm_class_idx": 0,
                "splits": [
                  {
                    "var": 19,
                    "quality": 3.9666667938232422e+01,
                    "le": 2.5281799316406250e+02
                  }
                ]
              },
              {
                "depth": 10,
                "value": 1.0,
                "norm_class_idx": 1
              },
              {
                "depth": 10,
                "value": 0.0,
                "norm_class_idx": 0
              },
              {
                "depth": 9,
                "value": 1.0,
                "norm_class_idx": 1
              },
              {
                "depth": 7,
                "value": 1.0,
                "norm_class_idx": 1,
                "splits": [
                  {
                    "var": 59,
                    "quality": 1.5142857551574707e+01,
                    "le": 4.4614255428314209e-01
                  }
                ]
              },
              {
                "depth": 8,
                "value": 1.0,
                "norm_class_idx": 1,
                "splits": [
                  {
                    "var": 73,
                    "quality": 14.0,
                    "le": 8.6397600173950195e-01
                  }
                ]
              },
              {
                "depth": 9,
                "value": 0.0,
                "norm_class_idx": 0
              },
              {
                "depth": 9,
                "value": 1.0,
                "norm_class_idx": 1
              },
              {
                "depth": 8,
                "value": 0.0,
                "norm_class_idx": 0
              },
              {
                "depth": 6,
                "value": 0.0,
                "norm_class_idx": 0,
                "splits": [
                  {
                    "var": 19,
                    "quality": 1.2813287353515625e+02,
                    "le": 7.1287368774414062e+01
                  }
                ]
              },
              {
                "depth": 7,
                "value": 1.0,
                "norm_class_idx": 1
              },
              {
                "depth": 7,
                "value": 0.0,
                "norm_class_idx": 0,
                "splits": [
                  {
                    "var": 54,
                    "quality": 1.2684195709228516e+02,
                    "le": 5.2578389644622803e-01
                  }
                ]
              },
              {
                "depth": 8,
                "value": 0.0,
                "norm_class_idx": 0,
                "splits": [
                  {
                    "var": 5,
                    "quality": 8.4142860412597656e+01,
                    "le": 4.7611308097839355e-01
                  }
                ]
              },
              {
                "depth": 9,
                "value": 0.0,
                "norm_class_idx": 0
              },
              {
                "depth": 9,
                "value": 0.0,
                "norm_class_idx": 0
              },
              {
                "depth": 8,
                "value": 0.0,
                "norm_class_idx": 0,
                "splits": [
                  {
                    "var": 15,
                    "quality": 4.6925926208496094e+01,
                    "le": 1.2535566091537476e-01
                  }
                ]
              },
              {
                "depth": 9,
                "value": 0.0,
                "norm_class_idx": 0,
                "splits": [
                  {
                    "var": 129,
                    "quality": 4.7019607543945312e+01,
                    "le": 4.0309697389602661e-01
                  }
                ]
              },
              {
                "depth": 10,
                "value": 1.0,
                "norm_class_idx": 1
              },
              {
                "depth": 10,
                "value": 0.0,
                "norm_class_idx": 0,
                "splits": [
                  {
                    "var": 121,
                    "quality": 4.7159999847412109e+01,
                    "le": 5.0004806518554688e+00
                  }
                ]
              },
              {
                "depth": 11,
                "value": 0.0,
                "norm_class_idx": 0,
                "splits": [
                  {
                    "var": 39,
                    "quality": 4.7041667938232422e+01,
                    "le": 2.5037896633148193e+00
                  }
                ]
              },
              {
                "depth": 12,
                "value": 0.0,
                "norm_class_idx": 0
              },
              {
                "depth": 12,
                "value": 0.0,
                "norm_class_idx": 0,
                "splits": [
                  {
                    "var": 113,
                    "quality": 4.6200000762939453e+01,
                    "le": 1.4470567703247070e+00
                  }
                ]
              },
              {
                "depth": 13,
                "value": 0.0,
                "norm_class_idx": 0
              },
              {
                "depth": 13,
                "value": 0.0,
                "norm_class_idx": 0
              },
              {
                "depth": 11,
                "value": 1.0,
                "norm_class_idx": 1
              },
              {
                "depth": 9,
                "value": 1.0,
                "norm_class_idx": 1
              },
              {
                "depth": 5,
                "value": 0.0,
                "norm_class_idx": 0,
                "splits": [
                  {
                    "var": 121,
                    "quality": 2.7523809432983398e+01,
                    "le": 9.8993968963623047e-01
                  }
                ]
              },
              {
                "depth": 6,
                "value": 0.0,
                "norm_class_idx": 0,
                "splits": [
                  {
                    "var": 69,
                    "quality": 1.6200000762939453e+01,
                    "le": 1.5731658935546875e+01
                  }
                ]
              },
              {
                "depth": 7,
                "value": 0.0,
                "norm_class_idx": 0
              },
              {
                "depth": 7,
                "value": 0.0,
                "norm_class_idx": 0
              },
              {
                "depth": 6,
                "value": 1.0,
                "norm_class_idx": 1,
                "splits": [
                  {
                    "var": 21,
                    "quality": 1.6125000000000000e+01,
                    "le": 1.6343893051147461e+01
                  }
                ]
              },
              {
                "depth": 7,
                "value": 1.0,
                "norm_class_idx": 1,
                "splits": [
                  {
                    "var": 148,
                    "quality": 1.4666666984558105e+01,
                    "le": 1.0909095764160156e+01
                  }
                ]
              },
              {
                "depth": 8,
                "value": 1.0,
                "norm_class_idx": 1
              },
              {
                "depth": 8,
                "value": 1.0,
                "norm_class_idx": 1
              },
              {
                "depth": 7,
                "value": 0.0,
                "norm_class_idx": 0
              },
              {
                "depth": 4,
                "value": 1.0,
                "norm_class_idx": 1
              },
              {
                "depth": 3,
                "value": 1.0,
                "norm_class_idx": 1,
                "splits": [
                  {
                    "var": 110,
                    "quality": 1.9523809432983398e+01,
                    "le": 2.4620052337646484e+01
                  }
                ]
              },
              {
                "depth": 4,
                "value": 1.0,
                "norm_class_idx": 1,
                "splits": [
                  {
                    "var": 62,
                    "quality": 1.9111110687255859e+01,
                    "le": 9.5058405399322510e-01
                  }
                ]
              },
              {
                "depth": 5,
                "value": 0.0,
                "norm_class_idx": 0
              },
              {
                "depth": 5,
                "value": 1.0,
                "norm_class_idx": 1,
                "splits": [
                  {
                    "var": 63,
                    "quality": 1.6666666030883789e+01,
                    "le": 2.0794960021972656e+01
                  }
                ]
              },
              {
                "depth": 6,
                "value": 1.0,
                "norm_class_idx": 1
              },
              {
                "depth": 6,
                "value": 1.0,
                "norm_class_idx": 1
              },
              {
                "depth": 4,
                "value": 0.0,
                "norm_class_idx": 0
              },
              {
                "depth": 2,
                "value": 1.0,
                "norm_class_idx": 1,
                "splits": [
                  {
                    "var": 125,
                    "quality": 1.1453845977783203e+02,
                    "le": 9.1377506256103516e+00
                  }
                ]
              },
              {
                "depth": 3,
                "value": 1.0,
                "norm_class_idx": 1,
                "splits": [
                  {
                    "var": 149,
                    "quality": 1.1680891418457031e+02,
                    "le": 2.7644381523132324e+00
                  }
                ]
              },
              {
                "depth": 4,
                "value": 1.0,
                "norm_class_idx": 1,
                "splits": [
                  {
                    "var": 54,
                    "quality": 1.5800000190734863e+01,
                    "le": 2.7014142274856567e-01
                  }
                ]
              },
              {
                "depth": 5,
                "value": 1.0,
                "norm_class_idx": 1
              },
              {
                "depth": 5,
                "value": 0.0,
                "norm_class_idx": 0
              },
              {
                "depth": 4,
                "value": 1.0,
                "norm_class_idx": 1,
                "splits": [
                  {
                    "var": 152,
                    "quality": 1.0901818084716797e+02,
                    "le": 1.9619998335838318e-01
                  }
                ]
              },
              {
                "depth": 5,
                "value": 0.0,
                "norm_class_idx": 0
              },
              {
                "depth": 5,
                "value": 1.0,
                "norm_class_idx": 1,
                "splits": [
                  {
                    "var": 78,
                    "quality": 1.0866666412353516e+02,
                    "le": 9.9266655743122101e-02
                  }
                ]
              },
              {
                "depth": 6,
                "value": 1.0,
                "norm_class_idx": 1
              },
              {
                "depth": 6,
                "value": 1.0,
                "norm_class_idx": 1
              },
              {
                "depth": 3,
                "value": 0.0,
                "norm_class_idx": 0
              }
            ]
          },
          {
            "nodes": [
              {
                "depth": 0,
                "value": 1.0,
                "norm_class_idx": 1,
                "splits": [
                  {
                    "var": 18,
                    "quality": 7.3244268798828125e+02,
                    "le": 1.6873950958251953e+00
                  }
                ]
              },
              {
                "depth": 1,
                "value": 1.0,
                "norm_class_idx": 1,
                "splits": [
                  {
                    "var": 18,
                    "quality": 5.6155401611328125e+02,
                    "le": 9.4322943687438965e-01
                  }
                ]
              },
              {
                "depth": 2,
                "value": 1.0,
                "norm_class_idx": 1,
                "splits": [
                  {
                    "var": 26,
                    "quality": 4.7640243530273438e+02,
                    "le": 3.6429810523986816e+00
                  }
                ]
              },
              {
                "depth": 3,
                "value": 1.0,
                "norm_class_idx": 1,
                "splits": [
                  {
                    "var": 42,
                    "quality": 4.6001727294921875e+02,
                    "le": 3.8555007934570312e+01
                  }
                ]
              },
              {
                "depth": 4,
                "value": 1.0,
                "norm_class_idx": 1,
                "splits": [
                  {
                    "var": 30,
                    "quality": 4.5914730834960938e+02,
                    "le": 6.3588166236877441e-01
                  }
                ]
              },
              {
                "depth": 5,
                "value": 1.0,
                "norm_class_idx": 1,
                "splits": [
                  {
                    "var": 30,
                    "quality": 14.0,
                    "le": 6.2009751796722412e-01
                  }
                ]
              },
              {
                "depth": 6,
                "value": 1.0,
                "norm_class_idx": 1
              },
              {
                "depth": 6,
                "value": 0.0,
                "norm_class_idx": 0
              },
              {
                "depth": 5,
                "value": 1.0,
                "norm_class_idx": 1,
                "splits": [
                  {
                    "var": 96,
                    "quality": 4.4750000000000000e+02,
                    "le": 2.5075870513916016e+01
                  }
                ]
              },
