{
  "object_classifier_type": "OpenCVMLClassifier",
  "featureExtractor": {
    "feature_extractor_type": "DefaultFeatureExtractor",
    "measurements": [
      "Nucleus: Area",
      "Nucleus: Perimeter",
      "Nucleus: Circularity",
      "Nucleus: Max caliper",
      "Nucleus: Min caliper",
      "Nucleus: Eccentricity",
      "Nucleus: DAPI mean",
      "Nucleus: DAPI sum",
      "Nucleus: DAPI std dev",
      "Nucleus: DAPI max",
      "Nucleus: DAPI min",
      "Nucleus: DAPI range",
      "Nucleus: Opal 480 mean",
      "Nucleus: Opal 480 sum",
      "Nucleus: Opal 480 std dev",
      "Nucleus: Opal 480 max",
      "Nucleus: Opal 480 min",
      "Nucleus: Opal 480 range",
      "Nucleus: Opal 520 mean",
      "Nucleus: Opal 520 sum",
      "Nucleus: Opal 520 std dev",
      "Nucleus: Opal 520 max",
      "Nucleus: Opal 520 min",
      "Nucleus: Opal 520 range",
      "Nucleus: Opal 540 mean",
      "Nucleus: Opal 540 sum",
      "Nucleus: Opal 540 std dev",
      "Nucleus: Opal 540 max",
      "Nucleus: Opal 540 min",
      "Nucleus: Opal 540 range",
      "Nucleus: Opal 570 mean",
      "Nucleus: Opal 570 sum",
      "Nucleus: Opal 570 std dev",
      "Nucleus: Opal 570 max",
      "Nucleus: Opal 570 min",
      "Nucleus: Opal 570 range",
      "Nucleus: Opal 620 mean",
      "Nucleus: Opal 620 sum",
      "Nucleus: Opal 620 std dev",
      "Nucleus: Opal 620 max",
      "Nucleus: Opal 620 min",
      "Nucleus: Opal 620 range",
      "Nucleus: Opal 650 mean",
      "Nucleus: Opal 650 sum",
      "Nucleus: Opal 650 std dev",
      "Nucleus: Opal 650 max",
      "Nucleus: Opal 650 min",
      "Nucleus: Opal 650 range",
      "Nucleus: Opal 690 mean",
      "Nucleus: Opal 690 sum",
      "Nucleus: Opal 690 std dev",
      "Nucleus: Opal 690 max",
      "Nucleus: Opal 690 min",
      "Nucleus: Opal 690 range",
      "Nucleus: Opal 780 mean",
      "Nucleus: Opal 780 sum",
      "Nucleus: Opal 780 std dev",
      "Nucleus: Opal 780 max",
      "Nucleus: Opal 780 min",
      "Nucleus: Opal 780 range",
      "Nucleus: Autofluorescence mean",
      "Nucleus: Autofluorescence sum",
      "Nucleus: Autofluorescence std dev",
      "Nucleus: Autofluorescence max",
      "Nucleus: Autofluorescence min",
      "Nucleus: Autofluorescence range",
      "Cell: Area",
      "Cell: Perimeter",
      "Cell: Circularity",
      "Cell: Max caliper",
      "Cell: Min caliper",
      "Cell: Eccentricity",
      "Cell: DAPI mean",
      "Cell: DAPI std dev",
      "Cell: DAPI max",
      "Cell: DAPI min",
      "Cell: Opal 480 mean",
      "Cell: Opal 480 std dev",
      "Cell: Opal 480 max",
      "Cell: Opal 480 min",
      "Cell: Opal 520 mean",
      "Cell: Opal 520 std dev",
      "Cell: Opal 520 max",
      "Cell: Opal 520 min",
      "Cell: Opal 540 mean",
      "Cell: Opal 540 std dev",
      "Cell: Opal 540 max",
      "Cell: Opal 540 min",
      "Cell: Opal 570 mean",
      "Cell: Opal 570 std dev",
      "Cell: Opal 570 max",
      "Cell: Opal 570 min",
      "Cell: Opal 620 mean",
      "Cell: Opal 620 std dev",
      "Cell: Opal 620 max",
      "Cell: Opal 620 min",
      "Cell: Opal 650 mean",
      "Cell: Opal 650 std dev",
      "Cell: Opal 650 max",
      "Cell: Opal 650 min",
      "Cell: Opal 690 mean",
      "Cell: Opal 690 std dev",
      "Cell: Opal 690 max",
      "Cell: Opal 690 min",
      "Cell: Opal 780 mean",
      "Cell: Opal 780 std dev",
      "Cell: Opal 780 max",
      "Cell: Opal 780 min",
      "Cell: Autofluorescence mean",
      "Cell: Autofluorescence std dev",
      "Cell: Autofluorescence max",
      "Cell: Autofluorescence min",
      "Cytoplasm: DAPI mean",
      "Cytoplasm: DAPI std dev",
      "Cytoplasm: DAPI max",
      "Cytoplasm: DAPI min",
      "Cytoplasm: Opal 480 mean",
      "Cytoplasm: Opal 480 std dev",
      "Cytoplasm: Opal 480 max",
      "Cytoplasm: Opal 480 min",
      "Cytoplasm: Opal 520 mean",
      "Cytoplasm: Opal 520 std dev",
      "Cytoplasm: Opal 520 max",
      "Cytoplasm: Opal 520 min",
      "Cytoplasm: Opal 540 mean",
      "Cytoplasm: Opal 540 std dev",
      "Cytoplasm: Opal 540 max",
      "Cytoplasm: Opal 540 min",
      "Cytoplasm: Opal 570 mean",
      "Cytoplasm: Opal 570 std dev",
      "Cytoplasm: Opal 570 max",
      "Cytoplasm: Opal 570 min",
      "Cytoplasm: Opal 620 mean",
      "Cytoplasm: Opal 620 std dev",
      "Cytoplasm: Opal 620 max",
      "Cytoplasm: Opal 620 min",
      "Cytoplasm: Opal 650 mean",
      "Cytoplasm: Opal 650 std dev",
      "Cytoplasm: Opal 650 max",
      "Cytoplasm: Opal 650 min",
      "Cytoplasm: Opal 690 mean",
      "Cytoplasm: Opal 690 std dev",
      "Cytoplasm: Opal 690 max",
      "Cytoplasm: Opal 690 min",
      "Cytoplasm: Opal 780 mean",
      "Cytoplasm: Opal 780 std dev",
      "Cytoplasm: Opal 780 max",
      "Cytoplasm: Opal 780 min",
      "Cytoplasm: Autofluorescence mean",
      "Cytoplasm: Autofluorescence std dev",
      "Cytoplasm: Autofluorescence max",
      "Cytoplasm: Autofluorescence min",
      "Nucleus/Cell area ratio"
    ]
  },
  "classifier": {
    "class": "RTrees",
    "statmodel": {
      "opencv_ml_rtrees": {
        "format": 3,
        "is_classifier": 1,
        "var_all": 154,
        "var_count": 153,
        "ord_var_count": 153,
        "cat_var_count": 1,
        "training_params": {
          "use_surrogates": 0,
          "max_categories": 10,
          "regression_accuracy": 0.0,
          "max_depth": 25,
          "min_sample_count": 10,
          "cross_validation_folds": 0,
          "nactive_vars": 0
        },
        "global_var_idx": 1,
        "var_idx": [
          0,
          1,
          2,
          3,
          4,
          5,
          6,
          7,
          8,
          9,
          10,
          11,
          12,
          13,
          14,
          15,
          16,
          17,
          18,
          19,
          20,
          21,
          22,
          23,
          24,
          25,
          26,
          27,
          28,
          29,
          30,
          31,
          32,
          33,
          34,
          35,
          36,
          37,
          38,
          39,
          40,
          41,
          42,
          43,
          44,
          45,
          46,
          47,
          48,
          49,
          50,
          51,
          52,
          53,
          54,
          55,
          56,
          57,
          58,
          59,
          60,
          61,
          62,
          63,
          64,
          65,
          66,
          67,
          68,
          69,
          70,
          71,
          72,
          73,
          74,
          75,
          76,
          77,
          78,
          79,
          80,
          81,
          82,
          83,
          84,
          85,
          86,
          87,
          88,
          89,
          90,
          91,
          92,
          93,
          94,
          95,
          96,
          97,
          98,
          99,
          100,
          101,
          102,
          103,
          104,
          105,
          106,
          107,
          108,
          109,
          110,
          111,
          112,
          113,
          114,
          115,
          116,
          117,
          118,
          119,
          120,
          121,
          122,
          123,
          124,
          125,
          126,
          127,
          128,
          129,
          130,
          131,
          132,
          133,
          134,
          135,
          136,
          137,
          138,
          139,
          140,
          141,
          142,
          143,
          144,
          145,
          146,
          147,
          148,
          149,
          150,
          151,
          152
        ],
        "var_type": [
          0,
          0,
          0,
          0,
          0,
          0,
          0,
          0,
          0,
          0,
          0,
          0,
          0,
          0,
          0,
          0,
          0,
          0,
          0,
          0,
          0,
          0,
          0,
          0,
          0,
          0,
          0,
          0,
          0,
          0,
          0,
          0,
          0,
          0,
          0,
          0,
          0,
          0,
          0,
          0,
          0,
          0,
          0,
          0,
          0,
          0,
          0,
          0,
          0,
          0,
          0,
          0,
          0,
          0,
          0,
          0,
          0,
          0,
          0,
          0,
          0,
          0,
          0,
          0,
          0,
          0,
          0,
          0,
          0,
          0,
          0,
          0,
          0,
          0,
          0,
          0,
          0,
          0,
          0,
          0,
          0,
          0,
          0,
          0,
          0,
          0,
          0,
          0,
          0,
          0,
          0,
          0,
          0,
          0,
          0,
          0,
          0,
          0,
          0,
          0,
          0,
          0,
          0,
          0,
          0,
          0,
          0,
          0,
          0,
          0,
          0,
          0,
          0,
          0,
          0,
          0,
          0,
          0,
          0,
          0,
          0,
          0,
          0,
          0,
          0,
          0,
          0,
          0,
          0,
          0,
          0,
          0,
          0,
          0,
          0,
          0,
          0,
          0,
          0,
          0,
          0,
          0,
          0,
          0,
          0,
          0,
          0,
          0,
          0,
          0,
          0,
          0,
          0,
          1
        ],
        "cat_ofs": [
          0,
          0,
          0,
          0,
          0,
          0,
          0,
          0,
          0,
          0,
          0,
          0,
          0,
          0,
          0,
          0,
          0,
          0,
          0,
          0,
          0,
          0,
          0,
          0,
          0,
          0,
          0,
          0,
          0,
          0,
          0,
          0,
          0,
          0,
          0,
          0,
          0,
          0,
          0,
          0,
          0,
          0,
          0,
          0,
          0,
          0,
          0,
          0,
          0,
          0,
          0,
          0,
          0,
          0,
          0,
          0,
          0,
          0,
          0,
          0,
          0,
          0,
          0,
          0,
          0,
          0,
          0,
          0,
          0,
          0,
          0,
          0,
          0,
          0,
          0,
          0,
          0,
          0,
          0,
          0,
          0,
          0,
          0,
          0,
          0,
          0,
          0,
          0,
          0,
          0,
          0,
          0,
          0,
          0,
          0,
          0,
          0,
          0,
          0,
          0,
          0,
          0,
          0,
          0,
          0,
          0,
          0,
          0,
          0,
          0,
          0,
          0,
          0,
          0,
          0,
          0,
          0,
          0,
          0,
          0,
          0,
          0,
          0,
          0,
          0,
          0,
          0,
          0,
          0,
          0,
          0,
          0,
          0,
          0,
          0,
          0,
          0,
          0,
          0,
          0,
          0,
          0,
          0,
          0,
          0,
          0,
          0,
          0,
          0,
          0,
          0,
          0,
          0,
          0,
          0,
          0,
          0,
          0,
          0,
          0,
          0,
          0,
          0,
          0,
          0,
          0,
          0,
          0,
          0,
          0,
          0,
          0,
          0,
          0,
          0,
          0,
          0,
          0,
          0,
          0,
          0,
          0,
          0,
          0,
          0,
          0,
          0,
          0,
          0,
          0,
          0,
          0,
          0,
          0,
          0,
          0,
          0,
          0,
          0,
          0,
          0,
          0,
          0,
          0,
          0,
          0,
          0,
          0,
          0,
          0,
          0,
          0,
          0,
          0,
          0,
          0,
          0,
          0,
          0,
          0,
          0,
          0,
          0,
          0,
          0,
          0,
          0,
          0,
          0,
          0,
          0,
          0,
          0,
          0,
          0,
          0,
          0,
          0,
          0,
          0,
          0,
          0,
          0,
          0,
          0,
          0,
          0,
          0,
          0,
          0,
          0,
          0,
          0,
          0,
          0,
          0,
          0,
          0,
          0,
          0,
          0,
          0,
          0,
          0,
          0,
          0,
          0,
          0,
          0,
          0,
          0,
          0,
          0,
          0,
          0,
          0,
          0,
          0,
          0,
          0,
          0,
          0,
          0,
          0,
          0,
          0,
          0,
          0,
          0,
          0,
          0,
          0,
          0,
          0,
          0,
          0,
          0,
          0,
          0,
          0,
          0,
          0,
          0,
          0,
          0,
          0
        ],
        "class_labels": [
          0,
          1
        ],
        "missing_subst": [
          0.0,
          0.0,
          0.0,
          0.0,
          0.0,
          0.0,
          0.0,
          0.0,
          0.0,
          0.0,
          0.0,
          0.0,
          0.0,
          0.0,
          0.0,
          0.0,
          0.0,
          0.0,
          0.0,
          0.0,
          0.0,
          0.0,
          0.0,
          0.0,
          0.0,
          0.0,
          0.0,
          0.0,
          0.0,
          0.0,
          0.0,
          0.0,
          0.0,
          0.0,
          0.0,
          0.0,
          0.0,
          0.0,
          0.0,
          0.0,
          0.0,
          0.0,
          0.0,
          0.0,
          0.0,
          0.0,
          0.0,
          0.0,
          0.0,
          0.0,
          0.0,
          0.0,
          0.0,
          0.0,
          0.0,
          0.0,
          0.0,
          0.0,
          0.0,
          0.0,
          0.0,
          0.0,
          0.0,
          0.0,
          0.0,
          0.0,
          0.0,
          0.0,
          0.0,
          0.0,
          0.0,
          0.0,
          0.0,
          0.0,
          0.0,
          0.0,
          0.0,
          0.0,
          0.0,
          0.0,
          0.0,
          0.0,
          0.0,
          0.0,
          0.0,
          0.0,
          0.0,
          0.0,
          0.0,
          0.0,
          0.0,
          0.0,
          0.0,
          0.0,
          0.0,
          0.0,
          0.0,
          0.0,
          0.0,
          0.0,
          0.0,
          0.0,
          0.0,
          0.0,
          0.0,
          0.0,
          0.0,
          0.0,
          0.0,
          0.0,
          0.0,
          0.0,
          0.0,
          0.0,
          0.0,
          0.0,
          0.0,
          0.0,
          0.0,
          0.0,
          0.0,
          0.0,
          0.0,
          0.0,
          0.0,
          0.0,
          0.0,
          0.0,
          0.0,
          0.0,
          0.0,
          0.0,
          0.0,
          0.0,
          0.0,
          0.0,
          0.0,
          0.0,
          0.0,
          0.0,
          0.0,
          0.0,
          0.0,
          0.0,
          0.0,
          0.0,
          0.0,
          0.0,
          0.0,
          0.0,
          0.0,
          0.0,
          0.0,
          0.0
        ],
        "oob_error": 0.0,
        "ntrees": 50,
        "trees": [
          {
            "nodes": [
              {
                "depth": 0,
                "value": 1.0,
                "norm_class_idx": 1,
                "splits": [
                  {
                    "var": 6,
                    "quality": 4.8216531372070312e+02,
                    "le": 1.0446058273315430e+01
                  }
                ]
              },
              {
                "depth": 1,
                "value": 1.0,
                "norm_class_idx": 1,
                "splits": [
                  {
                    "var": 126,
                    "quality": 4.8368450927734375e+02,
                    "le": 3.8755928039550781e+01
                  }
                ]
              },
              {
                "depth": 2,
                "value": 1.0,
                "norm_class_idx": 1,
                "splits": [
                  {
                    "var": 26,
                    "quality": 4.7003875732421875e+02,
                    "le": 5.4008207321166992e+00
                  }
                ]
              },
              {
                "depth": 3,
                "value": 1.0,
                "norm_class_idx": 1,
                "splits": [
                  {
                    "var": 26,
                    "quality": 4.6787023925781250e+02,
                    "le": 3.0233957767486572e+00
                  }
                ]
              },
              {
                "depth": 4,
                "value": 1.0,
                "norm_class_idx": 1,
                "splits": [
                  {
                    "var": 102,
                    "quality": 4.1937240600585938e+02,
                    "le": 2.9502254724502563e-01
                  }
                ]
              },
              {
                "depth": 5,
                "value": 0.0,
                "norm_class_idx": 0
              },
              {
                "depth": 5,
                "value": 1.0,
                "norm_class_idx": 1,
                "splits": [
                  {
                    "var": 20,
                    "quality": 4.2076745605468750e+02,
                    "le": 2.5485868453979492e+00
                  }
                ]
              },
              {
                "depth": 6,
                "value": 1.0,
                "norm_class_idx": 1,
                "splits": [
                  {
                    "var": 88,
                    "quality": 4.1842855834960938e+02,
                    "le": 1.8748335838317871e+00
                  }
                ]
              },
              {
                "depth": 7,
                "value": 1.0,
                "norm_class_idx": 1
              },
              {
                "depth": 7,
                "value": 1.0,
                "norm_class_idx": 1,
                "splits": [
                  {
                    "var": 84,
                    "quality": 1.6210908508300781e+02,
                    "le": 1.2893581390380859e+01
                  }
                ]
              },
              {
                "depth": 8,
                "value": 1.0,
                "norm_class_idx": 1,
                "splits": [
                  {
                    "var": 88,
                    "quality": 1.6301226806640625e+02,
                    "le": 1.8778738975524902e+00
                  }
                ]
              },
              {
                "depth": 9,
                "value": 0.0,
                "norm_class_idx": 0
              },
              {
                "depth": 9,
                "value": 1.0,
                "norm_class_idx": 1,
                "splits": [
                  {
                    "var": 36,
                    "quality": 1.6106896972656250e+02,
                    "le": 3.8676481246948242e+00
                  }
                ]
              },
              {
                "depth": 10,
                "value": 1.0,
                "norm_class_idx": 1
              },
              {
                "depth": 10,
                "value": 1.0,
                "norm_class_idx": 1,
                "splits": [
                  {
                    "var": 136,
                    "quality": 29.0,
                    "le": 1.5676870346069336e+01
                  }
                ]
              },
              {
                "depth": 11,
                "value": 1.0,
                "norm_class_idx": 1
              },
              {
                "depth": 11,
                "value": 0.0,
                "norm_class_idx": 0
              },
              {
                "depth": 8,
                "value": 0.0,
                "norm_class_idx": 0
              },
              {
                "depth": 6,
                "value": 0.0,
                "norm_class_idx": 0
              },
              {
                "depth": 4,
                "value": 1.0,
                "norm_class_idx": 1,
                "splits": [
                  {
                    "var": 36,
                    "quality": 6.2515151977539062e+01,
                    "le": 2.3635158538818359e+00
                  }
                ]
              },
              {
                "depth": 5,
                "value": 1.0,
                "norm_class_idx": 1
              },
              {
                "depth": 5,
                "value": 0.0,
                "norm_class_idx": 0,
                "splits": [
                  {
                    "var": 111,
                    "quality": 2.2454545974731445e+01,
                    "le": 6.6191625595092773e+00
                  }
                ]
              },
              {
                "depth": 6,
                "value": 1.0,
                "norm_class_idx": 1,
                "splits": [
                  {
                    "var": 11,
                    "quality": 11.0,
                    "le": 1.3112134933471680e+01
                  }
                ]
              },
              {
                "depth": 7,
                "value": 1.0,
                "norm_class_idx": 1
              },
              {
                "depth": 7,
                "value": 0.0,
                "norm_class_idx": 0
              },
              {
                "depth": 6,
                "value": 0.0,
                "norm_class_idx": 0,
                "splits": [
                  {
                    "var": 56,
                    "quality": 1.6947368621826172e+01,
                    "le": 1.3313204050064087e-01
                  }
                ]
              },
              {
                "depth": 7,
                "value": 0.0,
                "norm_class_idx": 0,
                "splits": [
                  {
                    "var": 109,
                    "quality": 19.0,
                    "le": 7.2308015823364258e+00
                  }
                ]
              },
              {
                "depth": 8,
                "value": 0.0,
                "norm_class_idx": 0
              },
              {
                "depth": 8,
                "value": 1.0,
                "norm_class_idx": 1
              },
              {
                "depth": 7,
                "value": 1.0,
                "norm_class_idx": 1
              },
              {
                "depth": 3,
                "value": 0.0,
                "norm_class_idx": 0
              },
              {
                "depth": 2,
                "value": 0.0,
                "norm_class_idx": 0
              },
              {
                "depth": 1,
                "value": 0.0,
                "norm_class_idx": 0,
                "splits": [
                  {
                    "var": 125,
                    "quality": 82.0,
                    "le": 5.1178226470947266e+00
                  }
                ]
              },
              {
                "depth": 2,
                "value": 1.0,
                "norm_class_idx": 1
              },
              {
                "depth": 2,
                "value": 0.0,
                "norm_class_idx": 0
              }
            ]
          },
          {
            "nodes": [
              {
                "depth": 0,
                "value": 1.0,
                "norm_class_idx": 1,
                "splits": [
                  {
                    "var": 27,
                    "quality": 5.9241790771484375e+02,
                    "le": 2.9819561004638672e+01
                  }
                ]
              },
              {
                "depth": 1,
                "value": 1.0,
                "norm_class_idx": 1,
                "splits": [
                  {
                    "var": 32,
                    "quality": 5.1922363281250000e+02,
                    "le": 4.2585868835449219e+00
                  }
                ]
              },
              {
                "depth": 2,
                "value": 1.0,
                "norm_class_idx": 1,
                "splits": [
                  {
                    "var": 27,
                    "quality": 5.2255639648437500e+02,
                    "le": 2.0794153213500977e+01
                  }
                ]
              },
              {
                "depth": 3,
                "value": 1.0,
                "norm_class_idx": 1,
                "splits": [
                  {
                    "var": 67,
                    "quality": 5.0167065429687500e+02,
                    "le": 2.4183696746826172e+01
                  }
                ]
              },
              {
                "depth": 4,
                "value": 1.0,
                "norm_class_idx": 1
              },
              {
                "depth": 4,
                "value": 1.0,
                "norm_class_idx": 1,
                "splits": [
                  {
                    "var": 129,
                    "quality": 5.0005554199218750e+02,
                    "le": 1.4333548545837402e+00
                  }
                ]
              },
              {
                "depth": 5,
                "value": 1.0,
                "norm_class_idx": 1
              },
              {
                "depth": 5,
                "value": 1.0,
                "norm_class_idx": 1,
                "splits": [
                  {
                    "var": 47,
                    "quality": 35.0,
                    "le": 1.3672702789306641e+01
                  }
                ]
              },
              {
                "depth": 6,
                "value": 1.0,
                "norm_class_idx": 1
              },
              {
                "depth": 6,
                "value": 0.0,
                "norm_class_idx": 0
              },
              {
                "depth": 3,
                "value": 1.0,
                "norm_class_idx": 1,
                "splits": [
                  {
                    "var": 12,
                    "quality": 2.6523809432983398e+01,
                    "le": 1.5054470300674438e-01
                  }
                ]
              },
              {
                "depth": 4,
                "value": 0.0,
                "norm_class_idx": 0,
                "splits": [
                  {
                    "var": 41,
                    "quality": 1.7666666030883789e+01,
                    "le": 2.5282869338989258e+00
                  }
                ]
              },
              {
                "depth": 5,
                "value": 0.0,
                "norm_class_idx": 0
              },
              {
                "depth": 5,
                "value": 1.0,
                "norm_class_idx": 1,
                "splits": [
                  {
                    "var": 41,
                    "quality": 12.0,
                    "le": 5.0355167388916016e+00
                  }
                ]
              },
              {
                "depth": 6,
                "value": 1.0,
                "norm_class_idx": 1
              },
              {
                "depth": 6,
                "value": 0.0,
                "norm_class_idx": 0
              },
              {
                "depth": 4,
                "value": 1.0,
                "norm_class_idx": 1
              },
              {
                "depth": 2,
                "value": 1.0,
                "norm_class_idx": 1
              },
              {
                "depth": 1,
                "value": 0.0,
                "norm_class_idx": 0,
                "splits": [
                  {
                    "var": 84,
                    "quality": 8.2333335876464844e+01,
                    "le": 1.2579120635986328e+01
                  }
                ]
              },
              {
                "depth": 2,
                "value": 1.0,
                "norm_class_idx": 1
              },
              {
                "depth": 2,
                "value": 0.0,
                "norm_class_idx": 0
              }
            ]
          },
          {
            "nodes": [
              {
                "depth": 0,
                "value": 1.0,
                "norm_class_idx": 1,
                "splits": [
                  {
                    "var": 84,
                    "quality": 5.7472076416015625e+02,
                    "le": 1.7137022018432617e+01
                  }
                ]
              },
              {
                "depth": 1,
                "value": 1.0,
                "norm_class_idx": 1,
                "splits": [
                  {
                    "var": 59,
                    "quality": 5.2282269287109375e+02,
                    "le": 2.1441376209259033e-01
                  }
                ]
              },
              {
                "depth": 2,
                "value": 0.0,
                "norm_class_idx": 0
              },
              {
                "depth": 2,
                "value": 1.0,
                "norm_class_idx": 1,
                "splits": [
                  {
                    "var": 84,
                    "quality": 5.2077856445312500e+02,
                    "le": 9.1663608551025391e+00
                  }
                ]
              },
              {
                "depth": 3,
                "value": 1.0,
                "norm_class_idx": 1,
                "splits": [
                  {
                    "var": 144,
                    "quality": 4.6430297851562500e+02,
                    "le": 9.0048992633819580e-01
                  }
                ]
              },
              {
                "depth": 4,
                "value": 1.0,
                "norm_class_idx": 1,
                "splits": [
                  {
                    "var": 133,
                    "quality": 4.5940435791015625e+02,
                    "le": 3.1968951225280762e-01
                  }
                ]
              },
              {
                "depth": 5,
                "value": 1.0,
                "norm_class_idx": 1
              },
              {
                "depth": 5,
                "value": 1.0,
                "norm_class_idx": 1,
                "splits": [
                  {
                    "var": 32,
                    "quality": 4.5639999389648438e+02,
                    "le": 4.2496776580810547e+00
                  }
                ]
              },
              {
                "depth": 6,
                "value": 1.0,
                "norm_class_idx": 1
              },
              {
                "depth": 6,
                "value": 1.0,
                "norm_class_idx": 1
              },
              {
                "depth": 4,
                "value": 1.0,
                "norm_class_idx": 1
              },
              {
                "depth": 3,
                "value": 1.0,
                "norm_class_idx": 1,
                "splits": [
                  {
                    "var": 77,
                    "quality": 6.7400001525878906e+01,
                    "le": 2.3216357231140137e+00
                  }
                ]
              },
              {
                "depth": 4,
                "value": 0.0,
                "norm_class_idx": 0,
                "splits": [
                  {
                    "var": 104,
                    "quality": 20.0,
                    "le": 8.7831836938858032e-01
                  }
                ]
              },
              {
                "depth": 5,
                "value": 0.0,
                "norm_class_idx": 0
              },
              {
                "depth": 5,
                "value": 1.0,
                "norm_class_idx": 1
              },
              {
                "depth": 4,
                "value": 1.0,
                "norm_class_idx": 1
              },
              {
                "depth": 1,
                "value": 0.0,
                "norm_class_idx": 0,
                "splits": [
                  {
                    "var": 27,
                    "quality": 7.2727272033691406e+01,
                    "le": 2.9819561004638672e+01
                  }
                ]
              },
              {
                "depth": 2,
                "value": 1.0,
                "norm_class_idx": 1,
                "splits": [
                  {
                    "var": 62,
                    "quality": 9.1999998092651367e+00,
                    "le": 2.2212262153625488e+00
                  }
                ]
              },
              {
                "depth": 3,
                "value": 0.0,
                "norm_class_idx": 0
              },
              {
                "depth": 3,
                "value": 1.0,
                "norm_class_idx": 1
              },
              {
                "depth": 2,
                "value": 0.0,
                "norm_class_idx": 0
              }
            ]
          },
          {
            "nodes": [
              {
                "depth": 0,
                "value": 1.0,
                "norm_class_idx": 1,
                "splits": [
                  {
                    "var": 25,
                    "quality": 5.5042425537109375e+02,
                    "le": 1.7898062744140625e+03
                  }
                ]
              },
              {
                "depth": 1,
                "value": 1.0,
                "norm_class_idx": 1,
                "splits": [
                  {
                    "var": 24,
                    "quality": 5.3018634033203125e+02,
                    "le": 1.8437671661376953e+01
                  }
                ]
              },
              {
                "depth": 2,
                "value": 1.0,
                "norm_class_idx": 1,
                "splits": [
                  {
                    "var": 0,
                    "quality": 5.1413714599609375e+02,
                    "le": 9.1250000000000000e+00
                  }
                ]
              },
              {
                "depth": 3,
                "value": 0.0,
                "norm_class_idx": 0
              },
              {
                "depth": 3,
                "value": 1.0,
                "norm_class_idx": 1,
                "splits": [
                  {
                    "var": 27,
                    "quality": 5.1424682617187500e+02,
                    "le": 2.0567794799804688e+01
                  }
                ]
              },
              {
                "depth": 4,
                "value": 1.0,
                "norm_class_idx": 1,
                "splits": [
                  {
                    "var": 138,
                    "quality": 4.9506896972656250e+02,
                    "le": 2.5505126953125000e+01
                  }
                ]
              },
              {
                "depth": 5,
                "value": 1.0,
                "norm_class_idx": 1
              },
              {
                "depth": 5,
                "value": 1.0,
                "norm_class_idx": 1,
                "splits": [
                  {
                    "var": 25,
                    "quality": 116.0,
                    "le": 1.5289639892578125e+03
                  }
                ]
              },
              {
                "depth": 6,
                "value": 1.0,
                "norm_class_idx": 1
              },
              {
                "depth": 6,
                "value": 0.0,
                "norm_class_idx": 0
              },
              {
                "depth": 4,
                "value": 1.0,
                "norm_class_idx": 1,
                "splits": [
                  {
                    "var": 86,
                    "quality": 2.4399999618530273e+01,
                    "le": 2.5670055389404297e+01
                  }
                ]
              },
              {
                "depth": 5,
                "value": 0.0,
                "norm_class_idx": 0
              },
              {
                "depth": 5,
                "value": 1.0,
                "norm_class_idx": 1
              },
              {
                "depth": 2,
                "value": 0.0,
                "norm_class_idx": 0
              },
              {
                "depth": 1,
                "value": 0.0,
                "norm_class_idx": 0,
                "splits": [
                  {
                    "var": 27,
                    "quality": 7.4672554016113281e+01,
                    "le": 2.4882305145263672e+01
                  }
                ]
              },
              {
                "depth": 2,
                "value": 1.0,
                "norm_class_idx": 1,
                "splits": [
                  {
                    "var": 52,
                    "quality": 1.9380952835083008e+01,
                    "le": 1.1916430294513702e-01
                  }
                ]
              },
              {
                "depth": 3,
                "value": 1.0,
                "norm_class_idx": 1,
                "splits": [
                  {
                    "var": 11,
                    "quality": 1.9666666030883789e+01,
                    "le": 6.8069634437561035e+00
                  }
                ]
              },
              {
                "depth": 4,
                "value": 0.0,
                "norm_class_idx": 0
              },
              {
                "depth": 4,
                "value": 1.0,
                "norm_class_idx": 1
              },
              {
                "depth": 3,
                "value": 0.0,
                "norm_class_idx": 0
              },
              {
                "depth": 2,
                "value": 0.0,
                "norm_class_idx": 0,
                "splits": [
                  {
                    "var": 68,
                    "quality": 6.2032257080078125e+01,
                    "le": 8.0827653408050537e-01
                  }
                ]
              },
              {
                "depth": 3,
                "value": 1.0,
                "norm_class_idx": 1
              },
              {
                "depth": 3,
                "value": 0.0,
                "norm_class_idx": 0,
                "splits": [
                  {
                    "var": 69,
                    "quality": 62.0,
                    "le": 1.5123992919921875e+01
                  }
                ]
              },
              {
                "depth": 4,
                "value": 0.0,
                "norm_class_idx": 0
              },
              {
                "depth": 4,
                "value": 1.0,
                "norm_class_idx": 1
              }
            ]
          },
          {
            "nodes": [
              {
                "depth": 0,
                "value": 1.0,
                "norm_class_idx": 1,
                "splits": [
                  {
                    "var": 126,
                    "quality": 5.7318835449218750e+02,
                    "le": 3.2767967224121094e+01
                  }
                ]
              },
              {
                "depth": 1,
                "value": 1.0,
                "norm_class_idx": 1,
                "splits": [
                  {
                    "var": 29,
                    "quality": 4.9739840698242188e+02,
                    "le": 1.6082643508911133e+01
                  }
                ]
              },
              {
                "depth": 2,
                "value": 1.0,
                "norm_class_idx": 1,
                "splits": [
                  {
                    "var": 28,
                    "quality": 4.9428643798828125e+02,
                    "le": 1.0311552047729492e+01
                  }
                ]
              },
              {
                "depth": 3,
                "value": 1.0,
                "norm_class_idx": 1,
                "splits": [
                  {
                    "var": 27,
                    "quality": 4.8833334350585938e+02,
                    "le": 1.6439744949340820e+01
                  }
                ]
              },
              {
                "depth": 4,
                "value": 1.0,
                "norm_class_idx": 1
              },
              {
                "depth": 4,
                "value": 1.0,
                "norm_class_idx": 1,
                "splits": [
                  {
                    "var": 27,
                    "quality": 54.0,
                    "le": 1.6644233703613281e+01
                  }
                ]
              },
              {
                "depth": 5,
                "value": 0.0,
                "norm_class_idx": 0
              },
              {
                "depth": 5,
                "value": 1.0,
                "norm_class_idx": 1
              },
              {
                "depth": 3,
                "value": 0.0,
                "norm_class_idx": 0
              },
              {
                "depth": 2,
                "value": 1.0,
                "norm_class_idx": 1,
                "splits": [
                  {
                    "var": 25,
                    "quality": 1.9799999237060547e+01,
                    "le": 2.0072487792968750e+03
                  }
                ]
              },
              {
                "depth": 3,
                "value": 1.0,
                "norm_class_idx": 1,
                "splits": [
                  {
                    "var": 111,
                    "quality": 15.0,
                    "le": 3.4975841045379639e+00
                  }
                ]
              },
              {
                "depth": 4,
                "value": 0.0,
                "norm_class_idx": 0
              },
              {
                "depth": 4,
                "value": 1.0,
                "norm_class_idx": 1
              },
              {
                "depth": 3,
                "value": 0.0,
                "norm_class_idx": 0,
                "splits": [
                  {
                    "var": 132,
                    "quality": 1.0399999618530273e+01,
                    "le": 3.8858683109283447e+00
                  }
                ]
              },
              {
                "depth": 4,
                "value": 0.0,
                "norm_class_idx": 0
              },
              {
                "depth": 4,
                "value": 1.0,
                "norm_class_idx": 1
              },
              {
                "depth": 1,
                "value": 0.0,
                "norm_class_idx": 0,
                "splits": [
                  {
                    "var": 17,
                    "quality": 9.1147827148437500e+01,
                    "le": 7.0613336563110352e+00
                  }
                ]
              },
              {
                "depth": 2,
                "value": 0.0,
                "norm_class_idx": 0,
                "splits": [
                  {
                    "var": 1,
                    "quality": 9.0400001525878906e+01,
                    "le": 2.5627456665039062e+01
                  }
                ]
              },
              {
                "depth": 3,
                "value": 0.0,
                "norm_class_idx": 0
              },
              {
                "depth": 3,
                "value": 1.0,
                "norm_class_idx": 1
              },
              {
                "depth": 2,
                "value": 1.0,
                "norm_class_idx": 1
              }
            ]
          },
          {
            "nodes": [
              {
                "depth": 0,
                "value": 1.0,
                "norm_class_idx": 1,
                "splits": [
                  {
                    "var": 27,
                    "quality": 6.0382855224609375e+02,
                    "le": 2.5709161758422852e+01
                  }
                ]
              },
              {
                "depth": 1,
                "value": 1.0,
                "norm_class_idx": 1,
                "splits": [
                  {
                    "var": 47,
                    "quality": 5.1903955078125000e+02,
                    "le": 4.1350607872009277e+00
                  }
                ]
              },
              {
                "depth": 2,
                "value": 1.0,
                "norm_class_idx": 1,
                "splits": [
                  {
                    "var": 143,
                    "quality": 1.8111110687255859e+01,
                    "le": 1.8448286056518555e+00
                  }
                ]
              },
              {
                "depth": 3,
                "value": 1.0,
                "norm_class_idx": 1,
                "splits": [
                  {
                    "var": 29,
                    "quality": 17.0,
                    "le": 1.5469141006469727e+01
                  }
                ]
              },
              {
                "depth": 4,
                "value": 1.0,
                "norm_class_idx": 1
              },
              {
                "depth": 4,
                "value": 0.0,
                "norm_class_idx": 0
              },
              {
                "depth": 3,
                "value": 0.0,
                "norm_class_idx": 0
              },
              {
                "depth": 2,
                "value": 1.0,
                "norm_class_idx": 1,
                "splits": [
                  {
                    "var": 18,
                    "quality": 5.0449783325195312e+02,
                    "le": 7.9811487197875977e+00
                  }
                ]
              },
              {
                "depth": 3,
                "value": 1.0,
                "norm_class_idx": 1,
                "splits": [
                  {
                    "var": 62,
                    "quality": 5.0251602172851562e+02,
                    "le": 8.0487567186355591e-01
                  }
                ]
              },
              {
                "depth": 4,
                "value": 1.0,
                "norm_class_idx": 1,
                "splits": [
                  {
                    "var": 134,
                    "quality": 12.0,
                    "le": 3.3693530559539795e+00
                  }
                ]
              },
              {
                "depth": 5,
                "value": 0.0,
                "norm_class_idx": 0
              },
              {
                "depth": 5,
                "value": 1.0,
                "norm_class_idx": 1
              },
              {
                "depth": 4,
                "value": 1.0,
                "norm_class_idx": 1,
                "splits": [
                  {
                    "var": 61,
                    "quality": 4.9540405273437500e+02,
                    "le": 6.3169301757812500e+03
                  }
                ]
              },
              {
                "depth": 5,
                "value": 1.0,
                "norm_class_idx": 1,
                "splits": [
                  {
                    "var": 118,
                    "quality": 4.9202499389648438e+02,
                    "le": 1.7571969656273723e-03
                  }
                ]
              },
              {
                "depth": 6,
                "value": 1.0,
                "norm_class_idx": 1,
                "splits": [
                  {
                    "var": 90,
                    "quality": 7.8285713195800781e+01,
                    "le": 1.7698318481445312e+01
                  }
                ]
              },
              {
                "depth": 7,
                "value": 1.0,
                "norm_class_idx": 1
              },
              {
                "depth": 7,
                "value": 1.0,
                "norm_class_idx": 1
              },
              {
                "depth": 6,
                "value": 1.0,
                "norm_class_idx": 1
              },
              {
                "depth": 5,
                "value": 1.0,
                "norm_class_idx": 1
              },
              {
                "depth": 3,
                "value": 1.0,
                "norm_class_idx": 1
              },
              {
                "depth": 1,
                "value": 0.0,
                "norm_class_idx": 0,
                "splits": [
                  {
                    "var": 92,
                    "quality": 9.1086959838867188e+01,
                    "le": 1.7644793987274170e+00
                  }
                ]
              },
              {
                "depth": 2,
                "value": 1.0,
                "norm_class_idx": 1
              },
              {
                "depth": 2,
                "value": 0.0,
                "norm_class_idx": 0,
                "splits": [
                  {
                    "var": 24,
                    "quality": 92.0,
                    "le": 1.6241445541381836e+01
                  }
                ]
              },
              {
                "depth": 3,
                "value": 1.0,
                "norm_class_idx": 1
              },
              {
                "depth": 3,
                "value": 0.0,
                "norm_class_idx": 0
              }
            ]
          },
          {
            "nodes": [
              {
                "depth": 0,
                "value": 1.0,
                "norm_class_idx": 1,
                "splits": [
                  {
                    "var": 28,
                    "quality": 6.0362268066406250e+02,
                    "le": 1.0352453231811523e+01
                  }
                ]
              },
              {
                "depth": 1,
                "value": 1.0,
                "norm_class_idx": 1,
                "splits": [
                  {
                    "var": 125,
                    "quality": 5.3029724121093750e+02,
                    "le": 7.6960000991821289e+00
                  }
                ]
              },
              {
                "depth": 2,
                "value": 1.0,
                "norm_class_idx": 1,
                "splits": [
                  {
                    "var": 129,
                    "quality": 5.2878149414062500e+02,
                    "le": 3.3804428577423096e+00
                  }
                ]
              },
              {
                "depth": 3,
                "value": 1.0,
                "norm_class_idx": 1,
                "splits": [
                  {
                    "var": 29,
                    "quality": 5.2685144042968750e+02,
                    "le": 1.2765967369079590e+01
                  }
                ]
              },
              {
                "depth": 4,
                "value": 1.0,
                "norm_class_idx": 1,
                "splits": [
                  {
                    "var": 1,
                    "quality": 4.5339999389648438e+02,
                    "le": 1.1852961540222168e+01
                  }
                ]
              },
              {
                "depth": 5,
                "value": 1.0,
                "norm_class_idx": 1
              },
              {
                "depth": 5,
                "value": 1.0,
                "norm_class_idx": 1
              },
              {
                "depth": 4,
                "value": 1.0,
                "norm_class_idx": 1,
                "splits": [
                  {
                    "var": 88,
                    "quality": 7.6227851867675781e+01,
                    "le": 6.1731157302856445e+00
                  }
                ]
              },
              {
                "depth": 5,
                "value": 1.0,
                "norm_class_idx": 1,
                "splits": [
                  {
                    "var": 4,
                    "quality": 7.5102561950683594e+01,
                    "le": 9.2004375457763672e+00
                  }
                ]
              },
              {
                "depth": 6,
                "value": 1.0,
                "norm_class_idx": 1,
                "splits": [
                  {
                    "var": 133,
                    "quality": 7.4693336486816406e+01,
                    "le": 3.2515674829483032e-01
                  }
                ]
              },
              {
                "depth": 7,
                "value": 1.0,
                "norm_class_idx": 1
              },
              {
                "depth": 7,
                "value": 1.0,
                "norm_class_idx": 1,
                "splits": [
                  {
                    "var": 122,
                    "quality": 7.3285713195800781e+01,
                    "le": 3.6417412757873535e+00
                  }
                ]
              },
              {
                "depth": 8,
                "value": 1.0,
                "norm_class_idx": 1
              },
              {
                "depth": 8,
                "value": 1.0,
                "norm_class_idx": 1
              },
              {
                "depth": 6,
                "value": 0.0,
                "norm_class_idx": 0
              },
              {
                "depth": 5,
                "value": 0.0,
                "norm_class_idx": 0
              },
              {
                "depth": 3,
                "value": 1.0,
                "norm_class_idx": 1
              },
              {
                "depth": 2,
                "value": 0.0,
                "norm_class_idx": 0
              },
              {
                "depth": 1,
                "value": 0.0,
                "norm_class_idx": 0,
                "splits": [
                  {
                    "var": 118,
                    "quality": 7.8025314331054688e+01,
                    "le": 2.7587291717529297e+01
                  }
                ]
              },
              {
                "depth": 2,
                "value": 0.0,
                "norm_class_idx": 0,
                "splits": [
                  {
                    "var": 66,
                    "quality": 79.0,
                    "le": 9.8250000000000000e+01
                  }
                ]
              },
              {
                "depth": 3,
                "value": 0.0,
                "norm_class_idx": 0
              },
              {
                "depth": 3,
                "value": 1.0,
                "norm_class_idx": 1
              },
              {
                "depth": 2,
                "value": 1.0,
                "norm_class_idx": 1
              }
            ]
          },
          {
            "nodes": [
              {
                "depth": 0,
                "value": 1.0,
                "norm_class_idx": 1,
                "splits": [
                  {
                    "var": 73,
                    "quality": 4.8929907226562500e+02,
                    "le": 4.7024068832397461e+00
                  }
                ]
              },
              {
                "depth": 1,
                "value": 1.0,
                "norm_class_idx": 1,
                "splits": [
                  {
                    "var": 27,
                    "quality": 4.9228466796875000e+02,
                    "le": 2.5709161758422852e+01
                  }
                ]
              },
              {
                "depth": 2,
                "value": 1.0,
                "norm_class_idx": 1,
                "splits": [
                  {
                    "var": 26,
                    "quality": 4.6100628662109375e+02,
                    "le": 5.2608690261840820e+00
                  }
                ]
              },
              {
                "depth": 3,
                "value": 1.0,
                "norm_class_idx": 1,
                "splits": [
                  {
                    "var": 143,
                    "quality": 4.6126892089843750e+02,
                    "le": 3.0252399444580078e+00
                  }
                ]
              },
              {
                "depth": 4,
                "value": 1.0,
                "norm_class_idx": 1,
                "splits": [
                  {
                    "var": 92,
                    "quality": 4.6055895996093750e+02,
                    "le": 2.0506124496459961e+00
                  }
                ]
              },
              {
                "depth": 5,
                "value": 1.0,
                "norm_class_idx": 1
              },
              {
                "depth": 5,
                "value": 1.0,
                "norm_class_idx": 1,
                "splits": [
                  {
                    "var": 147,
                    "quality": 2.1405754089355469e+02,
                    "le": 5.4369056224822998e-01
                  }
                ]
              },
              {
                "depth": 6,
                "value": 1.0,
                "norm_class_idx": 1,
                "splits": [
                  {
                    "var": 26,
                    "quality": 2.0707504272460938e+02,
                    "le": 3.0018715858459473e+00
                  }
                ]
              },
              {
                "depth": 7,
                "value": 1.0,
                "norm_class_idx": 1,
                "splits": [
                  {
                    "var": 0,
                    "quality": 1.8501075744628906e+02,
                    "le": 9.2500000000000000e+00
                  }
                ]
              },
              {
                "depth": 8,
                "value": 0.0,
                "norm_class_idx": 0
              },
              {
                "depth": 8,
                "value": 1.0,
                "norm_class_idx": 1,
                "splits": [
                  {
                    "var": 25,
                    "quality": 1.8450000000000000e+02,
                    "le": 2.1656938476562500e+03
                  }
                ]
              },
              {
                "depth": 9,
                "value": 1.0,
                "norm_class_idx": 1
              },
              {
                "depth": 9,
                "value": 1.0,
                "norm_class_idx": 1
              },
              {
                "depth": 7,
                "value": 1.0,
                "norm_class_idx": 1,
                "splits": [
                  {
                    "var": 135,
                    "quality": 2.5600000381469727e+01,
                    "le": 1.6348049640655518e+00
                  }
                ]
              },
              {
                "depth": 8,
                "value": 1.0,
                "norm_class_idx": 1,
                "splits": [
                  {
                    "var": 131,
                    "quality": 2.6571428298950195e+01,
                    "le": 7.5103944540023804e-01
                  }
                ]
              },
              {
                "depth": 9,
                "value": 1.0,
                "norm_class_idx": 1
              },
              {
                "depth": 9,
                "value": 1.0,
                "norm_class_idx": 1
              },
              {
                "depth": 8,
                "value": 0.0,
                "norm_class_idx": 0
              },
              {
                "depth": 6,
                "value": 1.0,
                "norm_class_idx": 1,
                "splits": [
                  {
                    "var": 128,
                    "quality": 11.0,
                    "le": 2.2518069744110107e+00
                  }
                ]
              },
              {
                "depth": 7,
                "value": 1.0,
                "norm_class_idx": 1
              },
              {
                "depth": 7,
                "value": 0.0,
                "norm_class_idx": 0
              },
              {
                "depth": 4,
                "value": 0.0,
                "norm_class_idx": 0
              },
              {
                "depth": 3,
                "value": 0.0,
                "norm_class_idx": 0
              },
              {
                "depth": 2,
                "value": 0.0,
                "norm_class_idx": 0,
                "splits": [
                  {
                    "var": 104,
                    "quality": 3.7554054260253906e+01,
                    "le": 5.0314211845397949e-01
                  }
                ]
              },
              {
                "depth": 3,
                "value": 1.0,
                "norm_class_idx": 1
              },
              {
                "depth": 3,
                "value": 0.0,
                "norm_class_idx": 0,
                "splits": [
                  {
                    "var": 67,
                    "quality": 37.0,
                    "le": 3.9972991943359375e+01
                  }
                ]
              },
              {
                "depth": 4,
                "value": 0.0,
                "norm_class_idx": 0
              },
              {
                "depth": 4,
                "value": 1.0,
                "norm_class_idx": 1
              },
              {
                "depth": 1,
                "value": 1.0,
                "norm_class_idx": 1,
                "splits": [
                  {
                    "var": 29,
                    "quality": 9.3927268981933594e+01,
                    "le": 1.4284726142883301e+01
                  }
                ]
              },
              {
                "depth": 2,
                "value": 1.0,
                "norm_class_idx": 1,
                "splits": [
                  {
                    "var": 126,
                    "quality": 55.0,
                    "le": 2.5920818328857422e+01
                  }
                ]
              },
              {
                "depth": 3,
                "value": 1.0,
                "norm_class_idx": 1
              },
              {
                "depth": 3,
                "value": 0.0,
                "norm_class_idx": 0
              },
              {
                "depth": 2,
                "value": 0.0,
                "norm_class_idx": 0,
                "splits": [
                  {
                    "var": 3,
                    "quality": 4.8309524536132812e+01,
                    "le": 7.9423127174377441e+00
                  }
                ]
              },
              {
                "depth": 3,
                "value": 0.0,
                "norm_class_idx": 0,
                "splits": [
                  {
                    "var": 27,
                    "quality": 48.0,
                    "le": 2.3854087829589844e+01
                  }
                ]
              },
              {
                "depth": 4,
                "value": 1.0,
                "norm_class_idx": 1
              },
              {
                "depth": 4,
                "value": 0.0,
                "norm_class_idx": 0
              },
              {
                "depth": 3,
                "value": 1.0,
                "norm_class_idx": 1
              }
            ]
          },
          {
            "nodes": [
              {
                "depth": 0,
                "value": 1.0,
                "norm_class_idx": 1,
                "splits": [
                  {
                    "var": 27,
                    "quality": 5.9792749023437500e+02,
                    "le": 2.9252815246582031e+01
                  }
                ]
              },
              {
                "depth": 1,
                "value": 1.0,
                "norm_class_idx": 1,
                "splits": [
                  {
                    "var": 103,
                    "quality": 5.2053137207031250e+02,
                    "le": 3.4091427326202393e+00
                  }
                ]
              },
              {
                "depth": 2,
                "value": 1.0,
                "norm_class_idx": 1,
                "splits": [
                  {
                    "var": 124,
                    "quality": 5.2100189208984375e+02,
                    "le": 9.3687705993652344e+00
                  }
                ]
              },
              {
                "depth": 3,
                "value": 1.0,
                "norm_class_idx": 1,
                "splits": [
                  {
                    "var": 40,
                    "quality": 4.7118182373046875e+02,
                    "le": 2.6120347976684570e+00
                  }
                ]
              },
              {
                "depth": 4,
                "value": 1.0,
                "norm_class_idx": 1
              },
              {
                "depth": 4,
                "value": 1.0,
                "norm_class_idx": 1,
                "splits": [
                  {
                    "var": 108,
                    "quality": 4.2046512603759766e+01,
                    "le": 1.9424510955810547e+01
                  }
                ]
              },
              {
                "depth": 5,
                "value": 1.0,
                "norm_class_idx": 1,
                "splits": [
                  {
                    "var": 28,
                    "quality": 42.0,
                    "le": 2.8708648681640625e+00
                  }
                ]
              },
              {
                "depth": 6,
                "value": 1.0,
                "norm_class_idx": 1
              },
              {
                "depth": 6,
                "value": 0.0,
                "norm_class_idx": 0
              },
              {
                "depth": 5,
                "value": 0.0,
                "norm_class_idx": 0
              },
              {
                "depth": 3,
                "value": 1.0,
                "norm_class_idx": 1,
                "splits": [
                  {
                    "var": 77,
                    "quality": 6.5181816101074219e+01,
                    "le": 1.8250401020050049e+00
                  }
                ]
              },
              {
                "depth": 4,
                "value": 0.0,
                "norm_class_idx": 0,
                "splits": [
                  {
                    "var": 30,
                    "quality": 11.0,
                    "le": 1.4402524948120117e+01
                  }
                ]
              },
              {
                "depth": 5,
                "value": 0.0,
                "norm_class_idx": 0
              },
              {
                "depth": 5,
                "value": 1.0,
                "norm_class_idx": 1
              },
              {
                "depth": 4,
                "value": 1.0,
                "norm_class_idx": 1
              },
              {
                "depth": 2,
                "value": 0.0,
                "norm_class_idx": 0
              },
              {
                "depth": 1,
                "value": 0.0,
                "norm_class_idx": 0,
                "splits": [
                  {
                    "var": 40,
                    "quality": 87.0,
                    "le": 3.9687726497650146e+00
                  }
                ]
              },
              {
                "depth": 2,
                "value": 0.0,
                "norm_class_idx": 0
              },
              {
                "depth": 2,
                "value": 1.0,
                "norm_class_idx": 1
              }
            ]
          },
          {
            "nodes": [
              {
                "depth": 0,
                "value": 1.0,
                "norm_class_idx": 1,
                "splits": [
                  {
                    "var": 129,
                    "quality": 4.7638058471679688e+02,
                    "le": 9.5069116353988647e-01
                  }
                ]
              },
              {
                "depth": 1,
                "value": 1.0,
                "norm_class_idx": 1,
                "splits": [
                  {
                    "var": 29,
                    "quality": 4.0620602416992188e+02,
                    "le": 1.4801918029785156e+01
                  }
                ]
              },
              {
                "depth": 2,
                "value": 1.0,
                "norm_class_idx": 1,
                "splits": [
                  {
                    "var": 142,
                    "quality": 3.7641220092773438e+02,
                    "le": 2.4822077155113220e-01
                  }
                ]
              },
              {
                "depth": 3,
                "value": 0.0,
                "norm_class_idx": 0
              },
              {
                "depth": 3,
                "value": 1.0,
                "norm_class_idx": 1,
                "splits": [
                  {
                    "var": 143,
                    "quality": 3.7925064086914062e+02,
                    "le": 3.3980267047882080e+00
                  }
                ]
              },
              {
                "depth": 4,
                "value": 1.0,
                "norm_class_idx": 1,
                "splits": [
                  {
                    "var": 27,
                    "quality": 3.8729092407226562e+02,
                    "le": 2.1305946350097656e+01
                  }
                ]
              },
              {
                "depth": 5,
                "value": 1.0,
                "norm_class_idx": 1,
                "splits": [
                  {
                    "var": 145,
                    "quality": 3.8206896972656250e+02,
                    "le": 2.3002865910530090e-01
                  }
                ]
              },
              {
                "depth": 6,
                "value": 1.0,
                "norm_class_idx": 1
              },
              {
                "depth": 6,
                "value": 1.0,
                "norm_class_idx": 1,
                "splits": [
                  {
                    "var": 127,
                    "quality": 29.0,
                    "le": 6.1751699447631836e-01
                  }
                ]
              },
              {
                "depth": 7,
                "value": 1.0,
                "norm_class_idx": 1
              },
              {
                "depth": 7,
                "value": 0.0,
                "norm_class_idx": 0
              },
              {
                "depth": 5,
                "value": 0.0,
                "norm_class_idx": 0
              },
              {
                "depth": 4,
                "value": 0.0,
                "norm_class_idx": 0
              },
              {
                "depth": 2,
                "value": 1.0,
                "norm_class_idx": 1,
                "splits": [
                  {
                    "var": 76,
                    "quality": 5.3057144165039062e+01,
                    "le": 1.7689814567565918e+00
                  }
                ]
              },
              {
                "depth": 3,
                "value": 0.0,
                "norm_class_idx": 0,
                "splits": [
                  {
                    "var": 45,
                    "quality": 3.3066665649414062e+01,
                    "le": 2.4125556945800781e+01
                  }
                ]
              },
              {
                "depth": 4,
                "value": 0.0,
                "norm_class_idx": 0,
                "splits": [
                  {
                    "var": 131,
                    "quality": 30.0,
                    "le": 1.3520193099975586e+00
                  }
                ]
              },
              {
                "depth": 5,
                "value": 0.0,
                "norm_class_idx": 0
              },
              {
                "depth": 5,
                "value": 1.0,
                "norm_class_idx": 1
              },
              {
                "depth": 4,
                "value": 1.0,
                "norm_class_idx": 1
              },
              {
                "depth": 3,
                "value": 1.0,
                "norm_class_idx": 1
              },
              {
                "depth": 1,
                "value": 1.0,
                "norm_class_idx": 1,
                "splits": [
                  {
                    "var": 84,
                    "quality": 1.6619807434082031e+02,
                    "le": 1.7171600341796875e+01
                  }
                ]
              },
              {
                "depth": 2,
                "value": 1.0,
                "norm_class_idx": 1,
                "splits": [
                  {
                    "var": 125,
                    "quality": 1.0216285705566406e+02,
                    "le": 7.0327086448669434e+00
                  }
                ]
              },
              {
                "depth": 3,
                "value": 1.0,
                "norm_class_idx": 1,
                "splits": [
                  {
                    "var": 42,
                    "quality": 9.8166664123535156e+01,
                    "le": 1.4416242599487305e+01
                  }
                ]
              },
              {
                "depth": 4,
                "value": 1.0,
                "norm_class_idx": 1
              },
              {
                "depth": 4,
                "value": 1.0,
                "norm_class_idx": 1,
                "splits": [
                  {
                    "var": 110,
                    "quality": 12.0,
                    "le": 2.1225124359130859e+01
                  }
                ]
              },
              {
                "depth": 5,
                "value": 0.0,
                "norm_class_idx": 0
              },
              {
                "depth": 5,
                "value": 1.0,
                "norm_class_idx": 1
              },
              {
                "depth": 3,
                "value": 1.0,
                "norm_class_idx": 1
              },
              {
                "depth": 2,
                "value": 0.0,
                "norm_class_idx": 0,
                "splits": [
                  {
                    "var": 1,
                    "quality": 66.0,
                    "le": 2.4865951538085938e+01
                  }
                ]
              },
              {
                "depth": 3,
                "value": 0.0,
                "norm_class_idx": 0
              },
              {
                "depth": 3,
                "value": 0.0,
                "norm_class_idx": 0
              }
            ]
          },
          {
            "nodes": [
              {
                "depth": 0,
                "value": 1.0,
                "norm_class_idx": 1,
                "splits": [
                  {
                    "var": 82,
                    "quality": 4.9751989746093750e+02,
                    "le": 6.1704435348510742e+00
                  }
                ]
              },
              {
                "depth": 1,
                "value": 1.0,
                "norm_class_idx": 1,
                "splits": [
                  {
                    "var": 87,
                    "quality": 5.0694317626953125e+02,
                    "le": 2.1722319126129150e+00
                  }
                ]
              },
              {
                "depth": 2,
                "value": 1.0,
                "norm_class_idx": 1,
                "splits": [
                  {
                    "var": 21,
                    "quality": 4.7857522583007812e+02,
                    "le": 5.6221008300781250e+00
                  }
                ]
              },
              {
                "depth": 3,
                "value": 1.0,
                "norm_class_idx": 1,
                "splits": [
                  {
                    "var": 71,
                    "quality": 4.7953070068359375e+02,
                    "le": 1.3656276464462280e-01
                  }
                ]
              },
              {
                "depth": 4,
                "value": 0.0,
                "norm_class_idx": 0
              },
              {
                "depth": 4,
                "value": 1.0,
                "norm_class_idx": 1,
                "splits": [
                  {
                    "var": 137,
                    "quality": 4.7886154174804688e+02,
                    "le": 1.0827898979187012e+00
                  }
                ]
              },
              {
                "depth": 5,
                "value": 0.0,
                "norm_class_idx": 0
              },
              {
                "depth": 5,
                "value": 1.0,
                "norm_class_idx": 1,
                "splits": [
                  {
                    "var": 130,
                    "quality": 4.7989370727539062e+02,
                    "le": 7.4729766845703125e+00
                  }
                ]
              },
              {
                "depth": 6,
                "value": 1.0,
                "norm_class_idx": 1,
                "splits": [
                  {
                    "var": 29,
                    "quality": 4.6637710571289062e+02,
                    "le": 1.6083946228027344e+01
                  }
                ]
              },
              {
                "depth": 7,
                "value": 1.0,
                "norm_class_idx": 1,
                "splits": [
                  {
                    "var": 80,
                    "quality": 4.5331372070312500e+02,
                    "le": 5.5468869209289551e-01
                  }
                ]
              },
              {
                "depth": 8,
                "value": 1.0,
                "norm_class_idx": 1
              },
              {
                "depth": 8,
                "value": 1.0,
                "norm_class_idx": 1,
                "splits": [
                  {
                    "var": 80,
                    "quality": 9.8520408630371094e+01,
                    "le": 5.6953775882720947e-01
                  }
                ]
              },
              {
                "depth": 9,
                "value": 0.0,
                "norm_class_idx": 0
              },
              {
                "depth": 9,
                "value": 1.0,
                "norm_class_idx": 1,
                "splits": [
                  {
                    "var": 85,
                    "quality": 98.0,
                    "le": 6.8117079734802246e+00
                  }
                ]
              },
              {
                "depth": 10,
                "value": 1.0,
                "norm_class_idx": 1
              },
              {
                "depth": 10,
                "value": 0.0,
                "norm_class_idx": 0
              },
              {
                "depth": 7,
                "value": 1.0,
                "norm_class_idx": 1,
                "splits": [
                  {
                    "var": 109,
                    "quality": 2.0700000762939453e+01,
                    "le": 4.3340616226196289e+00
                  }
                ]
              },
              {
                "depth": 8,
                "value": 0.0,
                "norm_class_idx": 0
              },
              {
                "depth": 8,
                "value": 1.0,
                "norm_class_idx": 1,
                "splits": [
                  {
                    "var": 15,
                    "quality": 1.4666666984558105e+01,
                    "le": 1.2350632667541504e+01
                  }
                ]
              },
              {
                "depth": 9,
                "value": 1.0,
                "norm_class_idx": 1
              },
              {
                "depth": 9,
                "value": 0.0,
                "norm_class_idx": 0
              },
              {
                "depth": 6,
                "value": 1.0,
                "norm_class_idx": 1,
                "splits": [
                  {
                    "var": 5,
                    "quality": 2.7620689392089844e+01,
                    "le": 7.9204237461090088e-01
                  }
                ]
              },
              {
                "depth": 7,
                "value": 1.0,
                "norm_class_idx": 1,
                "splits": [
                  {
                    "var": 134,
                    "quality": 2.5250000000000000e+01,
                    "le": 5.0748596191406250e+00
                  }
                ]
              },
              {
                "depth": 8,
                "value": 1.0,
                "norm_class_idx": 1
              },
              {
                "depth": 8,
                "value": 1.0,
                "norm_class_idx": 1
              },
              {
                "depth": 7,
                "value": 0.0,
                "norm_class_idx": 0
              },
              {
                "depth": 3,
                "value": 0.0,
                "norm_class_idx": 0
              },
              {
                "depth": 2,
                "value": 0.0,
                "norm_class_idx": 0,
                "splits": [
                  {
                    "var": 60,
                    "quality": 6.2124061584472656e+01,
                    "le": 2.1116300582885742e+01
                  }
                ]
              },
              {
                "depth": 3,
                "value": 0.0,
                "norm_class_idx": 0,
                "splits": [
                  {
                    "var": 99,
                    "quality": 38.0,
                    "le": 9.9481582641601562e+00
                  }
                ]
              },
              {
                "depth": 4,
                "value": 0.0,
                "norm_class_idx": 0
              },
              {
                "depth": 4,
                "value": 1.0,
                "norm_class_idx": 1
              },
              {
                "depth": 3,
                "value": 1.0,
                "norm_class_idx": 1,
                "splits": [
                  {
                    "var": 28,
                    "quality": 28.0,
                    "le": 1.3014547348022461e+01
                  }
                ]
              },
              {
                "depth": 4,
                "value": 1.0,
                "norm_class_idx": 1
              },
              {
                "depth": 4,
                "value": 0.0,
                "norm_class_idx": 0
              },
              {
                "depth": 1,
                "value": 0.0,
                "norm_class_idx": 0,
                "splits": [
                  {
                    "var": 28,
                    "quality": 3.5071430206298828e+01,
                    "le": 2.0584654808044434e+00
                  }
                ]
              },
              {
                "depth": 2,
                "value": 1.0,
                "norm_class_idx": 1
              },
              {
                "depth": 2,
                "value": 0.0,
                "norm_class_idx": 0,
                "splits": [
                  {
                    "var": 26,
                    "quality": 28.0,
                    "le": 1.1705100536346436e+00
                  }
                ]
              },
              {
                "depth": 3,
                "value": 1.0,
                "norm_class_idx": 1
              },
              {
                "depth": 3,
                "value": 0.0,
                "norm_class_idx": 0
              }
            ]
          },
          {
            "nodes": [
              {
                "depth": 0,
                "value": 1.0,
                "norm_class_idx": 1,
                "splits": [
                  {
                    "var": 85,
                    "quality": 5.9121343994140625e+02,
                    "le": 6.6905603408813477e+00
                  }
                ]
              },
              {
                "depth": 1,
                "value": 1.0,
                "norm_class_idx": 1,
                "splits": [
                  {
                    "var": 83,
                    "quality": 5.3089953613281250e+02,
                    "le": 1.1668274551630020e-01
                  }
                ]
              },
              {
                "depth": 2,
                "value": 1.0,
                "norm_class_idx": 1,
                "splits": [
                  {
                    "var": 0,
                    "quality": 5.2409381103515625e+02,
                    "le": 9.1250000000000000e+00
                  }
                ]
              },
              {
                "depth": 3,
                "value": 0.0,
                "norm_class_idx": 0
              },
              {
                "depth": 3,
                "value": 1.0,
                "norm_class_idx": 1,
                "splits": [
                  {
                    "var": 47,
                    "quality": 5.2601519775390625e+02,
                    "le": 3.8018944263458252e+00
                  }
                ]
              },
              {
                "depth": 4,
                "value": 0.0,
                "norm_class_idx": 0
              },
              {
                "depth": 4,
                "value": 1.0,
                "norm_class_idx": 1,
                "splits": [
                  {
                    "var": 26,
                    "quality": 5.2372729492187500e+02,
                    "le": 4.1046099662780762e+00
                  }
                ]
              },
              {
                "depth": 5,
                "value": 1.0,
                "norm_class_idx": 1
              },
              {
                "depth": 5,
                "value": 1.0,
                "norm_class_idx": 1,
                "splits": [
                  {
                    "var": 2,
                    "quality": 9.6666669845581055e+00,
                    "le": 8.3685266971588135e-01
                  }
                ]
              },
              {
                "depth": 6,
                "value": 1.0,
                "norm_class_idx": 1
              },
              {
                "depth": 6,
                "value": 0.0,
                "norm_class_idx": 0
              },
              {
                "depth": 2,
                "value": 1.0,
                "norm_class_idx": 1,
                "splits": [
                  {
                    "var": 87,
                    "quality": 1.3888889312744141e+01,
                    "le": 3.5079383850097656e-01
                  }
                ]
              },
              {
                "depth": 3,
                "value": 1.0,
                "norm_class_idx": 1
              },
              {
                "depth": 3,
                "value": 0.0,
                "norm_class_idx": 0
              },
              {
                "depth": 1,
                "value": 0.0,
                "norm_class_idx": 0,
                "splits": [
                  {
                    "var": 12,
                    "quality": 80.0,
                    "le": 2.6853947639465332e+00
                  }
                ]
              },
              {
                "depth": 2,
                "value": 0.0,
                "norm_class_idx": 0
              },
              {
                "depth": 2,
                "value": 1.0,
                "norm_class_idx": 1
              }
            ]
          },
          {
            "nodes": [
              {
                "depth": 0,
                "value": 1.0,
                "norm_class_idx": 1,
                "splits": [
                  {
                    "var": 86,
                    "quality": 5.7378741455078125e+02,
                    "le": 3.4007270812988281e+01
                  }
                ]
              },
              {
                "depth": 1,
                "value": 1.0,
                "norm_class_idx": 1,
                "splits": [
                  {
                    "var": 20,
                    "quality": 5.1508209228515625e+02,
                    "le": 6.0441309213638306e-01
                  }
                ]
              },
              {
                "depth": 2,
                "value": 1.0,
                "norm_class_idx": 1,
                "splits": [
                  {
                    "var": 125,
                    "quality": 4.9046716308593750e+02,
                    "le": 5.2900047302246094e+00
                  }
                ]
              },
              {
                "depth": 3,
                "value": 1.0,
                "norm_class_idx": 1,
                "splits": [
                  {
                    "var": 26,
                    "quality": 466.0,
                    "le": 5.3723573684692383e+00
                  }
                ]
              },
              {
                "depth": 4,
                "value": 1.0,
                "norm_class_idx": 1
              },
              {
                "depth": 4,
                "value": 0.0,
                "norm_class_idx": 0
              },
              {
                "depth": 3,
                "value": 1.0,
                "norm_class_idx": 1,
                "splits": [
                  {
                    "var": 20,
                    "quality": 3.5062500000000000e+01,
                    "le": 2.2563087940216064e-01
                  }
                ]
              },
              {
                "depth": 4,
                "value": 1.0,
                "norm_class_idx": 1,
                "splits": [
                  {
                    "var": 25,
                    "quality": 32.0,
                    "le": 2.1656938476562500e+03
                  }
                ]
              },
              {
                "depth": 5,
                "value": 1.0,
                "norm_class_idx": 1
              },
              {
                "depth": 5,
                "value": 0.0,
                "norm_class_idx": 0
              },
              {
                "depth": 4,
                "value": 0.0,
                "norm_class_idx": 0
              },
              {
                "depth": 2,
                "value": 1.0,
                "norm_class_idx": 1,
                "splits": [
                  {
                    "var": 24,
                    "quality": 42.0,
                    "le": 1.1205095291137695e+01
                  }
                ]
              },
              {
                "depth": 3,
                "value": 1.0,
                "norm_class_idx": 1
              },
              {
                "depth": 3,
                "value": 0.0,
                "norm_class_idx": 0
              },
              {
                "depth": 1,
                "value": 0.0,
                "norm_class_idx": 0,
                "splits": [
                  {
                    "var": 28,
                    "quality": 7.3977272033691406e+01,
                    "le": 7.7050461769104004e+00
                  }
                ]
              },
              {
                "depth": 2,
                "value": 1.0,
                "norm_class_idx": 1,
                "splits": [
                  {
                    "var": 122,
                    "quality": 11.0,
                    "le": 4.5474820137023926e+00
                  }
                ]
              },
              {
                "depth": 3,
                "value": 1.0,
                "norm_class_idx": 1
              },
              {
                "depth": 3,
                "value": 0.0,
                "norm_class_idx": 0
              },
              {
                "depth": 2,
                "value": 0.0,
                "norm_class_idx": 0,
                "splits": [
                  {
                    "var": 71,
                    "quality": 7.0028572082519531e+01,
                    "le": 8.4872466325759888e-01
                  }
                ]
              },
              {
                "depth": 3,
                "value": 0.0,
                "norm_class_idx": 0,
                "splits": [
                  {
                    "var": 148,
                    "quality": 70.0,
                    "le": 3.0115058898925781e+01
                  }
                ]
              },
              {
                "depth": 4,
                "value": 0.0,
                "norm_class_idx": 0
              },
              {
                "depth": 4,
                "value": 1.0,
                "norm_class_idx": 1
              },
              {
                "depth": 3,
                "value": 1.0,
                "norm_class_idx": 1
              }
            ]
          },
          {
            "nodes": [
              {
                "depth": 0,
                "value": 1.0,
                "norm_class_idx": 1,
                "splits": [
                  {
                    "var": 130,
                    "quality": 4.6877099609375000e+02,
                    "le": 4.1548085212707520e+00
                  }
                ]
              },
              {
                "depth": 1,
                "value": 1.0,
                "norm_class_idx": 1,
                "splits": [
                  {
                    "var": 26,
                    "quality": 3.6155593872070312e+02,
                    "le": 4.0774660110473633e+00
                  }
                ]
              },
              {
                "depth": 2,
                "value": 1.0,
                "norm_class_idx": 1,
                "splits": [
                  {
                    "var": 27,
                    "quality": 3.5519888305664062e+02,
                    "le": 2.9783088684082031e+01
                  }
                ]
              },
              {
                "depth": 3,
                "value": 1.0,
                "norm_class_idx": 1,
                "splits": [
                  {
                    "var": 27,
                    "quality": 3.5293188476562500e+02,
                    "le": 2.0895465850830078e+01
                  }
                ]
              },
              {
                "depth": 4,
                "value": 1.0,
                "norm_class_idx": 1,
                "splits": [
                  {
                    "var": 62,
                    "quality": 3.4860000610351562e+02,
                    "le": 8.6347699165344238e-01
                  }
                ]
              },
              {
                "depth": 5,
                "value": 1.0,
                "norm_class_idx": 1
              },
              {
                "depth": 5,
                "value": 1.0,
                "norm_class_idx": 1
              },
              {
                "depth": 4,
                "value": 1.0,
                "norm_class_idx": 1,
                "splits": [
                  {
                    "var": 148,
                    "quality": 11.0,
                    "le": 1.7749031066894531e+01
                  }
                ]
              },
              {
                "depth": 5,
                "value": 0.0,
                "norm_class_idx": 0
              },
              {
                "depth": 5,
                "value": 1.0,
                "norm_class_idx": 1
              },
              {
                "depth": 3,
                "value": 0.0,
                "norm_class_idx": 0
              },
              {
                "depth": 2,
                "value": 0.0,
                "norm_class_idx": 0,
                "splits": [
                  {
                    "var": 76,
                    "quality": 2.7100000381469727e+01,
                    "le": 1.9795894622802734e+00
                  }
                ]
              },
              {
                "depth": 3,
                "value": 0.0,
                "norm_class_idx": 0,
                "splits": [
                  {
                    "var": 42,
                    "quality": 20.0,
                    "le": 5.3005971908569336e+00
                  }
                ]
              },
              {
                "depth": 4,
                "value": 1.0,
                "norm_class_idx": 1
              },
              {
                "depth": 4,
                "value": 0.0,
                "norm_class_idx": 0
              },
              {
                "depth": 3,
                "value": 1.0,
                "norm_class_idx": 1
              },
              {
                "depth": 1,
                "value": 1.0,
                "norm_class_idx": 1,
                "splits": [
                  {
                    "var": 24,
                    "quality": 2.2345283508300781e+02,
                    "le": 1.7637659072875977e+01
                  }
                ]
              },
              {
                "depth": 2,
                "value": 1.0,
                "norm_class_idx": 1,
                "splits": [
                  {
                    "var": 40,
                    "quality": 1.4833332824707031e+02,
                    "le": 1.7370309829711914e+00
                  }
                ]
              },
              {
                "depth": 3,
                "value": 1.0,
                "norm_class_idx": 1
              },
              {
                "depth": 3,
                "value": 1.0,
